{
  "ensemble_state": {
    "weights": [
      0.16058513047894063,
      0.2537763636923957,
      0.10366800970359825,
      0.006989982608998905,
      0.22051151694860577,
      0.06702369777514806,
      0.0214002429773735,
      0.16604505581493917
    ],
    "model_names": [
      "catboost",
      "knn",
      "lgbm",
      "lr",
      "meta_lr",
      "rf",
      "svc",
      "xgb"
    ],
    "model_state_dicts": [
      {
        "learning_rate": 0.10000000000000002,
        "max_depth": 3,
        "feature_importances": [
          0.01298701298701299,
          0.01298701298701299,
          0.01298701298701299,
          0.01298701298701299,
          0.01298701298701299,
          0.01298701298701299,
          0.01298701298701299,
          0.01298701298701299,
          0.01298701298701299,
          0.01298701298701299,
          0.01298701298701299,
          0.01298701298701299,
          0.01298701298701299,
          0.01298701298701299,
          0.01298701298701299,
          0.01298701298701299,
          0.01298701298701299,
          0.01298701298701299,
          0.01298701298701299,
          0.01298701298701299,
          0.01298701298701299,
          0.01298701298701299,
          0.01298701298701299,
          0.01298701298701299,
          0.01298701298701299,
          0.01298701298701299,
          0.01298701298701299,
          0.01298701298701299,
          0.01298701298701299,
          0.01298701298701299,
          0.01298701298701299,
          0.01298701298701299,
          0.01298701298701299,
          0.01298701298701299,
          0.01298701298701299,
          0.01298701298701299,
          0.01298701298701299,
          0.01298701298701299,
          0.01298701298701299,
          0.01298701298701299,
          0.01298701298701299,
          0.01298701298701299,
          0.01298701298701299,
          0.01298701298701299,
          0.01298701298701299,
          0.01298701298701299,
          0.01298701298701299,
          0.01298701298701299,
          0.01298701298701299,
          0.01298701298701299,
          0.01298701298701299,
          0.01298701298701299,
          0.01298701298701299,
          0.01298701298701299,
          0.01298701298701299,
          0.01298701298701299,
          0.01298701298701299,
          0.01298701298701299,
          0.01298701298701299,
          0.01298701298701299,
          0.01298701298701299,
          0.01298701298701299,
          0.01298701298701299,
          0.01298701298701299,
          0.01298701298701299,
          0.01298701298701299,
          0.01298701298701299,
          0.01298701298701299,
          0.01298701298701299,
          0.01298701298701299,
          0.01298701298701299,
          0.01298701298701299,
          0.01298701298701299,
          0.01298701298701299,
          0.01298701298701299,
          0.01298701298701299,
          0.01298701298701299
        ],
        "estimator": "gbm",
        "n_estimators": 10,
        "output_dim": 1,
        "input_dim": 77
      },
      {
        "coef": [
          [
            0.0,
            0.0,
            0.0,
            0.0,
            0.0,
            0.0,
            0.0,
            0.0,
            0.0,
            0.0,
            0.0,
            0.0,
            0.0,
            0.0,
            0.0,
            0.0,
            0.0,
            0.0,
            0.0,
            0.0,
            0.0,
            0.0,
            0.0,
            0.0,
            0.0,
            0.0,
            0.0,
            0.0,
            0.0,
            0.0,
            0.0,
            0.0,
            0.0,
            0.0,
            0.0,
            0.0,
            0.0,
            0.0,
            0.0,
            0.0,
            0.0,
            0.0,
            0.0,
            0.0,
            0.0,
            0.0,
            0.0,
            0.0,
            0.0,
            0.0,
            0.0,
            0.0,
            0.0,
            0.0,
            0.0,
            0.0,
            0.0,
            0.0,
            0.0,
            0.0,
            0.0,
            0.0,
            0.0,
            0.0,
            0.0,
            0.0,
            0.0,
            0.0,
            0.0,
            0.0,
            0.0,
            0.0,
            0.0,
            0.0,
            0.0,
            0.0,
            0.0
          ]
        ],
        "estimator": "lr",
        "output_dim": 1,
        "input_dim": 77,
        "intercept": [
          0.0
        ]
      },
      {
        "learning_rate": 0.05,
        "max_depth": 8,
        "feature_importances": [
          0.012987012987012986,
          0.012987012987012986,
          0.012987012987012986,
          0.012987012987012986,
          0.012987012987012986,
          0.012987012987012986,
          0.012987012987012986,
          0.012987012987012986,
          0.012987012987012986,
          0.012987012987012986,
          0.012987012987012986,
          0.012987012987012986,
          0.012987012987012986,
          0.012987012987012986,
          0.012987012987012986,
          0.012987012987012986,
          0.012987012987012986,
          0.012987012987012986,
          0.012987012987012986,
          0.012987012987012986,
          0.012987012987012986,
          0.012987012987012986,
          0.012987012987012986,
          0.012987012987012986,
          0.012987012987012986,
          0.012987012987012986,
          0.012987012987012986,
          0.012987012987012986,
          0.012987012987012986,
          0.012987012987012986,
          0.012987012987012986,
          0.012987012987012986,
          0.012987012987012986,
          0.012987012987012986,
          0.012987012987012986,
          0.012987012987012986,
          0.012987012987012986,
          0.012987012987012986,
          0.012987012987012986,
          0.012987012987012986,
          0.012987012987012986,
          0.012987012987012986,
          0.012987012987012986,
          0.012987012987012986,
          0.012987012987012986,
          0.012987012987012986,
          0.012987012987012986,
          0.012987012987012986,
          0.012987012987012986,
          0.012987012987012986,
          0.012987012987012986,
          0.012987012987012986,
          0.012987012987012986,
          0.012987012987012986,
          0.012987012987012986,
          0.012987012987012986,
          0.012987012987012986,
          0.012987012987012986,
          0.012987012987012986,
          0.012987012987012986,
          0.012987012987012986,
          0.012987012987012986,
          0.012987012987012986,
          0.012987012987012986,
          0.012987012987012986,
          0.012987012987012986,
          0.012987012987012986,
          0.012987012987012986,
          0.012987012987012986,
          0.012987012987012986,
          0.012987012987012986,
          0.012987012987012986,
          0.012987012987012986,
          0.012987012987012986,
          0.012987012987012986,
          0.012987012987012986,
          0.012987012987012986
        ],
        "estimator": "gbm",
        "n_estimators": 100,
        "output_dim": 1,
        "input_dim": 77
      },
      {
        "coef": [
          [
            0.0027802852749100326,
            -0.0004534135990893178,
            0.008441558089597857,
            -0.007019780539388986,
            0.008435790139300613,
            0.006747015069775252,
            0.003344855794641076,
            -0.009992431285898416,
            -0.0049302223937942435,
            -0.0026786715492407125,
            0.001668016019176717,
            0.00982572832985982,
            0.006236738015513702,
            -0.0024662017581567096,
            -0.0025599987208975005,
            -0.008031569517938198,
            -0.005320385271931587,
            -0.0010278748401144951,
            -0.006960910454772247,
            -0.005129620526844592,
            -0.006668026578393449,
            0.0026644798759326883,
            -0.001005470398684651,
            0.005125623654078457,
            0.00045081147780334785,
            -0.0010842819147056561,
            -0.002805638642585804,
            -0.004474171485573135,
            -0.0016304858941422352,
            -0.0042454956172645435,
            -0.008051898248471079,
            0.0023635223908127067,
            -0.0011730377940447172,
            -0.007519553331604662,
            -0.009819213417376165,
            0.006382612658301609,
            0.006849290550808266,
            0.007087852252073793,
            0.008138184616418869,
            -0.007679080850790642,
            -0.0009695766010628225,
            -0.0004334837122067191,
            0.0023575418715379645,
            -0.007134834575504963,
            0.002142648616388028,
            -0.00784578091711735,
            0.0005807592747099233,
            0.004397902681879031,
            -0.0022623516781141275,
            0.007222796474566367,
            0.007979602631080893,
            0.007160373260616927,
            0.005792713282233792,
            -0.008741475321878403,
            0.00779232747763371,
            -0.002852819268679134,
            0.005444586411292253,
            0.004772770853607269,
            -0.002559917934257758,
            -0.0037832349140678014,
            -0.003986486228775645,
            -0.0029377885570773523,
            0.0039024910214539316,
            -0.0069173310448321845,
            0.006782620584471219,
            0.003302530810468718,
            -0.0014196318879635544,
            0.0019698953006885393,
            0.00605024400184531,
            0.007629117274338954,
            0.007270976729045512,
            -0.004167827501199808,
            -0.00806917055975167,
            -0.002040161493684821,
            0.003759394002488021,
            0.007753612089628258,
            -0.004474291728102322
          ]
        ],
        "estimator": "lr",
        "output_dim": 1,
        "input_dim": 77,
        "intercept": [
          0.0
        ]
      },
      {
        "linear.weight": [
          [
            -10.750450200026672,
            0.1290169606717682,
            10.450179408167598,
            0.7209695031389568,
            0.7209695031389568,
            0.0,
            0.0
          ]
        ],
        "linear.bias": [
          -3.8126526459319794
        ],
        "model_type": "pytorch"
      },
      {
        "feature_importances": [
          0.012987012987012988,
          0.012987012987012988,
          0.012987012987012988,
          0.012987012987012988,
          0.012987012987012988,
          0.012987012987012988,
          0.012987012987012988,
          0.012987012987012988,
          0.012987012987012988,
          0.012987012987012988,
          0.012987012987012988,
          0.012987012987012988,
          0.012987012987012988,
          0.012987012987012988,
          0.012987012987012988,
          0.012987012987012988,
          0.012987012987012988,
          0.012987012987012988,
          0.012987012987012988,
          0.012987012987012988,
          0.012987012987012988,
          0.012987012987012988,
          0.012987012987012988,
          0.012987012987012988,
          0.012987012987012988,
          0.012987012987012988,
          0.012987012987012988,
          0.012987012987012988,
          0.012987012987012988,
          0.012987012987012988,
          0.012987012987012988,
          0.012987012987012988,
          0.012987012987012988,
          0.012987012987012988,
          0.012987012987012988,
          0.012987012987012988,
          0.012987012987012988,
          0.012987012987012988,
          0.012987012987012988,
          0.012987012987012988,
          0.012987012987012988,
          0.012987012987012988,
          0.012987012987012988,
          0.012987012987012988,
          0.012987012987012988,
          0.012987012987012988,
          0.012987012987012988,
          0.012987012987012988,
          0.012987012987012988,
          0.012987012987012988,
          0.012987012987012988,
          0.012987012987012988,
          0.012987012987012988,
          0.012987012987012988,
          0.012987012987012988,
          0.012987012987012988,
          0.012987012987012988,
          0.012987012987012988,
          0.012987012987012988,
          0.012987012987012988,
          0.012987012987012988,
          0.012987012987012988,
          0.012987012987012988,
          0.012987012987012988,
          0.012987012987012988,
          0.012987012987012988,
          0.012987012987012988,
          0.012987012987012988,
          0.012987012987012988,
          0.012987012987012988,
          0.012987012987012988,
          0.012987012987012988,
          0.012987012987012988,
          0.012987012987012988,
          0.012987012987012988,
          0.012987012987012988,
          0.012987012987012988
        ],
        "estimator": "rf",
        "n_estimators": 100,
        "output_dim": 1,
        "input_dim": 77
      },
      {
        "estimator": "svc",
        "dual_coef": [
          [
            0.1,
            -0.1
          ]
        ],
        "support_vectors": [
          [
            0.03902010547949819,
            0.06308785411898118,
            -0.09341782185051249,
            -0.07043590629857505,
            0.09817413343293879,
            0.038376297800956416,
            0.05647407406097532,
            -0.029268313201373464,
            0.030845749935038302,
            0.008652831290809265,
            -0.07835449259270358,
            0.01426904809893044,
            0.058966659746593625,
            0.08394940944414817,
            0.052501246312352395,
            -0.07127308482192468,
            -0.04126317265079904,
            -0.03242507493501323,
            0.012530877289985615,
            0.08140173618028967,
            -0.07880817303401416,
            0.08065188493298701,
            0.09617949421172597,
            -0.011270528073875657,
            -0.005991240063337039,
            -0.006770475067348472,
            0.06030410552652879,
            0.0032503053353274136,
            -0.08009844791405328,
            -0.04948446734813568,
            -0.0851716982311285,
            -0.06662671198841424,
            -0.07314822214301575,
            -0.07873306395291538,
            -0.028107491938936024,
            0.08772884256996094,
            0.08409714767712875,
            -0.0428135845220246,
            0.0521543936185066,
            -0.09547856767161551,
            0.023213187797842275,
            0.00564304193536444,
            -0.05938674200405483,
            -0.09870129918502006,
            -0.08127523923771252,
            -0.013966527323737682,
            0.003131648046622096,
            -0.046045251741834714,
            -0.028080412222103335,
            -0.009917675352617741,
            -0.03645764352859575,
            -0.036167134670433226,
            -0.09606811374830651,
            0.046221568229238424,
            -0.011492968534183204,
            0.010695021297029483,
            -0.029860683009492895,
            0.07490617087440929,
            -0.0723933731719336,
            0.08291621143686068,
            0.007586186314436555,
            -0.0009391896638826641,
            0.028295308452404938,
            0.02661689157593961,
            -0.019896718932350704,
            0.05866368941335995,
            0.00940523389846011,
            -0.06709847192257196,
            -0.09077913687285308,
            0.018379712650319985,
            0.08917173353533267,
            -0.0637871273724801,
            0.08490056980877345,
            0.024035922573813928,
            -0.008373778282649999,
            -0.014050617989580697,
            0.07472225613237646
          ],
          [
            -0.06950978274165392,
            -0.05803849179917156,
            0.05840622170513604,
            -0.07392162523475249,
            -0.03082381884122172,
            0.0553690161127485,
            0.035103098129937005,
            -0.09256431548613367,
            -0.06685541742856602,
            -0.05826882486636127,
            -0.057567388075239936,
            -0.09589722249390131,
            0.09109498676484626,
            -0.09935288120625482,
            -0.03802734312843097,
            0.020442728103405906,
            0.0648642262573089,
            -0.03884424645068106,
            0.08214507535994592,
            -0.04573830993588744,
            0.08062413878911764,
            0.013968317598023569,
            0.02724033274178833,
            -0.09521921085814743,
            -0.08612816193767728,
            -0.04509574002053085,
            -0.034422605738292575,
            0.023242963278792744,
            0.05622931793549499,
            -0.05338770659743189,
            0.06056844699624636,
            -0.09173339821647208,
            -0.0092834332535396,
            -0.044606397780725865,
            0.08287540743476837,
            0.025195760636318846,
            0.02826225673263222,
            0.05844902275653499,
            -0.09293615343243408,
            -0.09535710927740806,
            -0.08735418813452452,
            -0.05230597813507008,
            -0.04938357628219239,
            0.09165622411763133,
            0.0566455864952117,
            0.08039687508855056,
            -0.09276087899702877,
            0.08497624924324555,
            -0.09194169939867654,
            -0.09958529654824089,
            -0.06553049038051587,
            0.03788473247611249,
            -0.08863737775805153,
            0.05619314573419973,
            0.0786120748967089,
            -0.04043935580369094,
            0.035899234953344406,
            0.0849540003812978,
            -0.06714154209032155,
            -0.030119075378561663,
            0.0930501019629911,
            0.056435044543178686,
            0.08416551368746228,
            0.033242388506932785,
            0.06891089189273644,
            0.09272640018562003,
            -0.08459702144433096,
            0.0827286109308388,
            -0.05995830129250064,
            -0.06971668129195847,
            -0.07654435794903613,
            -0.0632007944781417,
            0.041214290930635285,
            -0.0734754649700775,
            -0.07554776526763672,
            -0.08154451229911147,
            0.019467710265104007
          ]
        ],
        "output_dim": 1,
        "input_dim": 77,
        "intercept": [
          -0.1
        ]
      },
      {
        "learning_rate": 0.1,
        "max_depth": 6,
        "feature_importances": [
          0.012987012987012988,
          0.012987012987012988,
          0.012987012987012988,
          0.012987012987012988,
          0.012987012987012988,
          0.012987012987012988,
          0.012987012987012988,
          0.012987012987012988,
          0.012987012987012988,
          0.012987012987012988,
          0.012987012987012988,
          0.012987012987012988,
          0.012987012987012988,
          0.012987012987012988,
          0.012987012987012988,
          0.012987012987012988,
          0.012987012987012988,
          0.012987012987012988,
          0.012987012987012988,
          0.012987012987012988,
          0.012987012987012988,
          0.012987012987012988,
          0.012987012987012988,
          0.012987012987012988,
          0.012987012987012988,
          0.012987012987012988,
          0.012987012987012988,
          0.012987012987012988,
          0.012987012987012988,
          0.012987012987012988,
          0.012987012987012988,
          0.012987012987012988,
          0.012987012987012988,
          0.012987012987012988,
          0.012987012987012988,
          0.012987012987012988,
          0.012987012987012988,
          0.012987012987012988,
          0.012987012987012988,
          0.012987012987012988,
          0.012987012987012988,
          0.012987012987012988,
          0.012987012987012988,
          0.012987012987012988,
          0.012987012987012988,
          0.012987012987012988,
          0.012987012987012988,
          0.012987012987012988,
          0.012987012987012988,
          0.012987012987012988,
          0.012987012987012988,
          0.012987012987012988,
          0.012987012987012988,
          0.012987012987012988,
          0.012987012987012988,
          0.012987012987012988,
          0.012987012987012988,
          0.012987012987012988,
          0.012987012987012988,
          0.012987012987012988,
          0.012987012987012988,
          0.012987012987012988,
          0.012987012987012988,
          0.012987012987012988,
          0.012987012987012988,
          0.012987012987012988,
          0.012987012987012988,
          0.012987012987012988,
          0.012987012987012988,
          0.012987012987012988,
          0.012987012987012988,
          0.012987012987012988,
          0.012987012987012988,
          0.012987012987012988,
          0.012987012987012988,
          0.012987012987012988,
          0.012987012987012988
        ],
        "estimator": "gbm",
        "n_estimators": 100,
        "output_dim": 1,
        "input_dim": 77
      }
    ]
  },
  "info": {
    "round": 2,
    "timestamp": "2025-05-13T17:37:51.094698+00:00",
    "version": "1.0.0513-7779.2",
    "version_data": {
      "version": "1.0.0513-7779.2",
      "base_version": "1.0",
      "session_id": 1747157779,
      "session_tag": "0513-7779",
      "round": 2,
      "timestamp": "2025-05-13T17:37:51.094677+00:00"
    },
    "is_ensemble": true,
    "task_type": "fraud_detection",
    "num_models": 8,
    "model_names": [
      "catboost",
      "knn",
      "lgbm",
      "lr",
      "meta_lr",
      "rf",
      "svc",
      "xgb"
    ]
  }
}