{
  "ensemble_state": {
    "weights": [
      0.2882214612062176,
      0.06224722258084221,
      0.02112720056726228,
      0.002074108356535868,
      0.07841699158073698,
      0.3736369342115011,
      0.03432802367623461,
      0.13994805782066927
    ],
    "model_names": [
      "catboost",
      "knn",
      "lgbm",
      "lr",
      "meta_lr",
      "rf",
      "svc",
      "xgb"
    ],
    "model_state_dicts": [
      {
        "feature_importances": [
          0.012987012987012988,
          0.012987012987012988,
          0.012987012987012988,
          0.012987012987012988,
          0.012987012987012988,
          0.012987012987012988,
          0.012987012987012988,
          0.012987012987012988,
          0.012987012987012988,
          0.012987012987012988,
          0.012987012987012988,
          0.012987012987012988,
          0.012987012987012988,
          0.012987012987012988,
          0.012987012987012988,
          0.012987012987012988,
          0.012987012987012988,
          0.012987012987012988,
          0.012987012987012988,
          0.012987012987012988,
          0.012987012987012988,
          0.012987012987012988,
          0.012987012987012988,
          0.012987012987012988,
          0.012987012987012988,
          0.012987012987012988,
          0.012987012987012988,
          0.012987012987012988,
          0.012987012987012988,
          0.012987012987012988,
          0.012987012987012988,
          0.012987012987012988,
          0.012987012987012988,
          0.012987012987012988,
          0.012987012987012988,
          0.012987012987012988,
          0.012987012987012988,
          0.012987012987012988,
          0.012987012987012988,
          0.012987012987012988,
          0.012987012987012988,
          0.012987012987012988,
          0.012987012987012988,
          0.012987012987012988,
          0.012987012987012988,
          0.012987012987012988,
          0.012987012987012988,
          0.012987012987012988,
          0.012987012987012988,
          0.012987012987012988,
          0.012987012987012988,
          0.012987012987012988,
          0.012987012987012988,
          0.012987012987012988,
          0.012987012987012988,
          0.012987012987012988,
          0.012987012987012988,
          0.012987012987012988,
          0.012987012987012988,
          0.012987012987012988,
          0.012987012987012988,
          0.012987012987012988,
          0.012987012987012988,
          0.012987012987012988,
          0.012987012987012988,
          0.012987012987012988,
          0.012987012987012988,
          0.012987012987012988,
          0.012987012987012988,
          0.012987012987012988,
          0.012987012987012988,
          0.012987012987012988,
          0.012987012987012988,
          0.012987012987012988,
          0.012987012987012988,
          0.012987012987012988,
          0.012987012987012988
        ],
        "learning_rate": 0.1,
        "input_dim": 77,
        "max_depth": 3,
        "output_dim": 1,
        "estimator": "gbm",
        "n_estimators": 10
      },
      {
        "input_dim": 77,
        "intercept": [
          0.0
        ],
        "coef": [
          [
            0.0,
            0.0,
            0.0,
            0.0,
            0.0,
            0.0,
            0.0,
            0.0,
            0.0,
            0.0,
            0.0,
            0.0,
            0.0,
            0.0,
            0.0,
            0.0,
            0.0,
            0.0,
            0.0,
            0.0,
            0.0,
            0.0,
            0.0,
            0.0,
            0.0,
            0.0,
            0.0,
            0.0,
            0.0,
            0.0,
            0.0,
            0.0,
            0.0,
            0.0,
            0.0,
            0.0,
            0.0,
            0.0,
            0.0,
            0.0,
            0.0,
            0.0,
            0.0,
            0.0,
            0.0,
            0.0,
            0.0,
            0.0,
            0.0,
            0.0,
            0.0,
            0.0,
            0.0,
            0.0,
            0.0,
            0.0,
            0.0,
            0.0,
            0.0,
            0.0,
            0.0,
            0.0,
            0.0,
            0.0,
            0.0,
            0.0,
            0.0,
            0.0,
            0.0,
            0.0,
            0.0,
            0.0,
            0.0,
            0.0,
            0.0,
            0.0,
            0.0
          ]
        ],
        "output_dim": 1,
        "estimator": "lr"
      },
      {
        "feature_importances": [
          0.012987012987012988,
          0.012987012987012988,
          0.012987012987012988,
          0.012987012987012988,
          0.012987012987012988,
          0.012987012987012988,
          0.012987012987012988,
          0.012987012987012988,
          0.012987012987012988,
          0.012987012987012988,
          0.012987012987012988,
          0.012987012987012988,
          0.012987012987012988,
          0.012987012987012988,
          0.012987012987012988,
          0.012987012987012988,
          0.012987012987012988,
          0.012987012987012988,
          0.012987012987012988,
          0.012987012987012988,
          0.012987012987012988,
          0.012987012987012988,
          0.012987012987012988,
          0.012987012987012988,
          0.012987012987012988,
          0.012987012987012988,
          0.012987012987012988,
          0.012987012987012988,
          0.012987012987012988,
          0.012987012987012988,
          0.012987012987012988,
          0.012987012987012988,
          0.012987012987012988,
          0.012987012987012988,
          0.012987012987012988,
          0.012987012987012988,
          0.012987012987012988,
          0.012987012987012988,
          0.012987012987012988,
          0.012987012987012988,
          0.012987012987012988,
          0.012987012987012988,
          0.012987012987012988,
          0.012987012987012988,
          0.012987012987012988,
          0.012987012987012988,
          0.012987012987012988,
          0.012987012987012988,
          0.012987012987012988,
          0.012987012987012988,
          0.012987012987012988,
          0.012987012987012988,
          0.012987012987012988,
          0.012987012987012988,
          0.012987012987012988,
          0.012987012987012988,
          0.012987012987012988,
          0.012987012987012988,
          0.012987012987012988,
          0.012987012987012988,
          0.012987012987012988,
          0.012987012987012988,
          0.012987012987012988,
          0.012987012987012988,
          0.012987012987012988,
          0.012987012987012988,
          0.012987012987012988,
          0.012987012987012988,
          0.012987012987012988,
          0.012987012987012988,
          0.012987012987012988,
          0.012987012987012988,
          0.012987012987012988,
          0.012987012987012988,
          0.012987012987012988,
          0.012987012987012988,
          0.012987012987012988
        ],
        "learning_rate": 0.05,
        "input_dim": 77,
        "max_depth": 8,
        "output_dim": 1,
        "estimator": "gbm",
        "n_estimators": 100
      },
      {
        "input_dim": 77,
        "intercept": [
          0.0
        ],
        "coef": [
          [
            -0.004320244059917784,
            -0.007995052644038674,
            0.00035700327205109676,
            -0.0011808251170975052,
            -0.009771001048264163,
            -0.0022081605156063985,
            -0.004711819320108353,
            -0.009912156245824342,
            0.0007711108838928341,
            0.006434969932339036,
            -0.0002454180349930942,
            -0.0034971152936758097,
            0.00393610183739076,
            -0.006214782226494111,
            -0.007056952250655208,
            0.00700178497148027,
            -0.007219200135182725,
            -0.00382095010107232,
            -0.007956414938036269,
            -0.0026998297410630668,
            0.001584149380951281,
            0.0009699073394599869,
            -0.004494603338183891,
            -0.007703840474144231,
            -0.004380310310172384,
            -0.004365799472427594,
            -0.007326893120108766,
            -0.0014852968808290908,
            -0.005610334946110247,
            -0.0022247544615930856,
            -8.503646691095275e-05,
            0.006427053381269756,
            -0.005448718275487925,
            0.007065975263805422,
            0.000879989910697104,
            -0.008129074914668421,
            -0.005139492951721161,
            0.0026577689547049362,
            0.004671138309402993,
            -0.009103910603881708,
            -0.005040774711819545,
            0.0037896246486609705,
            -0.007786410237477328,
            0.0061363258347471635,
            0.0065170503577584565,
            -0.0020804666815435607,
            -0.002767653406098354,
            -0.0009609291357417452,
            0.005351156830854431,
            0.00623623983344951,
            -0.0073808541535844395,
            -7.859318798309443e-05,
            0.004216670760746159,
            0.005088983880088755,
            -0.0030346031268564163,
            -0.00489672817731869,
            0.004509566556270904,
            0.0020767737735624733,
            0.004042763868947889,
            0.008625508999891776,
            0.0061814898766663785,
            0.0023909275272313082,
            -0.008793602060404146,
            -0.0007862256080258187,
            0.0025547258320897884,
            0.002907643278460839,
            0.007074915210972836,
            -0.00512704566685525,
            -0.00443382116802977,
            0.005971210568056872,
            0.0036818086478415737,
            0.004140222853868664,
            0.0022100570471164094,
            0.005834781562057282,
            0.006883924693266317,
            -0.004584823194922456,
            -0.009218105885834944
          ]
        ],
        "output_dim": 1,
        "estimator": "lr"
      },
      {
        "model_type": "pytorch",
        "linear.bias": [
          -4.346826553344727
        ],
        "linear.weight": [
          [
            1.5772018432617188,
            -0.05900323763489723,
            3.4999389648437504,
            -1.3017069101333618,
            -1.3017069101333618,
            0.0,
            0.0
          ]
        ]
      },
      {
        "feature_importances": [
          0.01298701298701299,
          0.01298701298701299,
          0.01298701298701299,
          0.01298701298701299,
          0.01298701298701299,
          0.01298701298701299,
          0.01298701298701299,
          0.01298701298701299,
          0.01298701298701299,
          0.01298701298701299,
          0.01298701298701299,
          0.01298701298701299,
          0.01298701298701299,
          0.01298701298701299,
          0.01298701298701299,
          0.01298701298701299,
          0.01298701298701299,
          0.01298701298701299,
          0.01298701298701299,
          0.01298701298701299,
          0.01298701298701299,
          0.01298701298701299,
          0.01298701298701299,
          0.01298701298701299,
          0.01298701298701299,
          0.01298701298701299,
          0.01298701298701299,
          0.01298701298701299,
          0.01298701298701299,
          0.01298701298701299,
          0.01298701298701299,
          0.01298701298701299,
          0.01298701298701299,
          0.01298701298701299,
          0.01298701298701299,
          0.01298701298701299,
          0.01298701298701299,
          0.01298701298701299,
          0.01298701298701299,
          0.01298701298701299,
          0.01298701298701299,
          0.01298701298701299,
          0.01298701298701299,
          0.01298701298701299,
          0.01298701298701299,
          0.01298701298701299,
          0.01298701298701299,
          0.01298701298701299,
          0.01298701298701299,
          0.01298701298701299,
          0.01298701298701299,
          0.01298701298701299,
          0.01298701298701299,
          0.01298701298701299,
          0.01298701298701299,
          0.01298701298701299,
          0.01298701298701299,
          0.01298701298701299,
          0.01298701298701299,
          0.01298701298701299,
          0.01298701298701299,
          0.01298701298701299,
          0.01298701298701299,
          0.01298701298701299,
          0.01298701298701299,
          0.01298701298701299,
          0.01298701298701299,
          0.01298701298701299,
          0.01298701298701299,
          0.01298701298701299,
          0.01298701298701299,
          0.01298701298701299,
          0.01298701298701299,
          0.01298701298701299,
          0.01298701298701299,
          0.01298701298701299,
          0.01298701298701299
        ],
        "input_dim": 77,
        "output_dim": 1,
        "estimator": "rf",
        "n_estimators": 100
      },
      {
        "support_vectors": [
          [
            0.03894389077421881,
            0.0012883648124236424,
            0.026037934461709294,
            0.05423319086418221,
            0.0344142811652032,
            -0.004932235898604281,
            0.02996769812984726,
            -0.047246014894473894,
            0.01813878097442341,
            -0.04707098745529693,
            0.07285283116614613,
            0.04353811035305524,
            -0.05326027560898592,
            -0.042165064387767265,
            0.06061547012625865,
            0.052480249402522716,
            0.006441222402999963,
            -0.05971610578232295,
            0.001182089654549398,
            -0.050309078085319196,
            0.06859264422398709,
            -0.08325523400541412,
            -0.0804868679062728,
            0.07795287511920279,
            0.003757901640865688,
            0.059374130534219784,
            -0.051846457848572114,
            -0.08375499190586569,
            0.02406023641203145,
            -0.07444314689244683,
            -0.08252172054560006,
            0.06580712720224655,
            0.03622403376675054,
            -0.0033243122424196636,
            -0.038311615495108045,
            -0.04726437797618083,
            0.0777176316257854,
            0.01216547050596309,
            -0.01901248766870782,
            -0.03171938159934269,
            -0.08718463705884612,
            -0.03053427454147005,
            0.028613266171370166,
            -0.01771930759842362,
            -0.06357596052634959,
            0.015290078361256426,
            0.06594405100791384,
            0.01165317392332306,
            -0.02771114814002891,
            0.04173665003593585,
            -0.05791176329640665,
            0.023939960651368913,
            -0.053885909697456616,
            0.024428527353471743,
            0.05079106839554276,
            0.07450705750721795,
            0.09105908284959996,
            -0.04589217145916816,
            -0.07209595422605182,
            -0.02876706144503512,
            -0.05829344462232476,
            0.09575896850037216,
            -0.014232710528157416,
            0.06751067530552027,
            -0.09886589216890446,
            -0.02385772856469988,
            -0.010144225606004073,
            -0.07205005515972432,
            -0.0858274406816352,
            0.07936492793057556,
            -0.07832194669537469,
            -0.05529264580600153,
            0.017130362152497372,
            0.0469519791626562,
            0.052743535662709146,
            0.08422421923088344,
            -0.062253120692988086
          ],
          [
            -0.06119963177945498,
            -0.047653140932464755,
            -0.06619820759465592,
            -0.06708346938656734,
            -0.09059553824094527,
            0.06026951326045757,
            -0.0844565783208712,
            0.0688724629335927,
            0.06142618545909884,
            0.0012743897017514494,
            -0.05923305145650318,
            0.007907579953461724,
            0.016097722592553265,
            -0.055328204086769694,
            -0.05410611551946816,
            0.04441744055701033,
            0.09839325115009809,
            0.04566887346439363,
            0.02782527288868228,
            0.010043610465372749,
            0.09226751803203136,
            -0.06841405618218899,
            0.021169187313529972,
            0.027130598903608194,
            0.07842822792932808,
            0.016372101874800676,
            -0.05614174891472655,
            0.08798757385185002,
            0.09707521067578312,
            -0.005553516497265126,
            0.030067284912891793,
            -0.0030517295349113266,
            0.0562878752425719,
            -0.09712739331008326,
            0.09719597791549478,
            0.03707974943771175,
            -0.09788100578966422,
            -0.019907216155061705,
            0.03993907778830966,
            0.06862695193226173,
            0.011012061504118237,
            0.04448681817387748,
            0.049368897950452524,
            -0.07078194832793505,
            -0.002072946214181526,
            0.025602614910991583,
            -0.03640998831219107,
            0.0653314752741159,
            0.09346386817477237,
            0.05976276298146904,
            -0.005990508028067512,
            0.02936665017161924,
            -0.004264605255273099,
            -0.019851694305166645,
            -0.06553718779489795,
            -0.0723519535151459,
            -0.06776668942424599,
            0.09206872555267019,
            0.023588312544935434,
            -0.05800902366165038,
            -0.05461898601195647,
            -0.024222274580285114,
            -0.05683400703709197,
            0.007894125553058351,
            0.03131185329827013,
            0.05851303312325559,
            0.0758085393647214,
            -0.02052903021061328,
            -0.08034100172637171,
            -0.05144155774629531,
            0.013811967306129769,
            0.07292976031242501,
            0.04784058886653192,
            0.07081209094668423,
            0.050889541249810266,
            0.0203663444092627,
            -0.08275435228052183
          ]
        ],
        "input_dim": 77,
        "intercept": [
          -0.1
        ],
        "dual_coef": [
          [
            0.1,
            -0.1
          ]
        ],
        "output_dim": 1,
        "estimator": "svc"
      },
      {
        "feature_importances": [
          0.012987012987012988,
          0.012987012987012988,
          0.012987012987012988,
          0.012987012987012988,
          0.012987012987012988,
          0.012987012987012988,
          0.012987012987012988,
          0.012987012987012988,
          0.012987012987012988,
          0.012987012987012988,
          0.012987012987012988,
          0.012987012987012988,
          0.012987012987012988,
          0.012987012987012988,
          0.012987012987012988,
          0.012987012987012988,
          0.012987012987012988,
          0.012987012987012988,
          0.012987012987012988,
          0.012987012987012988,
          0.012987012987012988,
          0.012987012987012988,
          0.012987012987012988,
          0.012987012987012988,
          0.012987012987012988,
          0.012987012987012988,
          0.012987012987012988,
          0.012987012987012988,
          0.012987012987012988,
          0.012987012987012988,
          0.012987012987012988,
          0.012987012987012988,
          0.012987012987012988,
          0.012987012987012988,
          0.012987012987012988,
          0.012987012987012988,
          0.012987012987012988,
          0.012987012987012988,
          0.012987012987012988,
          0.012987012987012988,
          0.012987012987012988,
          0.012987012987012988,
          0.012987012987012988,
          0.012987012987012988,
          0.012987012987012988,
          0.012987012987012988,
          0.012987012987012988,
          0.012987012987012988,
          0.012987012987012988,
          0.012987012987012988,
          0.012987012987012988,
          0.012987012987012988,
          0.012987012987012988,
          0.012987012987012988,
          0.012987012987012988,
          0.012987012987012988,
          0.012987012987012988,
          0.012987012987012988,
          0.012987012987012988,
          0.012987012987012988,
          0.012987012987012988,
          0.012987012987012988,
          0.012987012987012988,
          0.012987012987012988,
          0.012987012987012988,
          0.012987012987012988,
          0.012987012987012988,
          0.012987012987012988,
          0.012987012987012988,
          0.012987012987012988,
          0.012987012987012988,
          0.012987012987012988,
          0.012987012987012988,
          0.012987012987012988,
          0.012987012987012988,
          0.012987012987012988,
          0.012987012987012988
        ],
        "learning_rate": 0.1,
        "input_dim": 77,
        "max_depth": 6,
        "output_dim": 1,
        "estimator": "gbm",
        "n_estimators": 100
      }
    ]
  },
  "info": {
    "round": 2,
    "timestamp": "2025-05-14T04:26:00.276443+00:00",
    "version": "1.0.0514-6697.2",
    "version_data": {
      "version": "1.0.0514-6697.2",
      "base_version": "1.0",
      "session_id": 1747196697,
      "session_tag": "0514-6697",
      "round": 2,
      "timestamp": "2025-05-14T04:26:00.276435+00:00"
    },
    "is_ensemble": true,
    "task_type": "fraud_detection",
    "num_models": 8,
    "model_names": [
      "catboost",
      "knn",
      "lgbm",
      "lr",
      "meta_lr",
      "rf",
      "svc",
      "xgb"
    ]
  }
}