{
  "ensemble_state": {
    "weights": [
      0.09731761735865112,
      0.23967147297338937,
      0.0970890616620953,
      0.1832489279790938,
      0.2610246079701949,
      0.007070160064099952,
      0.09883797115254514,
      0.01574018083993024
    ],
    "model_names": [
      "catboost",
      "knn",
      "lgbm",
      "lr",
      "meta_lr",
      "rf",
      "svc",
      "xgb"
    ],
    "model_state_dicts": [
      {
        "n_estimators": 10,
        "max_depth": 3,
        "input_dim": 77,
        "feature_importances": [
          0.012987012987012988,
          0.012987012987012988,
          0.012987012987012988,
          0.012987012987012988,
          0.012987012987012988,
          0.012987012987012988,
          0.012987012987012988,
          0.012987012987012988,
          0.012987012987012988,
          0.012987012987012988,
          0.012987012987012988,
          0.012987012987012988,
          0.012987012987012988,
          0.012987012987012988,
          0.012987012987012988,
          0.012987012987012988,
          0.012987012987012988,
          0.012987012987012988,
          0.012987012987012988,
          0.012987012987012988,
          0.012987012987012988,
          0.012987012987012988,
          0.012987012987012988,
          0.012987012987012988,
          0.012987012987012988,
          0.012987012987012988,
          0.012987012987012988,
          0.012987012987012988,
          0.012987012987012988,
          0.012987012987012988,
          0.012987012987012988,
          0.012987012987012988,
          0.012987012987012988,
          0.012987012987012988,
          0.012987012987012988,
          0.012987012987012988,
          0.012987012987012988,
          0.012987012987012988,
          0.012987012987012988,
          0.012987012987012988,
          0.012987012987012988,
          0.012987012987012988,
          0.012987012987012988,
          0.012987012987012988,
          0.012987012987012988,
          0.012987012987012988,
          0.012987012987012988,
          0.012987012987012988,
          0.012987012987012988,
          0.012987012987012988,
          0.012987012987012988,
          0.012987012987012988,
          0.012987012987012988,
          0.012987012987012988,
          0.012987012987012988,
          0.012987012987012988,
          0.012987012987012988,
          0.012987012987012988,
          0.012987012987012988,
          0.012987012987012988,
          0.012987012987012988,
          0.012987012987012988,
          0.012987012987012988,
          0.012987012987012988,
          0.012987012987012988,
          0.012987012987012988,
          0.012987012987012988,
          0.012987012987012988,
          0.012987012987012988,
          0.012987012987012988,
          0.012987012987012988,
          0.012987012987012988,
          0.012987012987012988,
          0.012987012987012988,
          0.012987012987012988,
          0.012987012987012988,
          0.012987012987012988
        ],
        "learning_rate": 0.1,
        "output_dim": 1,
        "estimator": "gbm"
      },
      {
        "input_dim": 77,
        "intercept": [
          0.0
        ],
        "output_dim": 1,
        "estimator": "lr",
        "coef": [
          [
            0.0,
            0.0,
            0.0,
            0.0,
            0.0,
            0.0,
            0.0,
            0.0,
            0.0,
            0.0,
            0.0,
            0.0,
            0.0,
            0.0,
            0.0,
            0.0,
            0.0,
            0.0,
            0.0,
            0.0,
            0.0,
            0.0,
            0.0,
            0.0,
            0.0,
            0.0,
            0.0,
            0.0,
            0.0,
            0.0,
            0.0,
            0.0,
            0.0,
            0.0,
            0.0,
            0.0,
            0.0,
            0.0,
            0.0,
            0.0,
            0.0,
            0.0,
            0.0,
            0.0,
            0.0,
            0.0,
            0.0,
            0.0,
            0.0,
            0.0,
            0.0,
            0.0,
            0.0,
            0.0,
            0.0,
            0.0,
            0.0,
            0.0,
            0.0,
            0.0,
            0.0,
            0.0,
            0.0,
            0.0,
            0.0,
            0.0,
            0.0,
            0.0,
            0.0,
            0.0,
            0.0,
            0.0,
            0.0,
            0.0,
            0.0,
            0.0,
            0.0
          ]
        ]
      },
      {
        "n_estimators": 100,
        "max_depth": 8,
        "input_dim": 77,
        "feature_importances": [
          0.012987012987012988,
          0.012987012987012988,
          0.012987012987012988,
          0.012987012987012988,
          0.012987012987012988,
          0.012987012987012988,
          0.012987012987012988,
          0.012987012987012988,
          0.012987012987012988,
          0.012987012987012988,
          0.012987012987012988,
          0.012987012987012988,
          0.012987012987012988,
          0.012987012987012988,
          0.012987012987012988,
          0.012987012987012988,
          0.012987012987012988,
          0.012987012987012988,
          0.012987012987012988,
          0.012987012987012988,
          0.012987012987012988,
          0.012987012987012988,
          0.012987012987012988,
          0.012987012987012988,
          0.012987012987012988,
          0.012987012987012988,
          0.012987012987012988,
          0.012987012987012988,
          0.012987012987012988,
          0.012987012987012988,
          0.012987012987012988,
          0.012987012987012988,
          0.012987012987012988,
          0.012987012987012988,
          0.012987012987012988,
          0.012987012987012988,
          0.012987012987012988,
          0.012987012987012988,
          0.012987012987012988,
          0.012987012987012988,
          0.012987012987012988,
          0.012987012987012988,
          0.012987012987012988,
          0.012987012987012988,
          0.012987012987012988,
          0.012987012987012988,
          0.012987012987012988,
          0.012987012987012988,
          0.012987012987012988,
          0.012987012987012988,
          0.012987012987012988,
          0.012987012987012988,
          0.012987012987012988,
          0.012987012987012988,
          0.012987012987012988,
          0.012987012987012988,
          0.012987012987012988,
          0.012987012987012988,
          0.012987012987012988,
          0.012987012987012988,
          0.012987012987012988,
          0.012987012987012988,
          0.012987012987012988,
          0.012987012987012988,
          0.012987012987012988,
          0.012987012987012988,
          0.012987012987012988,
          0.012987012987012988,
          0.012987012987012988,
          0.012987012987012988,
          0.012987012987012988,
          0.012987012987012988,
          0.012987012987012988,
          0.012987012987012988,
          0.012987012987012988,
          0.012987012987012988,
          0.012987012987012988
        ],
        "learning_rate": 0.05,
        "output_dim": 1,
        "estimator": "gbm"
      },
      {
        "input_dim": 77,
        "intercept": [
          0.0
        ],
        "output_dim": 1,
        "estimator": "lr",
        "coef": [
          [
            0.0004522227928263483,
            -0.0031082518770625357,
            -0.0028038249531678635,
            0.002518553126393126,
            0.003554555189418018,
            0.0011188760582178988,
            -0.007794131645678077,
            -0.004357914797104095,
            -0.003748172228462834,
            0.002905050107333743,
            -0.0026328631142305122,
            -0.006836122849595092,
            0.004859074316632898,
            0.001718405339467273,
            -0.003200377551988951,
            -0.002589892078230167,
            -0.009923482738107224,
            0.009830447635222178,
            0.00934200990584126,
            -0.007156507868401283,
            -0.0029319872543779363,
            -0.008236153854050394,
            -0.0029669598606107206,
            -0.008216451055244836,
            0.0017060847510682372,
            0.0058985303830398645,
            -0.0020896559067315554,
            -0.005488293543189569,
            -0.00903130026156807,
            -0.006575886791845431,
            0.007377947697210811,
            0.007581816215954611,
            0.007067371046980872,
            -0.009831442347776536,
            -0.005734011471191143,
            0.007525527502013992,
            -0.005056287821204859,
            0.004427731823632028,
            -0.007288917884409079,
            -0.00826507518021397,
            -0.0008807319004616558,
            -0.00808198728694684,
            0.005927889670071252,
            0.005868615026656942,
            0.0023455218735150864,
            0.003481059370359475,
            -0.0063061639346475365,
            -0.004653081046908654,
            0.0009567305263225353,
            -0.00483456141630808,
            -0.0032621425495453727,
            0.008274632358290483,
            -0.009901549074622451,
            0.009947307674508325,
            -0.00017755705007354433,
            0.0001388153726665682,
            0.0016508391163817838,
            -0.005964608472978236,
            -0.00916424835753058,
            0.003870317052154572,
            -0.006132074928384134,
            0.002354840494660263,
            0.005443103462037301,
            0.007878744324985509,
            0.0004504802665414309,
            0.009930298659096452,
            -0.00147106069943897,
            -0.004525314661646029,
            0.00031712225391933817,
            0.004809153479797204,
            -0.0040270110395262985,
            -0.0029550035905333916,
            -0.006837234478823555,
            0.004793380808004071,
            0.005025433691075448,
            -0.008228248096515713,
            0.004035006395109982
          ]
        ]
      },
      {
        "model_type": "pytorch",
        "linear.weight": [
          [
            1.9078097343444826,
            -0.14207431674003604,
            3.473897695541382,
            -1.3308985233306885,
            -1.3308985233306885,
            0.0,
            0.0
          ]
        ],
        "linear.bias": [
          -4.39262056350708
        ]
      },
      {
        "n_estimators": 100,
        "input_dim": 77,
        "feature_importances": [
          0.012987012987012988,
          0.012987012987012988,
          0.012987012987012988,
          0.012987012987012988,
          0.012987012987012988,
          0.012987012987012988,
          0.012987012987012988,
          0.012987012987012988,
          0.012987012987012988,
          0.012987012987012988,
          0.012987012987012988,
          0.012987012987012988,
          0.012987012987012988,
          0.012987012987012988,
          0.012987012987012988,
          0.012987012987012988,
          0.012987012987012988,
          0.012987012987012988,
          0.012987012987012988,
          0.012987012987012988,
          0.012987012987012988,
          0.012987012987012988,
          0.012987012987012988,
          0.012987012987012988,
          0.012987012987012988,
          0.012987012987012988,
          0.012987012987012988,
          0.012987012987012988,
          0.012987012987012988,
          0.012987012987012988,
          0.012987012987012988,
          0.012987012987012988,
          0.012987012987012988,
          0.012987012987012988,
          0.012987012987012988,
          0.012987012987012988,
          0.012987012987012988,
          0.012987012987012988,
          0.012987012987012988,
          0.012987012987012988,
          0.012987012987012988,
          0.012987012987012988,
          0.012987012987012988,
          0.012987012987012988,
          0.012987012987012988,
          0.012987012987012988,
          0.012987012987012988,
          0.012987012987012988,
          0.012987012987012988,
          0.012987012987012988,
          0.012987012987012988,
          0.012987012987012988,
          0.012987012987012988,
          0.012987012987012988,
          0.012987012987012988,
          0.012987012987012988,
          0.012987012987012988,
          0.012987012987012988,
          0.012987012987012988,
          0.012987012987012988,
          0.012987012987012988,
          0.012987012987012988,
          0.012987012987012988,
          0.012987012987012988,
          0.012987012987012988,
          0.012987012987012988,
          0.012987012987012988,
          0.012987012987012988,
          0.012987012987012988,
          0.012987012987012988,
          0.012987012987012988,
          0.012987012987012988,
          0.012987012987012988,
          0.012987012987012988,
          0.012987012987012988,
          0.012987012987012988,
          0.012987012987012988
        ],
        "output_dim": 1,
        "estimator": "rf"
      },
      {
        "input_dim": 77,
        "dual_coef": [
          [
            0.1,
            -0.1
          ]
        ],
        "intercept": [
          -0.1
        ],
        "support_vectors": [
          [
            -0.05183753070536408,
            -0.07505544640835292,
            -0.03824769502419807,
            -0.040277446827508515,
            0.07381933706837626,
            0.09918185983489114,
            0.09111308164016763,
            -0.00539250108568326,
            -0.004096031505587752,
            -0.07949542348671029,
            -0.05348774495579523,
            -0.025465214504468592,
            0.03624766746828062,
            0.044741161369105775,
            0.013187855016160849,
            -0.03547016057014403,
            -0.04343435379902512,
            -0.07092953913005753,
            -0.08418880901084103,
            0.041475040258142915,
            -0.031649252324870064,
            -0.023066133701725014,
            -0.0385215287434654,
            -0.03424471829806748,
            0.008767084805119743,
            0.08140959370662967,
            0.07955018401974964,
            -0.047367062044404995,
            -0.011401117909832378,
            0.03623702716901431,
            0.09036574457778979,
            0.025977323116690987,
            0.0931901514432096,
            -0.05388114996254756,
            -0.09514601087963526,
            0.039534120847784904,
            -0.0418407181387624,
            -0.060754897890163286,
            -0.06583255260337768,
            0.07971892510849346,
            -0.051339060030604844,
            -0.07444598466274499,
            -0.09471993465620993,
            -0.09836491400160627,
            0.08406566884929698,
            0.005373493234082094,
            -0.08231701774699984,
            0.06811794066037322,
            0.03817245135614311,
            -0.006372329422150519,
            0.06622535973034432,
            1.7007383104034046e-05,
            -0.015428544236216535,
            -0.07020615393161012,
            -0.010011380660562508,
            0.09714626115940816,
            0.059903956125254926,
            0.08038917723496644,
            -0.04308751408126668,
            -0.013240844995618062,
            -0.07035469980901488,
            0.09117550874601008,
            -0.06871687940115573,
            0.005156755783059713,
            0.00119740983739558,
            -0.013798545262186159,
            0.021005938249258074,
            0.01124366694024774,
            -0.06683483263406939,
            0.026511611846752853,
            0.093223611163843,
            0.052313524051644966,
            -0.07108814180511527,
            0.03609812289350964,
            -0.09054353209681612,
            0.012363031588909237,
            0.00652253353590268
          ],
          [
            -0.013502501383817436,
            -0.06847281801934063,
            0.029096349324211485,
            -0.08377076359461905,
            0.00035000312255568933,
            0.08398285492671825,
            0.05597332848062561,
            0.0005561355122349482,
            -0.06327940024089401,
            0.08586834871305246,
            0.07335440698413095,
            -0.08381702931392987,
            0.05630634242908983,
            -0.038125518614821996,
            -0.005816477077768917,
            -0.02623723426521969,
            -0.008939517338131323,
            0.02527549125591194,
            -0.06607933337344003,
            0.051147788074592415,
            0.09318405430652177,
            -0.05181285120409912,
            0.034912689373655326,
            -0.08278254529434173,
            -0.0885822005374175,
            0.05940627810918525,
            0.026616410342932217,
            0.09282014068125846,
            -0.058950724665106626,
            -0.0004245697251653857,
            0.07042871994624003,
            -0.011019443982700355,
            0.007068624487756207,
            0.050332490048034834,
            -0.024745663478522098,
            -0.08283170409866511,
            -0.07246211480403753,
            0.011204256650355224,
            0.029200316807515506,
            -0.0828433539972945,
            -0.07386725539779634,
            0.05866004561132085,
            -0.017322804953583598,
            -0.05209517019653183,
            -0.09360382104598788,
            -0.020972968127923902,
            0.024535385046416586,
            -0.06819429251945427,
            0.07220243410410193,
            0.0797950594499876,
            -0.06254288338636127,
            0.08221627665490497,
            -0.028990214015167534,
            -0.06090100976972954,
            0.06151167669974014,
            -0.06819717390657472,
            0.028999008196356563,
            -0.0390959873783546,
            0.0604154727274591,
            -0.06874815575836565,
            -0.005605275824259515,
            -0.012902861981148206,
            -0.02172443791523053,
            0.08771642533027904,
            0.068902425308182,
            0.026821871548132425,
            0.023733817892041903,
            0.09430340883683322,
            0.01472569719187844,
            0.04674339849150619,
            -0.0177028603636558,
            0.04225578975577576,
            -0.0683840721233116,
            0.02252415829559276,
            -0.080477097481824,
            -0.06516342521922454,
            0.02343153485408081
          ]
        ],
        "output_dim": 1,
        "estimator": "svc"
      },
      {
        "n_estimators": 100,
        "max_depth": 6,
        "input_dim": 77,
        "feature_importances": [
          0.012987012987012988,
          0.012987012987012988,
          0.012987012987012988,
          0.012987012987012988,
          0.012987012987012988,
          0.012987012987012988,
          0.012987012987012988,
          0.012987012987012988,
          0.012987012987012988,
          0.012987012987012988,
          0.012987012987012988,
          0.012987012987012988,
          0.012987012987012988,
          0.012987012987012988,
          0.012987012987012988,
          0.012987012987012988,
          0.012987012987012988,
          0.012987012987012988,
          0.012987012987012988,
          0.012987012987012988,
          0.012987012987012988,
          0.012987012987012988,
          0.012987012987012988,
          0.012987012987012988,
          0.012987012987012988,
          0.012987012987012988,
          0.012987012987012988,
          0.012987012987012988,
          0.012987012987012988,
          0.012987012987012988,
          0.012987012987012988,
          0.012987012987012988,
          0.012987012987012988,
          0.012987012987012988,
          0.012987012987012988,
          0.012987012987012988,
          0.012987012987012988,
          0.012987012987012988,
          0.012987012987012988,
          0.012987012987012988,
          0.012987012987012988,
          0.012987012987012988,
          0.012987012987012988,
          0.012987012987012988,
          0.012987012987012988,
          0.012987012987012988,
          0.012987012987012988,
          0.012987012987012988,
          0.012987012987012988,
          0.012987012987012988,
          0.012987012987012988,
          0.012987012987012988,
          0.012987012987012988,
          0.012987012987012988,
          0.012987012987012988,
          0.012987012987012988,
          0.012987012987012988,
          0.012987012987012988,
          0.012987012987012988,
          0.012987012987012988,
          0.012987012987012988,
          0.012987012987012988,
          0.012987012987012988,
          0.012987012987012988,
          0.012987012987012988,
          0.012987012987012988,
          0.012987012987012988,
          0.012987012987012988,
          0.012987012987012988,
          0.012987012987012988,
          0.012987012987012988,
          0.012987012987012988,
          0.012987012987012988,
          0.012987012987012988,
          0.012987012987012988,
          0.012987012987012988,
          0.012987012987012988
        ],
        "learning_rate": 0.1,
        "output_dim": 1,
        "estimator": "gbm"
      }
    ]
  },
  "info": {
    "round": 3,
    "timestamp": "2025-05-14T04:15:58.869479+00:00",
    "version": "1.0.0514-5983.3",
    "version_data": {
      "version": "1.0.0514-5983.3",
      "base_version": "1.0",
      "session_id": 1747195983,
      "session_tag": "0514-5983",
      "round": 3,
      "timestamp": "2025-05-14T04:15:58.869463+00:00"
    },
    "is_ensemble": true,
    "task_type": "fraud_detection",
    "num_models": 8,
    "model_names": [
      "catboost",
      "knn",
      "lgbm",
      "lr",
      "meta_lr",
      "rf",
      "svc",
      "xgb"
    ]
  }
}