{
  "ensemble_state": {
    "weights": [
      0.2819735137104597,
      0.2472583246819561,
      0.0601051821213243,
      0.29696371077116207,
      0.059241070863339663,
      0.02439172621242075,
      0.022090998328570817,
      0.007975473310766463
    ],
    "model_names": [
      "catboost",
      "knn",
      "lgbm",
      "lr",
      "meta_lr",
      "rf",
      "svc",
      "xgb"
    ],
    "model_state_dicts": [
      {
        "estimator": "gbm",
        "feature_importances": [
          0.012987012987012988,
          0.012987012987012988,
          0.012987012987012988,
          0.012987012987012988,
          0.012987012987012988,
          0.012987012987012988,
          0.012987012987012988,
          0.012987012987012988,
          0.012987012987012988,
          0.012987012987012988,
          0.012987012987012988,
          0.012987012987012988,
          0.012987012987012988,
          0.012987012987012988,
          0.012987012987012988,
          0.012987012987012988,
          0.012987012987012988,
          0.012987012987012988,
          0.012987012987012988,
          0.012987012987012988,
          0.012987012987012988,
          0.012987012987012988,
          0.012987012987012988,
          0.012987012987012988,
          0.012987012987012988,
          0.012987012987012988,
          0.012987012987012988,
          0.012987012987012988,
          0.012987012987012988,
          0.012987012987012988,
          0.012987012987012988,
          0.012987012987012988,
          0.012987012987012988,
          0.012987012987012988,
          0.012987012987012988,
          0.012987012987012988,
          0.012987012987012988,
          0.012987012987012988,
          0.012987012987012988,
          0.012987012987012988,
          0.012987012987012988,
          0.012987012987012988,
          0.012987012987012988,
          0.012987012987012988,
          0.012987012987012988,
          0.012987012987012988,
          0.012987012987012988,
          0.012987012987012988,
          0.012987012987012988,
          0.012987012987012988,
          0.012987012987012988,
          0.012987012987012988,
          0.012987012987012988,
          0.012987012987012988,
          0.012987012987012988,
          0.012987012987012988,
          0.012987012987012988,
          0.012987012987012988,
          0.012987012987012988,
          0.012987012987012988,
          0.012987012987012988,
          0.012987012987012988,
          0.012987012987012988,
          0.012987012987012988,
          0.012987012987012988,
          0.012987012987012988,
          0.012987012987012988,
          0.012987012987012988,
          0.012987012987012988,
          0.012987012987012988,
          0.012987012987012988,
          0.012987012987012988,
          0.012987012987012988,
          0.012987012987012988,
          0.012987012987012988,
          0.012987012987012988,
          0.012987012987012988
        ],
        "learning_rate": 0.1,
        "output_dim": 1,
        "max_depth": 3,
        "input_dim": 77,
        "n_estimators": 10
      },
      {
        "estimator": "lr",
        "coef": [
          [
            0.0,
            0.0,
            0.0,
            0.0,
            0.0,
            0.0,
            0.0,
            0.0,
            0.0,
            0.0,
            0.0,
            0.0,
            0.0,
            0.0,
            0.0,
            0.0,
            0.0,
            0.0,
            0.0,
            0.0,
            0.0,
            0.0,
            0.0,
            0.0,
            0.0,
            0.0,
            0.0,
            0.0,
            0.0,
            0.0,
            0.0,
            0.0,
            0.0,
            0.0,
            0.0,
            0.0,
            0.0,
            0.0,
            0.0,
            0.0,
            0.0,
            0.0,
            0.0,
            0.0,
            0.0,
            0.0,
            0.0,
            0.0,
            0.0,
            0.0,
            0.0,
            0.0,
            0.0,
            0.0,
            0.0,
            0.0,
            0.0,
            0.0,
            0.0,
            0.0,
            0.0,
            0.0,
            0.0,
            0.0,
            0.0,
            0.0,
            0.0,
            0.0,
            0.0,
            0.0,
            0.0,
            0.0,
            0.0,
            0.0,
            0.0,
            0.0,
            0.0
          ]
        ],
        "input_dim": 77,
        "intercept": [
          0.0
        ],
        "output_dim": 1
      },
      {
        "estimator": "gbm",
        "feature_importances": [
          0.012987012987012988,
          0.012987012987012988,
          0.012987012987012988,
          0.012987012987012988,
          0.012987012987012988,
          0.012987012987012988,
          0.012987012987012988,
          0.012987012987012988,
          0.012987012987012988,
          0.012987012987012988,
          0.012987012987012988,
          0.012987012987012988,
          0.012987012987012988,
          0.012987012987012988,
          0.012987012987012988,
          0.012987012987012988,
          0.012987012987012988,
          0.012987012987012988,
          0.012987012987012988,
          0.012987012987012988,
          0.012987012987012988,
          0.012987012987012988,
          0.012987012987012988,
          0.012987012987012988,
          0.012987012987012988,
          0.012987012987012988,
          0.012987012987012988,
          0.012987012987012988,
          0.012987012987012988,
          0.012987012987012988,
          0.012987012987012988,
          0.012987012987012988,
          0.012987012987012988,
          0.012987012987012988,
          0.012987012987012988,
          0.012987012987012988,
          0.012987012987012988,
          0.012987012987012988,
          0.012987012987012988,
          0.012987012987012988,
          0.012987012987012988,
          0.012987012987012988,
          0.012987012987012988,
          0.012987012987012988,
          0.012987012987012988,
          0.012987012987012988,
          0.012987012987012988,
          0.012987012987012988,
          0.012987012987012988,
          0.012987012987012988,
          0.012987012987012988,
          0.012987012987012988,
          0.012987012987012988,
          0.012987012987012988,
          0.012987012987012988,
          0.012987012987012988,
          0.012987012987012988,
          0.012987012987012988,
          0.012987012987012988,
          0.012987012987012988,
          0.012987012987012988,
          0.012987012987012988,
          0.012987012987012988,
          0.012987012987012988,
          0.012987012987012988,
          0.012987012987012988,
          0.012987012987012988,
          0.012987012987012988,
          0.012987012987012988,
          0.012987012987012988,
          0.012987012987012988,
          0.012987012987012988,
          0.012987012987012988,
          0.012987012987012988,
          0.012987012987012988,
          0.012987012987012988,
          0.012987012987012988
        ],
        "learning_rate": 0.05,
        "output_dim": 1,
        "max_depth": 8,
        "input_dim": 77,
        "n_estimators": 100
      },
      {
        "estimator": "lr",
        "coef": [
          [
            0.0037478495232683047,
            -0.006722239477271526,
            0.004021225742487859,
            0.004569627723377476,
            -0.00520521506410641,
            0.004016795633963637,
            0.0016150411166644344,
            -0.00647990432457805,
            -0.008938458536045444,
            -0.008978041336901667,
            0.008595808366548443,
            -0.0049676056470037856,
            -0.008856926666726463,
            0.005315433269388405,
            -0.002616373434378319,
            -0.0023914969866816157,
            -0.0010925431871509125,
            -0.005157827905452862,
            -0.003268672502281025,
            0.0015015150684975984,
            -0.009873958569258405,
            0.008169253934100265,
            -0.008214702412946043,
            -0.007111459653360883,
            -0.00804020981938971,
            0.002063740119674218,
            0.002402446833919195,
            -0.009137025845474243,
            0.003704641257773329,
            0.006920200848463602,
            0.0052310941484041105,
            0.006909385663707192,
            -0.008719526298158344,
            0.007912785118676676,
            0.005433372012082591,
            0.008853250178552133,
            -0.005051371465386447,
            -0.009609369628954504,
            0.0012813864046025795,
            -0.0029420473236368913,
            -0.009497630603672952,
            -0.006531844466288435,
            -0.002202247773827359,
            -0.004369598058051705,
            0.009135929289945685,
            0.00018433408232190057,
            0.006233870952516056,
            -0.004698664387691738,
            -0.00028269010374374834,
            0.0024289815161800815,
            -0.0030205618664573275,
            -0.0034172664840404574,
            0.0005607960258531986,
            0.002782426675483101,
            -0.004045935064154369,
            0.007520473013523258,
            0.002057244683852693,
            -0.004868540232576872,
            0.006509565542774645,
            -0.0024694601583780144,
            -0.001685629878781134,
            0.0018640304328823958,
            0.004014270035607592,
            -0.005410582166959492,
            0.008704378741470231,
            0.006929546633734069,
            0.003094649215243139,
            -0.009156915189460046,
            -0.007797628301943336,
            -0.007681361315673461,
            -0.0005502220526617044,
            0.00047844186874257573,
            -0.00681975988560065,
            0.008313430729761309,
            -0.00671593181042653,
            0.0017623246479848854,
            -0.007944178812294013
          ]
        ],
        "input_dim": 77,
        "intercept": [
          0.0
        ],
        "output_dim": 1
      },
      {
        "model_type": "pytorch",
        "linear.weight": [
          [
            -9.58507067756793,
            -0.1709136161367189,
            10.216077246943158,
            0.48768084738579515,
            0.48768084738579515,
            0.0,
            0.0
          ]
        ],
        "linear.bias": [
          -4.166459383929865
        ]
      },
      {
        "estimator": "rf",
        "feature_importances": [
          0.012987012987012988,
          0.012987012987012988,
          0.012987012987012988,
          0.012987012987012988,
          0.012987012987012988,
          0.012987012987012988,
          0.012987012987012988,
          0.012987012987012988,
          0.012987012987012988,
          0.012987012987012988,
          0.012987012987012988,
          0.012987012987012988,
          0.012987012987012988,
          0.012987012987012988,
          0.012987012987012988,
          0.012987012987012988,
          0.012987012987012988,
          0.012987012987012988,
          0.012987012987012988,
          0.012987012987012988,
          0.012987012987012988,
          0.012987012987012988,
          0.012987012987012988,
          0.012987012987012988,
          0.012987012987012988,
          0.012987012987012988,
          0.012987012987012988,
          0.012987012987012988,
          0.012987012987012988,
          0.012987012987012988,
          0.012987012987012988,
          0.012987012987012988,
          0.012987012987012988,
          0.012987012987012988,
          0.012987012987012988,
          0.012987012987012988,
          0.012987012987012988,
          0.012987012987012988,
          0.012987012987012988,
          0.012987012987012988,
          0.012987012987012988,
          0.012987012987012988,
          0.012987012987012988,
          0.012987012987012988,
          0.012987012987012988,
          0.012987012987012988,
          0.012987012987012988,
          0.012987012987012988,
          0.012987012987012988,
          0.012987012987012988,
          0.012987012987012988,
          0.012987012987012988,
          0.012987012987012988,
          0.012987012987012988,
          0.012987012987012988,
          0.012987012987012988,
          0.012987012987012988,
          0.012987012987012988,
          0.012987012987012988,
          0.012987012987012988,
          0.012987012987012988,
          0.012987012987012988,
          0.012987012987012988,
          0.012987012987012988,
          0.012987012987012988,
          0.012987012987012988,
          0.012987012987012988,
          0.012987012987012988,
          0.012987012987012988,
          0.012987012987012988,
          0.012987012987012988,
          0.012987012987012988,
          0.012987012987012988,
          0.012987012987012988,
          0.012987012987012988,
          0.012987012987012988,
          0.012987012987012988
        ],
        "output_dim": 1,
        "input_dim": 77,
        "n_estimators": 100
      },
      {
        "estimator": "svc",
        "input_dim": 77,
        "dual_coef": [
          [
            0.1,
            -0.1
          ]
        ],
        "intercept": [
          -0.1
        ],
        "output_dim": 1,
        "support_vectors": [
          [
            -0.010663581677667636,
            0.03347845616507389,
            -0.0031334283166124244,
            0.04604912252717616,
            0.09128858590469954,
            0.07923535575388863,
            0.06598256174939901,
            0.08413976961540644,
            0.055901272561130005,
            -0.09753150828905884,
            -0.0638605307447538,
            -0.04643991593285344,
            -0.009265747429769308,
            0.031936349888466886,
            -0.0001961426203657135,
            -0.042416866330894455,
            0.09927507341191888,
            -0.07660991637090149,
            0.0041509185453750125,
            0.05782085192074199,
            0.06173800603479321,
            0.013143332289249882,
            0.09882109556053953,
            -0.05612458491937555,
            0.04563981702662828,
            0.04277066121235126,
            0.06296028086009367,
            -0.00456541043104966,
            -0.06281434539613259,
            0.047211290137388506,
            0.017030733509483226,
            0.08962646760750481,
            -0.08179635897674864,
            0.019576197483142835,
            -0.008048625256868072,
            -0.0336472917052443,
            0.00565258547764827,
            -0.010904525296012851,
            -0.04578412648378838,
            -0.06749158419670728,
            0.008548901729079322,
            0.09939601721456354,
            -0.0661758180652782,
            0.051436012113170226,
            -0.055104105131725034,
            0.01988653226075121,
            -0.05799700690129446,
            0.006108526744664028,
            0.004218784530003156,
            -0.09316147992376525,
            0.04185177728907555,
            0.04914475499166229,
            -0.02832033552686529,
            0.03238895531032354,
            -0.02311731179771699,
            0.01818623486797588,
            -0.0026067419040469997,
            -0.09886367138486048,
            -0.08513684327538859,
            -0.083575765799381,
            -0.09017664505821872,
            0.0238659396533909,
            0.07730109971198715,
            -0.007185884561664426,
            -0.016517853055675366,
            -0.08696840752562617,
            0.047815625994055616,
            0.012416270909508476,
            -0.046368481656291795,
            0.07251568699876446,
            0.0795615933732444,
            0.017627397672922027,
            -0.014129489886091084,
            -0.07106012094760555,
            -0.07832690112618981,
            0.019017963732125692,
            -0.09318546594572018
          ],
          [
            -0.09273294758968986,
            -0.052614851784184506,
            0.046716327092969134,
            -0.07864196704909346,
            -0.05272830867291281,
            0.04810656140086739,
            -0.06487836154322485,
            -0.07638805580810726,
            0.018925397273930097,
            -0.07084069175632618,
            -0.034493599730891306,
            -0.001297533857267677,
            -0.05776240886620883,
            -0.07068257366117431,
            0.08360902001272993,
            -0.017524398950748046,
            0.006535039844694876,
            -0.034286951020982656,
            0.07498986610322375,
            -0.07766281730884193,
            -0.05551781382997015,
            -0.09221791756619288,
            0.0783664203278098,
            0.07933151714340211,
            0.09609310987691641,
            0.0875922758416264,
            -0.08106902492826196,
            0.031259127017250005,
            0.0528246179627663,
            0.082862797511769,
            0.03494460751431072,
            -0.03954637033006752,
            0.0767608649252188,
            -0.022011228616401673,
            -0.007840901208939918,
            -0.05339118023202907,
            0.00642382626743046,
            0.09308376654190906,
            -0.026416864843641655,
            0.04105751478550429,
            -0.0361219558152515,
            0.017779219684034217,
            -0.06943924502465114,
            -0.02021077159640236,
            -0.08456301827318045,
            -0.0690663270793444,
            -0.03250373349612641,
            -0.005946478111486714,
            -0.022551796794350792,
            0.041345615807444724,
            0.005544960910776386,
            -0.09269942531453852,
            0.08825831253969724,
            -0.028569925439005342,
            0.004989594971892733,
            0.06683355226149759,
            -0.03166185107448782,
            -0.038271411542070324,
            -0.028943403083358035,
            0.048781010017197646,
            0.08221480828793701,
            0.008352582158380792,
            -0.04725470754033212,
            0.03181996671076792,
            -0.032289978877657985,
            0.017771319058134713,
            0.07289169644099819,
            -0.014678559088783238,
            -0.08886828408531303,
            -0.05321903364637626,
            0.05229649481212198,
            -0.07830367378359421,
            0.0522990201046242,
            -0.054319626839275784,
            -0.08481968949544227,
            -0.0046748398205849195,
            0.06277997472800498
          ]
        ]
      },
      {
        "estimator": "gbm",
        "feature_importances": [
          0.012987012987012988,
          0.012987012987012988,
          0.012987012987012988,
          0.012987012987012988,
          0.012987012987012988,
          0.012987012987012988,
          0.012987012987012988,
          0.012987012987012988,
          0.012987012987012988,
          0.012987012987012988,
          0.012987012987012988,
          0.012987012987012988,
          0.012987012987012988,
          0.012987012987012988,
          0.012987012987012988,
          0.012987012987012988,
          0.012987012987012988,
          0.012987012987012988,
          0.012987012987012988,
          0.012987012987012988,
          0.012987012987012988,
          0.012987012987012988,
          0.012987012987012988,
          0.012987012987012988,
          0.012987012987012988,
          0.012987012987012988,
          0.012987012987012988,
          0.012987012987012988,
          0.012987012987012988,
          0.012987012987012988,
          0.012987012987012988,
          0.012987012987012988,
          0.012987012987012988,
          0.012987012987012988,
          0.012987012987012988,
          0.012987012987012988,
          0.012987012987012988,
          0.012987012987012988,
          0.012987012987012988,
          0.012987012987012988,
          0.012987012987012988,
          0.012987012987012988,
          0.012987012987012988,
          0.012987012987012988,
          0.012987012987012988,
          0.012987012987012988,
          0.012987012987012988,
          0.012987012987012988,
          0.012987012987012988,
          0.012987012987012988,
          0.012987012987012988,
          0.012987012987012988,
          0.012987012987012988,
          0.012987012987012988,
          0.012987012987012988,
          0.012987012987012988,
          0.012987012987012988,
          0.012987012987012988,
          0.012987012987012988,
          0.012987012987012988,
          0.012987012987012988,
          0.012987012987012988,
          0.012987012987012988,
          0.012987012987012988,
          0.012987012987012988,
          0.012987012987012988,
          0.012987012987012988,
          0.012987012987012988,
          0.012987012987012988,
          0.012987012987012988,
          0.012987012987012988,
          0.012987012987012988,
          0.012987012987012988,
          0.012987012987012988,
          0.012987012987012988,
          0.012987012987012988,
          0.012987012987012988
        ],
        "learning_rate": 0.1,
        "output_dim": 1,
        "max_depth": 6,
        "input_dim": 77,
        "n_estimators": 100
      }
    ]
  },
  "info": {
    "round": 3,
    "timestamp": "2025-05-13T18:03:04.708131+00:00",
    "version": "1.0.0513-9257.3",
    "version_data": {
      "version": "1.0.0513-9257.3",
      "base_version": "1.0",
      "session_id": 1747159257,
      "session_tag": "0513-9257",
      "round": 3,
      "timestamp": "2025-05-13T18:03:04.708122+00:00"
    },
    "is_ensemble": true,
    "task_type": "fraud_detection",
    "num_models": 8,
    "model_names": [
      "catboost",
      "knn",
      "lgbm",
      "lr",
      "meta_lr",
      "rf",
      "svc",
      "xgb"
    ]
  }
}