{
  "ensemble_state": {
    "weights": [
      0.289204011582317,
      0.07481128106026523,
      0.3898250368128688,
      0.020151564146993293,
      0.007305295199283995,
      0.026193090155119707,
      0.13381302714807572,
      0.05869669389507627
    ],
    "model_names": [
      "catboost",
      "knn",
      "lgbm",
      "lr",
      "meta_lr",
      "rf",
      "svc",
      "xgb"
    ],
    "model_state_dicts": [
      {
        "estimator": "gbm",
        "feature_importances": [
          0.012987012987012988,
          0.012987012987012988,
          0.012987012987012988,
          0.012987012987012988,
          0.012987012987012988,
          0.012987012987012988,
          0.012987012987012988,
          0.012987012987012988,
          0.012987012987012988,
          0.012987012987012988,
          0.012987012987012988,
          0.012987012987012988,
          0.012987012987012988,
          0.012987012987012988,
          0.012987012987012988,
          0.012987012987012988,
          0.012987012987012988,
          0.012987012987012988,
          0.012987012987012988,
          0.012987012987012988,
          0.012987012987012988,
          0.012987012987012988,
          0.012987012987012988,
          0.012987012987012988,
          0.012987012987012988,
          0.012987012987012988,
          0.012987012987012988,
          0.012987012987012988,
          0.012987012987012988,
          0.012987012987012988,
          0.012987012987012988,
          0.012987012987012988,
          0.012987012987012988,
          0.012987012987012988,
          0.012987012987012988,
          0.012987012987012988,
          0.012987012987012988,
          0.012987012987012988,
          0.012987012987012988,
          0.012987012987012988,
          0.012987012987012988,
          0.012987012987012988,
          0.012987012987012988,
          0.012987012987012988,
          0.012987012987012988,
          0.012987012987012988,
          0.012987012987012988,
          0.012987012987012988,
          0.012987012987012988,
          0.012987012987012988,
          0.012987012987012988,
          0.012987012987012988,
          0.012987012987012988,
          0.012987012987012988,
          0.012987012987012988,
          0.012987012987012988,
          0.012987012987012988,
          0.012987012987012988,
          0.012987012987012988,
          0.012987012987012988,
          0.012987012987012988,
          0.012987012987012988,
          0.012987012987012988,
          0.012987012987012988,
          0.012987012987012988,
          0.012987012987012988,
          0.012987012987012988,
          0.012987012987012988,
          0.012987012987012988,
          0.012987012987012988,
          0.012987012987012988,
          0.012987012987012988,
          0.012987012987012988,
          0.012987012987012988,
          0.012987012987012988,
          0.012987012987012988,
          0.012987012987012988
        ],
        "learning_rate": 0.1,
        "output_dim": 1,
        "max_depth": 3,
        "input_dim": 77,
        "n_estimators": 10
      },
      {
        "estimator": "lr",
        "coef": [
          [
            0.0,
            0.0,
            0.0,
            0.0,
            0.0,
            0.0,
            0.0,
            0.0,
            0.0,
            0.0,
            0.0,
            0.0,
            0.0,
            0.0,
            0.0,
            0.0,
            0.0,
            0.0,
            0.0,
            0.0,
            0.0,
            0.0,
            0.0,
            0.0,
            0.0,
            0.0,
            0.0,
            0.0,
            0.0,
            0.0,
            0.0,
            0.0,
            0.0,
            0.0,
            0.0,
            0.0,
            0.0,
            0.0,
            0.0,
            0.0,
            0.0,
            0.0,
            0.0,
            0.0,
            0.0,
            0.0,
            0.0,
            0.0,
            0.0,
            0.0,
            0.0,
            0.0,
            0.0,
            0.0,
            0.0,
            0.0,
            0.0,
            0.0,
            0.0,
            0.0,
            0.0,
            0.0,
            0.0,
            0.0,
            0.0,
            0.0,
            0.0,
            0.0,
            0.0,
            0.0,
            0.0,
            0.0,
            0.0,
            0.0,
            0.0,
            0.0,
            0.0
          ]
        ],
        "input_dim": 77,
        "intercept": [
          0.0
        ],
        "output_dim": 1
      },
      {
        "estimator": "gbm",
        "feature_importances": [
          0.012987012987012988,
          0.012987012987012988,
          0.012987012987012988,
          0.012987012987012988,
          0.012987012987012988,
          0.012987012987012988,
          0.012987012987012988,
          0.012987012987012988,
          0.012987012987012988,
          0.012987012987012988,
          0.012987012987012988,
          0.012987012987012988,
          0.012987012987012988,
          0.012987012987012988,
          0.012987012987012988,
          0.012987012987012988,
          0.012987012987012988,
          0.012987012987012988,
          0.012987012987012988,
          0.012987012987012988,
          0.012987012987012988,
          0.012987012987012988,
          0.012987012987012988,
          0.012987012987012988,
          0.012987012987012988,
          0.012987012987012988,
          0.012987012987012988,
          0.012987012987012988,
          0.012987012987012988,
          0.012987012987012988,
          0.012987012987012988,
          0.012987012987012988,
          0.012987012987012988,
          0.012987012987012988,
          0.012987012987012988,
          0.012987012987012988,
          0.012987012987012988,
          0.012987012987012988,
          0.012987012987012988,
          0.012987012987012988,
          0.012987012987012988,
          0.012987012987012988,
          0.012987012987012988,
          0.012987012987012988,
          0.012987012987012988,
          0.012987012987012988,
          0.012987012987012988,
          0.012987012987012988,
          0.012987012987012988,
          0.012987012987012988,
          0.012987012987012988,
          0.012987012987012988,
          0.012987012987012988,
          0.012987012987012988,
          0.012987012987012988,
          0.012987012987012988,
          0.012987012987012988,
          0.012987012987012988,
          0.012987012987012988,
          0.012987012987012988,
          0.012987012987012988,
          0.012987012987012988,
          0.012987012987012988,
          0.012987012987012988,
          0.012987012987012988,
          0.012987012987012988,
          0.012987012987012988,
          0.012987012987012988,
          0.012987012987012988,
          0.012987012987012988,
          0.012987012987012988,
          0.012987012987012988,
          0.012987012987012988,
          0.012987012987012988,
          0.012987012987012988,
          0.012987012987012988,
          0.012987012987012988
        ],
        "learning_rate": 0.05,
        "output_dim": 1,
        "max_depth": 8,
        "input_dim": 77,
        "n_estimators": 100
      },
      {
        "estimator": "lr",
        "coef": [
          [
            0.0037478495232683047,
            -0.006722239477271526,
            0.004021225742487859,
            0.004569627723377476,
            -0.00520521506410641,
            0.004016795633963637,
            0.0016150411166644344,
            -0.00647990432457805,
            -0.008938458536045444,
            -0.008978041336901665,
            0.008595808366548443,
            -0.0049676056470037856,
            -0.008856926666726463,
            0.005315433269388405,
            -0.002616373434378319,
            -0.0023914969866816157,
            -0.0010925431871509125,
            -0.005157827905452861,
            -0.003268672502281025,
            0.0015015150684975984,
            -0.009873958569258405,
            0.008169253934100265,
            -0.008214702412946043,
            -0.007111459653360883,
            -0.00804020981938971,
            0.002063740119674218,
            0.002402446833919195,
            -0.009137025845474241,
            0.0037046412577733286,
            0.006920200848463601,
            0.0052310941484041105,
            0.006909385663707192,
            -0.008719526298158342,
            0.007912785118676676,
            0.005433372012082591,
            0.008853250178552133,
            -0.005051371465386447,
            -0.009609369628954504,
            0.0012813864046025795,
            -0.0029420473236368913,
            -0.009497630603672952,
            -0.006531844466288435,
            -0.002202247773827359,
            -0.004369598058051705,
            0.009135929289945685,
            0.00018433408232190057,
            0.006233870952516056,
            -0.004698664387691738,
            -0.00028269010374374834,
            0.0024289815161800815,
            -0.0030205618664573275,
            -0.0034172664840404574,
            0.0005607960258531986,
            0.002782426675483101,
            -0.004045935064154369,
            0.007520473013523257,
            0.002057244683852693,
            -0.004868540232576872,
            0.006509565542774645,
            -0.0024694601583780144,
            -0.001685629878781134,
            0.0018640304328823958,
            0.004014270035607592,
            -0.005410582166959492,
            0.00870437874147023,
            0.006929546633734069,
            0.003094649215243139,
            -0.009156915189460046,
            -0.007797628301943336,
            -0.007681361315673461,
            -0.0005502220526617044,
            0.00047844186874257573,
            -0.006819759885600649,
            0.008313430729761309,
            -0.006715931810426529,
            0.0017623246479848854,
            -0.007944178812294013
          ]
        ],
        "input_dim": 77,
        "intercept": [
          0.0
        ],
        "output_dim": 1
      },
      {
        "model_type": "pytorch",
        "linear.weight": [
          [
            -11.648660293817018,
            -0.390146384694646,
            12.069469047629967,
            0.9250314873382919,
            0.9250314873382919,
            0.0,
            0.0
          ]
        ],
        "linear.bias": [
          -4.229066578621148
        ]
      },
      {
        "estimator": "rf",
        "feature_importances": [
          0.01298701298701299,
          0.01298701298701299,
          0.01298701298701299,
          0.01298701298701299,
          0.01298701298701299,
          0.01298701298701299,
          0.01298701298701299,
          0.01298701298701299,
          0.01298701298701299,
          0.01298701298701299,
          0.01298701298701299,
          0.01298701298701299,
          0.01298701298701299,
          0.01298701298701299,
          0.01298701298701299,
          0.01298701298701299,
          0.01298701298701299,
          0.01298701298701299,
          0.01298701298701299,
          0.01298701298701299,
          0.01298701298701299,
          0.01298701298701299,
          0.01298701298701299,
          0.01298701298701299,
          0.01298701298701299,
          0.01298701298701299,
          0.01298701298701299,
          0.01298701298701299,
          0.01298701298701299,
          0.01298701298701299,
          0.01298701298701299,
          0.01298701298701299,
          0.01298701298701299,
          0.01298701298701299,
          0.01298701298701299,
          0.01298701298701299,
          0.01298701298701299,
          0.01298701298701299,
          0.01298701298701299,
          0.01298701298701299,
          0.01298701298701299,
          0.01298701298701299,
          0.01298701298701299,
          0.01298701298701299,
          0.01298701298701299,
          0.01298701298701299,
          0.01298701298701299,
          0.01298701298701299,
          0.01298701298701299,
          0.01298701298701299,
          0.01298701298701299,
          0.01298701298701299,
          0.01298701298701299,
          0.01298701298701299,
          0.01298701298701299,
          0.01298701298701299,
          0.01298701298701299,
          0.01298701298701299,
          0.01298701298701299,
          0.01298701298701299,
          0.01298701298701299,
          0.01298701298701299,
          0.01298701298701299,
          0.01298701298701299,
          0.01298701298701299,
          0.01298701298701299,
          0.01298701298701299,
          0.01298701298701299,
          0.01298701298701299,
          0.01298701298701299,
          0.01298701298701299,
          0.01298701298701299,
          0.01298701298701299,
          0.01298701298701299,
          0.01298701298701299,
          0.01298701298701299,
          0.01298701298701299
        ],
        "output_dim": 1,
        "input_dim": 77,
        "n_estimators": 100
      },
      {
        "estimator": "svc",
        "input_dim": 77,
        "dual_coef": [
          [
            0.1,
            -0.1
          ]
        ],
        "intercept": [
          -0.1
        ],
        "output_dim": 1,
        "support_vectors": [
          [
            -0.010663581677667636,
            0.03347845616507389,
            -0.0031334283166124244,
            0.04604912252717616,
            0.09128858590469954,
            0.07923535575388863,
            0.06598256174939901,
            0.08413976961540645,
            0.05590127256113001,
            -0.09753150828905884,
            -0.0638605307447538,
            -0.046439915932853446,
            -0.009265747429769308,
            0.031936349888466886,
            -0.00019614262036571353,
            -0.04241686633089446,
            0.09927507341191888,
            -0.07660991637090149,
            0.0041509185453750125,
            0.057820851920741996,
            0.061738006034793215,
            0.013143332289249883,
            0.09882109556053953,
            -0.05612458491937555,
            0.04563981702662829,
            0.04277066121235127,
            0.06296028086009367,
            -0.00456541043104966,
            -0.06281434539613259,
            0.04721129013738851,
            0.017030733509483226,
            0.08962646760750483,
            -0.08179635897674865,
            0.019576197483142835,
            -0.008048625256868072,
            -0.0336472917052443,
            0.005652585477648271,
            -0.010904525296012853,
            -0.045784126483788386,
            -0.06749158419670728,
            0.008548901729079322,
            0.09939601721456354,
            -0.0661758180652782,
            0.051436012113170226,
            -0.055104105131725034,
            0.019886532260751214,
            -0.05799700690129446,
            0.006108526744664028,
            0.004218784530003156,
            -0.09316147992376526,
            0.04185177728907555,
            0.0491447549916623,
            -0.02832033552686529,
            0.03238895531032354,
            -0.023117311797716995,
            0.01818623486797588,
            -0.002606741904047,
            -0.09886367138486049,
            -0.08513684327538862,
            -0.08357576579938102,
            -0.09017664505821872,
            0.0238659396533909,
            0.07730109971198716,
            -0.007185884561664428,
            -0.016517853055675366,
            -0.08696840752562618,
            0.047815625994055616,
            0.012416270909508476,
            -0.0463684816562918,
            0.07251568699876447,
            0.0795615933732444,
            0.017627397672922027,
            -0.014129489886091086,
            -0.07106012094760555,
            -0.07832690112618983,
            0.019017963732125692,
            -0.09318546594572018
          ],
          [
            -0.09273294758968986,
            -0.05261485178418451,
            0.046716327092969134,
            -0.07864196704909347,
            -0.05272830867291282,
            0.048106561400867394,
            -0.06487836154322485,
            -0.07638805580810726,
            0.018925397273930097,
            -0.07084069175632618,
            -0.03449359973089131,
            -0.0012975338572676772,
            -0.057762408866208835,
            -0.07068257366117431,
            0.08360902001272995,
            -0.017524398950748046,
            0.006535039844694876,
            -0.034286951020982656,
            0.07498986610322375,
            -0.07766281730884193,
            -0.05551781382997015,
            -0.09221791756619291,
            0.0783664203278098,
            0.07933151714340213,
            0.09609310987691642,
            0.0875922758416264,
            -0.08106902492826197,
            0.03125912701725001,
            0.05282461796276631,
            0.08286279751176902,
            0.03494460751431072,
            -0.039546370330067526,
            0.07676086492521882,
            -0.022011228616401673,
            -0.007840901208939918,
            -0.05339118023202907,
            0.00642382626743046,
            0.09308376654190906,
            -0.026416864843641655,
            0.04105751478550429,
            -0.03612195581525151,
            0.017779219684034217,
            -0.06943924502465114,
            -0.02021077159640236,
            -0.08456301827318047,
            -0.06906632707934442,
            -0.03250373349612642,
            -0.005946478111486714,
            -0.022551796794350792,
            0.041345615807444724,
            0.005544960910776387,
            -0.09269942531453854,
            0.08825831253969724,
            -0.028569925439005345,
            0.004989594971892733,
            0.0668335522614976,
            -0.03166185107448782,
            -0.03827141154207033,
            -0.028943403083358035,
            0.048781010017197646,
            0.08221480828793701,
            0.008352582158380794,
            -0.047254707540332126,
            0.03181996671076792,
            -0.032289978877657985,
            0.017771319058134716,
            0.0728916964409982,
            -0.01467855908878324,
            -0.08886828408531303,
            -0.05321903364637626,
            0.05229649481212199,
            -0.07830367378359421,
            0.05229902010462421,
            -0.054319626839275784,
            -0.08481968949544227,
            -0.0046748398205849195,
            0.06277997472800498
          ]
        ]
      },
      {
        "estimator": "gbm",
        "feature_importances": [
          0.012987012987012988,
          0.012987012987012988,
          0.012987012987012988,
          0.012987012987012988,
          0.012987012987012988,
          0.012987012987012988,
          0.012987012987012988,
          0.012987012987012988,
          0.012987012987012988,
          0.012987012987012988,
          0.012987012987012988,
          0.012987012987012988,
          0.012987012987012988,
          0.012987012987012988,
          0.012987012987012988,
          0.012987012987012988,
          0.012987012987012988,
          0.012987012987012988,
          0.012987012987012988,
          0.012987012987012988,
          0.012987012987012988,
          0.012987012987012988,
          0.012987012987012988,
          0.012987012987012988,
          0.012987012987012988,
          0.012987012987012988,
          0.012987012987012988,
          0.012987012987012988,
          0.012987012987012988,
          0.012987012987012988,
          0.012987012987012988,
          0.012987012987012988,
          0.012987012987012988,
          0.012987012987012988,
          0.012987012987012988,
          0.012987012987012988,
          0.012987012987012988,
          0.012987012987012988,
          0.012987012987012988,
          0.012987012987012988,
          0.012987012987012988,
          0.012987012987012988,
          0.012987012987012988,
          0.012987012987012988,
          0.012987012987012988,
          0.012987012987012988,
          0.012987012987012988,
          0.012987012987012988,
          0.012987012987012988,
          0.012987012987012988,
          0.012987012987012988,
          0.012987012987012988,
          0.012987012987012988,
          0.012987012987012988,
          0.012987012987012988,
          0.012987012987012988,
          0.012987012987012988,
          0.012987012987012988,
          0.012987012987012988,
          0.012987012987012988,
          0.012987012987012988,
          0.012987012987012988,
          0.012987012987012988,
          0.012987012987012988,
          0.012987012987012988,
          0.012987012987012988,
          0.012987012987012988,
          0.012987012987012988,
          0.012987012987012988,
          0.012987012987012988,
          0.012987012987012988,
          0.012987012987012988,
          0.012987012987012988,
          0.012987012987012988,
          0.012987012987012988,
          0.012987012987012988,
          0.012987012987012988
        ],
        "learning_rate": 0.1,
        "output_dim": 1,
        "max_depth": 6,
        "input_dim": 77,
        "n_estimators": 100
      }
    ]
  },
  "info": {
    "round": 2,
    "timestamp": "2025-05-13T18:02:03.149771+00:00",
    "version": "1.0.0513-9257.2",
    "version_data": {
      "version": "1.0.0513-9257.2",
      "base_version": "1.0",
      "session_id": 1747159257,
      "session_tag": "0513-9257",
      "round": 2,
      "timestamp": "2025-05-13T18:02:03.149762+00:00"
    },
    "is_ensemble": true,
    "task_type": "fraud_detection",
    "num_models": 8,
    "model_names": [
      "catboost",
      "knn",
      "lgbm",
      "lr",
      "meta_lr",
      "rf",
      "svc",
      "xgb"
    ]
  }
}