{
  "ensemble_state": {
    "weights": [
      0.30433471270097917,
      0.24916946782109597,
      0.041773775621268563,
      0.10795499437575776,
      0.05153695322871149,
      0.0850294494061743,
      0.0428299325680262,
      0.1173707142779864
    ],
    "model_names": [
      "catboost",
      "knn",
      "lgbm",
      "lr",
      "meta_lr",
      "rf",
      "svc",
      "xgb"
    ],
    "model_state_dicts": [
      {
        "output_dim": 1,
        "learning_rate": 0.1,
        "max_depth": 3,
        "input_dim": 77,
        "feature_importances": [
          0.012987012987012988,
          0.012987012987012988,
          0.012987012987012988,
          0.012987012987012988,
          0.012987012987012988,
          0.012987012987012988,
          0.012987012987012988,
          0.012987012987012988,
          0.012987012987012988,
          0.012987012987012988,
          0.012987012987012988,
          0.012987012987012988,
          0.012987012987012988,
          0.012987012987012988,
          0.012987012987012988,
          0.012987012987012988,
          0.012987012987012988,
          0.012987012987012988,
          0.012987012987012988,
          0.012987012987012988,
          0.012987012987012988,
          0.012987012987012988,
          0.012987012987012988,
          0.012987012987012988,
          0.012987012987012988,
          0.012987012987012988,
          0.012987012987012988,
          0.012987012987012988,
          0.012987012987012988,
          0.012987012987012988,
          0.012987012987012988,
          0.012987012987012988,
          0.012987012987012988,
          0.012987012987012988,
          0.012987012987012988,
          0.012987012987012988,
          0.012987012987012988,
          0.012987012987012988,
          0.012987012987012988,
          0.012987012987012988,
          0.012987012987012988,
          0.012987012987012988,
          0.012987012987012988,
          0.012987012987012988,
          0.012987012987012988,
          0.012987012987012988,
          0.012987012987012988,
          0.012987012987012988,
          0.012987012987012988,
          0.012987012987012988,
          0.012987012987012988,
          0.012987012987012988,
          0.012987012987012988,
          0.012987012987012988,
          0.012987012987012988,
          0.012987012987012988,
          0.012987012987012988,
          0.012987012987012988,
          0.012987012987012988,
          0.012987012987012988,
          0.012987012987012988,
          0.012987012987012988,
          0.012987012987012988,
          0.012987012987012988,
          0.012987012987012988,
          0.012987012987012988,
          0.012987012987012988,
          0.012987012987012988,
          0.012987012987012988,
          0.012987012987012988,
          0.012987012987012988,
          0.012987012987012988,
          0.012987012987012988,
          0.012987012987012988,
          0.012987012987012988,
          0.012987012987012988,
          0.012987012987012988
        ],
        "estimator": "gbm",
        "n_estimators": 10
      },
      {
        "output_dim": 1,
        "intercept": [
          0.0
        ],
        "input_dim": 77,
        "estimator": "lr",
        "coef": [
          [
            0.0,
            0.0,
            0.0,
            0.0,
            0.0,
            0.0,
            0.0,
            0.0,
            0.0,
            0.0,
            0.0,
            0.0,
            0.0,
            0.0,
            0.0,
            0.0,
            0.0,
            0.0,
            0.0,
            0.0,
            0.0,
            0.0,
            0.0,
            0.0,
            0.0,
            0.0,
            0.0,
            0.0,
            0.0,
            0.0,
            0.0,
            0.0,
            0.0,
            0.0,
            0.0,
            0.0,
            0.0,
            0.0,
            0.0,
            0.0,
            0.0,
            0.0,
            0.0,
            0.0,
            0.0,
            0.0,
            0.0,
            0.0,
            0.0,
            0.0,
            0.0,
            0.0,
            0.0,
            0.0,
            0.0,
            0.0,
            0.0,
            0.0,
            0.0,
            0.0,
            0.0,
            0.0,
            0.0,
            0.0,
            0.0,
            0.0,
            0.0,
            0.0,
            0.0,
            0.0,
            0.0,
            0.0,
            0.0,
            0.0,
            0.0,
            0.0,
            0.0
          ]
        ]
      },
      {
        "output_dim": 1,
        "learning_rate": 0.05,
        "max_depth": 8,
        "input_dim": 77,
        "feature_importances": [
          0.012987012987012988,
          0.012987012987012988,
          0.012987012987012988,
          0.012987012987012988,
          0.012987012987012988,
          0.012987012987012988,
          0.012987012987012988,
          0.012987012987012988,
          0.012987012987012988,
          0.012987012987012988,
          0.012987012987012988,
          0.012987012987012988,
          0.012987012987012988,
          0.012987012987012988,
          0.012987012987012988,
          0.012987012987012988,
          0.012987012987012988,
          0.012987012987012988,
          0.012987012987012988,
          0.012987012987012988,
          0.012987012987012988,
          0.012987012987012988,
          0.012987012987012988,
          0.012987012987012988,
          0.012987012987012988,
          0.012987012987012988,
          0.012987012987012988,
          0.012987012987012988,
          0.012987012987012988,
          0.012987012987012988,
          0.012987012987012988,
          0.012987012987012988,
          0.012987012987012988,
          0.012987012987012988,
          0.012987012987012988,
          0.012987012987012988,
          0.012987012987012988,
          0.012987012987012988,
          0.012987012987012988,
          0.012987012987012988,
          0.012987012987012988,
          0.012987012987012988,
          0.012987012987012988,
          0.012987012987012988,
          0.012987012987012988,
          0.012987012987012988,
          0.012987012987012988,
          0.012987012987012988,
          0.012987012987012988,
          0.012987012987012988,
          0.012987012987012988,
          0.012987012987012988,
          0.012987012987012988,
          0.012987012987012988,
          0.012987012987012988,
          0.012987012987012988,
          0.012987012987012988,
          0.012987012987012988,
          0.012987012987012988,
          0.012987012987012988,
          0.012987012987012988,
          0.012987012987012988,
          0.012987012987012988,
          0.012987012987012988,
          0.012987012987012988,
          0.012987012987012988,
          0.012987012987012988,
          0.012987012987012988,
          0.012987012987012988,
          0.012987012987012988,
          0.012987012987012988,
          0.012987012987012988,
          0.012987012987012988,
          0.012987012987012988,
          0.012987012987012988,
          0.012987012987012988,
          0.012987012987012988
        ],
        "estimator": "gbm",
        "n_estimators": 100
      },
      {
        "output_dim": 1,
        "intercept": [
          0.0
        ],
        "input_dim": 77,
        "estimator": "lr",
        "coef": [
          [
            -0.003796605519020764,
            0.008102370144976384,
            -0.00690544046463022,
            -0.007610877555151021,
            0.00588321654243095,
            -6.876500719034395e-05,
            0.007705305377522684,
            -0.005715242874267803,
            0.007782230262596844,
            0.005349396953775501,
            -0.00027665890037442513,
            -0.0017873442217055738,
            -0.008712646916824936,
            -0.00340501458259977,
            0.0052678855548646715,
            -0.008259364354591025,
            0.000370003068106764,
            -0.004020193627770536,
            -0.0027857107980310825,
            -0.005283775782018965,
            -0.008503387179831574,
            0.001221018765321335,
            0.0036515023257182293,
            -0.008918116758069899,
            0.00829528464871958,
            -0.0015062926101205958,
            -0.00751045540966123,
            -0.003187699450250798,
            -0.008449504092348376,
            0.004961085728762114,
            0.0034641474681825143,
            -0.00393455816901994,
            -0.00963834403011445,
            -0.00023597334551739814,
            0.009785709714295644,
            -0.0005544174644421305,
            0.007162337652852334,
            0.0033151433781515153,
            -0.0002037442040180755,
            0.0007565531791875678,
            0.0016387212811895518,
            -0.0044095225411752885,
            -0.004791262448378754,
            -0.003856685620051994,
            -0.0030072498109921433,
            -0.0013527551753548788,
            0.0035566400834994207,
            0.002397094976010667,
            0.0021141050542390974,
            -0.0034398694080812887,
            0.004597700528053812,
            0.003632917644606543,
            0.003959522200191629,
            -0.0054920734005768565,
            0.00401135786387875,
            -0.0011597983907891182,
            0.009325188008517971,
            -0.0012596674760119667,
            -0.005317425772011393,
            -0.0014903912480008221,
            0.008204371840323405,
            -0.0034946575486996894,
            0.00028281901357858803,
            -0.0036820924329342983,
            0.009435022433844064,
            0.00471361045941277,
            0.0022376991287293077,
            -0.0007305756359215592,
            -0.006781048103122443,
            0.0031693832068180588,
            -0.006388332799371352,
            0.002635646496878136,
            0.0010602836785046123,
            -0.008068800612382233,
            -0.00010816376948592082,
            -0.0047190338163695155,
            -0.0018475715373016627
          ]
        ]
      },
      {
        "model_type": "pytorch",
        "linear.bias": [
          -4.082405321896924
        ],
        "linear.weight": [
          [
            2.631592184394746,
            -0.0653721050598437,
            15.727468792283219,
            1.891297585429136,
            1.891297585429136,
            0.0,
            0.0
          ]
        ]
      },
      {
        "output_dim": 1,
        "input_dim": 77,
        "feature_importances": [
          0.012987012987012986,
          0.012987012987012986,
          0.012987012987012986,
          0.012987012987012986,
          0.012987012987012986,
          0.012987012987012986,
          0.012987012987012986,
          0.012987012987012986,
          0.012987012987012986,
          0.012987012987012986,
          0.012987012987012986,
          0.012987012987012986,
          0.012987012987012986,
          0.012987012987012986,
          0.012987012987012986,
          0.012987012987012986,
          0.012987012987012986,
          0.012987012987012986,
          0.012987012987012986,
          0.012987012987012986,
          0.012987012987012986,
          0.012987012987012986,
          0.012987012987012986,
          0.012987012987012986,
          0.012987012987012986,
          0.012987012987012986,
          0.012987012987012986,
          0.012987012987012986,
          0.012987012987012986,
          0.012987012987012986,
          0.012987012987012986,
          0.012987012987012986,
          0.012987012987012986,
          0.012987012987012986,
          0.012987012987012986,
          0.012987012987012986,
          0.012987012987012986,
          0.012987012987012986,
          0.012987012987012986,
          0.012987012987012986,
          0.012987012987012986,
          0.012987012987012986,
          0.012987012987012986,
          0.012987012987012986,
          0.012987012987012986,
          0.012987012987012986,
          0.012987012987012986,
          0.012987012987012986,
          0.012987012987012986,
          0.012987012987012986,
          0.012987012987012986,
          0.012987012987012986,
          0.012987012987012986,
          0.012987012987012986,
          0.012987012987012986,
          0.012987012987012986,
          0.012987012987012986,
          0.012987012987012986,
          0.012987012987012986,
          0.012987012987012986,
          0.012987012987012986,
          0.012987012987012986,
          0.012987012987012986,
          0.012987012987012986,
          0.012987012987012986,
          0.012987012987012986,
          0.012987012987012986,
          0.012987012987012986,
          0.012987012987012986,
          0.012987012987012986,
          0.012987012987012986,
          0.012987012987012986,
          0.012987012987012986,
          0.012987012987012986,
          0.012987012987012986,
          0.012987012987012986,
          0.012987012987012986
        ],
        "estimator": "rf",
        "n_estimators": 100
      },
      {
        "output_dim": 1,
        "intercept": [
          -0.1
        ],
        "support_vectors": [
          [
            0.010032925108665797,
            0.07569876468358847,
            0.030605660599770934,
            0.06183789522307295,
            0.00459552504199616,
            0.033151443404163816,
            0.05453796032289707,
            -0.0738739322996092,
            0.05357256568664745,
            0.005102411930858447,
            0.04100470453663124,
            0.04739658853133821,
            0.04855355992175314,
            0.08130729139368845,
            0.018971389514027853,
            0.03106328984357049,
            -0.04031680337237219,
            0.08188941256183033,
            -0.022970623644113924,
            -0.075486520768271,
            0.030682996222292952,
            0.034219667641984,
            -0.01654876317390115,
            -0.08493588767883276,
            -0.02752903176883384,
            0.0004549238034953912,
            0.05302798632880473,
            -0.09358895319394311,
            -0.08799970819554281,
            -0.07918463950191079,
            0.08824928203803503,
            0.04383047866405862,
            -0.04487314521919224,
            -0.017640780569073117,
            -0.09754429389490715,
            0.07277948960483163,
            -0.00789690679817548,
            0.07911029679746248,
            0.08901842320638817,
            -0.09142271139039942,
            0.02503500642088044,
            -0.09614906032755906,
            0.02638479342497807,
            -0.051506745471853126,
            0.0099160221049613,
            -0.05435991840916275,
            0.06682143137088892,
            0.04138672981142272,
            -0.05432662796836661,
            0.03724789276737944,
            0.05740096612523299,
            -0.09616836192998124,
            0.09061153079566048,
            -0.038999701048199484,
            0.062198417664638996,
            -0.010724391516557283,
            -0.07613353593913547,
            -0.06668672372186943,
            -0.031075311890521262,
            -0.07863143665595834,
            0.07844907485352745,
            -0.012109636570948032,
            0.07823437062065033,
            0.07352735299913793,
            -1.9843865724206156e-05,
            -0.06198823250165453,
            -0.058533364729965134,
            -0.06942155549208723,
            -0.027001353026229552,
            -0.05434684854569548,
            0.089491751486626,
            0.0048914331174370745,
            -0.06637508666173872,
            0.021735646930563512,
            -0.09637647553090167,
            -0.07226388359897339,
            0.07899171581262274
          ],
          [
            -0.015062987872955874,
            0.006678502404404013,
            0.05356468307759801,
            -0.007325647807168961,
            0.09657011325507653,
            -0.011419083370235894,
            0.05307028869957242,
            0.041538148906324124,
            0.050268699831469366,
            0.02577517354902631,
            0.014094393318772797,
            0.049136885612763415,
            -0.08687402945072689,
            0.0760218519544035,
            0.0969058733772894,
            -0.077406014051604,
            0.04563177428920975,
            0.0029767156180677823,
            -0.06023389679700747,
            0.06653610985210126,
            -0.05398300414265085,
            -0.08850209423567545,
            -0.03944576602560301,
            -0.03932930639324553,
            0.08261218887805868,
            0.03377369228602628,
            -0.03595421984776699,
            -0.05140580155123138,
            0.009021107351879998,
            0.06624928144784101,
            0.00436291318506124,
            0.0896608839068577,
            0.009851971563641398,
            0.028850050626062357,
            0.09447386552632098,
            -0.028633446280088265,
            0.08095957486773922,
            -0.07912365170866165,
            -0.057869941337985176,
            -0.016302811443722615,
            -0.08197591333377362,
            -0.09056733991566504,
            0.017796734016846477,
            -0.03312378089194071,
            -0.07493861473130348,
            -0.01581600459460039,
            -0.05643549221633447,
            0.061062368893782616,
            0.05906138011895995,
            -0.010442468917626083,
            -0.09490359579781316,
            0.05962202267199698,
            -0.07384134789586057,
            0.011375371507972035,
            -0.08911871208977401,
            0.018569784582487037,
            -0.07048122143202468,
            0.05128635108908927,
            0.023206185397901785,
            -0.0014754772880112982,
            0.05438413333001105,
            -0.002531774070465606,
            0.05821633559149997,
            0.09654138177625457,
            -0.03137085512780023,
            0.00139698165084641,
            -0.03417594546100411,
            -0.007450747789122761,
            -0.02532223977122708,
            -0.03244031104153229,
            0.013612009677451825,
            0.04294721423069897,
            0.049621546481620926,
            0.08281934324458723,
            0.06863625527783143,
            0.05001319114832134,
            -0.06968965914896952
          ]
        ],
        "input_dim": 77,
        "estimator": "svc",
        "dual_coef": [
          [
            0.1,
            -0.1
          ]
        ]
      },
      {
        "output_dim": 1,
        "learning_rate": 0.1,
        "max_depth": 6,
        "input_dim": 77,
        "feature_importances": [
          0.012987012987012988,
          0.012987012987012988,
          0.012987012987012988,
          0.012987012987012988,
          0.012987012987012988,
          0.012987012987012988,
          0.012987012987012988,
          0.012987012987012988,
          0.012987012987012988,
          0.012987012987012988,
          0.012987012987012988,
          0.012987012987012988,
          0.012987012987012988,
          0.012987012987012988,
          0.012987012987012988,
          0.012987012987012988,
          0.012987012987012988,
          0.012987012987012988,
          0.012987012987012988,
          0.012987012987012988,
          0.012987012987012988,
          0.012987012987012988,
          0.012987012987012988,
          0.012987012987012988,
          0.012987012987012988,
          0.012987012987012988,
          0.012987012987012988,
          0.012987012987012988,
          0.012987012987012988,
          0.012987012987012988,
          0.012987012987012988,
          0.012987012987012988,
          0.012987012987012988,
          0.012987012987012988,
          0.012987012987012988,
          0.012987012987012988,
          0.012987012987012988,
          0.012987012987012988,
          0.012987012987012988,
          0.012987012987012988,
          0.012987012987012988,
          0.012987012987012988,
          0.012987012987012988,
          0.012987012987012988,
          0.012987012987012988,
          0.012987012987012988,
          0.012987012987012988,
          0.012987012987012988,
          0.012987012987012988,
          0.012987012987012988,
          0.012987012987012988,
          0.012987012987012988,
          0.012987012987012988,
          0.012987012987012988,
          0.012987012987012988,
          0.012987012987012988,
          0.012987012987012988,
          0.012987012987012988,
          0.012987012987012988,
          0.012987012987012988,
          0.012987012987012988,
          0.012987012987012988,
          0.012987012987012988,
          0.012987012987012988,
          0.012987012987012988,
          0.012987012987012988,
          0.012987012987012988,
          0.012987012987012988,
          0.012987012987012988,
          0.012987012987012988,
          0.012987012987012988,
          0.012987012987012988,
          0.012987012987012988,
          0.012987012987012988,
          0.012987012987012988,
          0.012987012987012988,
          0.012987012987012988
        ],
        "estimator": "gbm",
        "n_estimators": 100
      }
    ]
  },
  "info": {
    "round": 2,
    "timestamp": "2025-05-14T05:03:14.759385+00:00",
    "version": "1.0.0514-8891.2",
    "version_data": {
      "version": "1.0.0514-8891.2",
      "base_version": "1.0",
      "session_id": 1747198891,
      "session_tag": "0514-8891",
      "round": 2,
      "timestamp": "2025-05-14T05:03:14.759376+00:00"
    },
    "is_ensemble": true,
    "task_type": "fraud_detection",
    "num_models": 8,
    "model_names": [
      "catboost",
      "knn",
      "lgbm",
      "lr",
      "meta_lr",
      "rf",
      "svc",
      "xgb"
    ]
  }
}