{
  "ensemble_state": {
    "model_parameters": [
      {
        "estimator": "lr",
        "input_dim": 77,
        "output_dim": 1,
        "coef": [
          [
            0.0,
            0.0,
            0.0,
            0.0,
            0.0,
            0.0,
            0.0,
            0.0,
            0.0,
            0.0,
            0.0,
            0.0,
            0.0,
            0.0,
            0.0,
            0.0,
            0.0,
            0.0,
            0.0,
            0.0,
            0.0,
            0.0,
            0.0,
            0.0,
            0.0,
            0.0,
            0.0,
            0.0,
            0.0,
            0.0,
            0.0,
            0.0,
            0.0,
            0.0,
            0.0,
            0.0,
            0.0,
            0.0,
            0.0,
            0.0,
            0.0,
            0.0,
            0.0,
            0.0,
            0.0,
            0.0,
            0.0,
            0.0,
            0.0,
            0.0,
            0.0,
            0.0,
            0.0,
            0.0,
            0.0,
            0.0,
            0.0,
            0.0,
            0.0,
            0.0,
            0.0,
            0.0,
            0.0,
            0.0,
            0.0,
            0.0,
            0.0,
            0.0,
            0.0,
            0.0,
            0.0,
            0.0,
            0.0,
            0.0,
            0.0,
            0.0,
            0.0
          ]
        ],
        "intercept": [
          0.0
        ]
      },
      {
        "estimator": "svc",
        "input_dim": 77,
        "output_dim": 1,
        "dual_coef": [
          [
            0.5,
            -0.5
          ]
        ],
        "support_vectors": [
          [
            0.1,
            0.1,
            0.1,
            0.1,
            0.1,
            0.1,
            0.1,
            0.1,
            0.1,
            0.1,
            0.1,
            0.1,
            0.1,
            0.1,
            0.1,
            0.1,
            0.1,
            0.1,
            0.1,
            0.1,
            0.1,
            0.1,
            0.1,
            0.1,
            0.1,
            0.1,
            0.1,
            0.1,
            0.1,
            0.1,
            0.1,
            0.1,
            0.1,
            0.1,
            0.1,
            0.1,
            0.1,
            0.1,
            0.1,
            0.1,
            0.1,
            0.1,
            0.1,
            0.1,
            0.1,
            0.1,
            0.1,
            0.1,
            0.1,
            0.1,
            0.1,
            0.1,
            0.1,
            0.1,
            0.1,
            0.1,
            0.1,
            0.1,
            0.1,
            0.1,
            0.1,
            0.1,
            0.1,
            0.1,
            0.1,
            0.1,
            0.1,
            0.1,
            0.1,
            0.1,
            0.1,
            0.1,
            0.1,
            0.1,
            0.1,
            0.1,
            0.1
          ],
          [
            -0.1,
            -0.1,
            -0.1,
            -0.1,
            -0.1,
            -0.1,
            -0.1,
            -0.1,
            -0.1,
            -0.1,
            -0.1,
            -0.1,
            -0.1,
            -0.1,
            -0.1,
            -0.1,
            -0.1,
            -0.1,
            -0.1,
            -0.1,
            -0.1,
            -0.1,
            -0.1,
            -0.1,
            -0.1,
            -0.1,
            -0.1,
            -0.1,
            -0.1,
            -0.1,
            -0.1,
            -0.1,
            -0.1,
            -0.1,
            -0.1,
            -0.1,
            -0.1,
            -0.1,
            -0.1,
            -0.1,
            -0.1,
            -0.1,
            -0.1,
            -0.1,
            -0.1,
            -0.1,
            -0.1,
            -0.1,
            -0.1,
            -0.1,
            -0.1,
            -0.1,
            -0.1,
            -0.1,
            -0.1,
            -0.1,
            -0.1,
            -0.1,
            -0.1,
            -0.1,
            -0.1,
            -0.1,
            -0.1,
            -0.1,
            -0.1,
            -0.1,
            -0.1,
            -0.1,
            -0.1,
            -0.1,
            -0.1,
            -0.1,
            -0.1,
            -0.1,
            -0.1,
            -0.1,
            -0.1
          ]
        ],
        "intercept": [
          0.0
        ]
      },
      {
        "estimator": "rf",
        "input_dim": 77,
        "output_dim": 1,
        "n_estimators": 100,
        "feature_importances": [
          0.012987012987012988,
          0.012987012987012988,
          0.012987012987012988,
          0.012987012987012988,
          0.012987012987012988,
          0.012987012987012988,
          0.012987012987012988,
          0.012987012987012988,
          0.012987012987012988,
          0.012987012987012988,
          0.012987012987012988,
          0.012987012987012988,
          0.012987012987012988,
          0.012987012987012988,
          0.012987012987012988,
          0.012987012987012988,
          0.012987012987012988,
          0.012987012987012988,
          0.012987012987012988,
          0.012987012987012988,
          0.012987012987012988,
          0.012987012987012988,
          0.012987012987012988,
          0.012987012987012988,
          0.012987012987012988,
          0.012987012987012988,
          0.012987012987012988,
          0.012987012987012988,
          0.012987012987012988,
          0.012987012987012988,
          0.012987012987012988,
          0.012987012987012988,
          0.012987012987012988,
          0.012987012987012988,
          0.012987012987012988,
          0.012987012987012988,
          0.012987012987012988,
          0.012987012987012988,
          0.012987012987012988,
          0.012987012987012988,
          0.012987012987012988,
          0.012987012987012988,
          0.012987012987012988,
          0.012987012987012988,
          0.012987012987012988,
          0.012987012987012988,
          0.012987012987012988,
          0.012987012987012988,
          0.012987012987012988,
          0.012987012987012988,
          0.012987012987012988,
          0.012987012987012988,
          0.012987012987012988,
          0.012987012987012988,
          0.012987012987012988,
          0.012987012987012988,
          0.012987012987012988,
          0.012987012987012988,
          0.012987012987012988,
          0.012987012987012988,
          0.012987012987012988,
          0.012987012987012988,
          0.012987012987012988,
          0.012987012987012988,
          0.012987012987012988,
          0.012987012987012988,
          0.012987012987012988,
          0.012987012987012988,
          0.012987012987012988,
          0.012987012987012988,
          0.012987012987012988,
          0.012987012987012988,
          0.012987012987012988,
          0.012987012987012988,
          0.012987012987012988,
          0.012987012987012988,
          0.012987012987012988
        ]
      },
      {
        "estimator": "gbm",
        "input_dim": 77,
        "output_dim": 1,
        "n_estimators": 100,
        "feature_importances": [
          0.012987012987012988,
          0.012987012987012988,
          0.012987012987012988,
          0.012987012987012988,
          0.012987012987012988,
          0.012987012987012988,
          0.012987012987012988,
          0.012987012987012988,
          0.012987012987012988,
          0.012987012987012988,
          0.012987012987012988,
          0.012987012987012988,
          0.012987012987012988,
          0.012987012987012988,
          0.012987012987012988,
          0.012987012987012988,
          0.012987012987012988,
          0.012987012987012988,
          0.012987012987012988,
          0.012987012987012988,
          0.012987012987012988,
          0.012987012987012988,
          0.012987012987012988,
          0.012987012987012988,
          0.012987012987012988,
          0.012987012987012988,
          0.012987012987012988,
          0.012987012987012988,
          0.012987012987012988,
          0.012987012987012988,
          0.012987012987012988,
          0.012987012987012988,
          0.012987012987012988,
          0.012987012987012988,
          0.012987012987012988,
          0.012987012987012988,
          0.012987012987012988,
          0.012987012987012988,
          0.012987012987012988,
          0.012987012987012988,
          0.012987012987012988,
          0.012987012987012988,
          0.012987012987012988,
          0.012987012987012988,
          0.012987012987012988,
          0.012987012987012988,
          0.012987012987012988,
          0.012987012987012988,
          0.012987012987012988,
          0.012987012987012988,
          0.012987012987012988,
          0.012987012987012988,
          0.012987012987012988,
          0.012987012987012988,
          0.012987012987012988,
          0.012987012987012988,
          0.012987012987012988,
          0.012987012987012988,
          0.012987012987012988,
          0.012987012987012988,
          0.012987012987012988,
          0.012987012987012988,
          0.012987012987012988,
          0.012987012987012988,
          0.012987012987012988,
          0.012987012987012988,
          0.012987012987012988,
          0.012987012987012988,
          0.012987012987012988,
          0.012987012987012988,
          0.012987012987012988,
          0.012987012987012988,
          0.012987012987012988,
          0.012987012987012988,
          0.012987012987012988,
          0.012987012987012988,
          0.012987012987012988
        ]
      },
      {
        "estimator": "meta_lr",
        "input_dim": 4,
        "meta_input_dim": 4,
        "output_dim": 1,
        "coef": [
          [
            0.2,
            0.3,
            0.2,
            0.3
          ]
        ],
        "intercept": [
          -0.5
        ]
      }
    ],
    "weights": [
      0.2,
      0.3,
      0.2,
      0.3,
      0.0
    ],
    "model_names": [
      "lr",
      "svc",
      "rf",
      "gbm",
      "meta_lr"
    ]
  },
  "info": {
    "round": 1,
    "timestamp": "2025-05-11T03:39:09.794433+00:00",
    "version": "1.0.0511-4749.1",
    "version_data": {
      "version": "1.0.0511-4749.1",
      "base_version": "1.0",
      "session_id": 1746934749,
      "session_tag": "0511-4749",
      "round": 1,
      "timestamp": "2025-05-11T03:39:09.794419+00:00"
    },
    "is_ensemble": true,
    "task_type": "fraud_detection",
    "num_models": 5,
    "model_names": [
      "lr",
      "svc",
      "rf",
      "gbm",
      "meta_lr"
    ]
  }
}