{
  "ensemble_state": {
    "weights": [
      0.09307295154690781,
      0.02357393694986774,
      0.3175129368273603,
      0.0194633750964111,
      0.05670442928689104,
      0.2722189328238389,
      0.023155841844610867,
      0.19429759562411217
    ],
    "model_names": [
      "catboost",
      "knn",
      "lgbm",
      "lr",
      "meta_lr",
      "rf",
      "svc",
      "xgb"
    ],
    "model_state_dicts": [
      {
        "n_estimators": 10,
        "feature_importances": [
          0.012987012987012988,
          0.012987012987012988,
          0.012987012987012988,
          0.012987012987012988,
          0.012987012987012988,
          0.012987012987012988,
          0.012987012987012988,
          0.012987012987012988,
          0.012987012987012988,
          0.012987012987012988,
          0.012987012987012988,
          0.012987012987012988,
          0.012987012987012988,
          0.012987012987012988,
          0.012987012987012988,
          0.012987012987012988,
          0.012987012987012988,
          0.012987012987012988,
          0.012987012987012988,
          0.012987012987012988,
          0.012987012987012988,
          0.012987012987012988,
          0.012987012987012988,
          0.012987012987012988,
          0.012987012987012988,
          0.012987012987012988,
          0.012987012987012988,
          0.012987012987012988,
          0.012987012987012988,
          0.012987012987012988,
          0.012987012987012988,
          0.012987012987012988,
          0.012987012987012988,
          0.012987012987012988,
          0.012987012987012988,
          0.012987012987012988,
          0.012987012987012988,
          0.012987012987012988,
          0.012987012987012988,
          0.012987012987012988,
          0.012987012987012988,
          0.012987012987012988,
          0.012987012987012988,
          0.012987012987012988,
          0.012987012987012988,
          0.012987012987012988,
          0.012987012987012988,
          0.012987012987012988,
          0.012987012987012988,
          0.012987012987012988,
          0.012987012987012988,
          0.012987012987012988,
          0.012987012987012988,
          0.012987012987012988,
          0.012987012987012988,
          0.012987012987012988,
          0.012987012987012988,
          0.012987012987012988,
          0.012987012987012988,
          0.012987012987012988,
          0.012987012987012988,
          0.012987012987012988,
          0.012987012987012988,
          0.012987012987012988,
          0.012987012987012988,
          0.012987012987012988,
          0.012987012987012988,
          0.012987012987012988,
          0.012987012987012988,
          0.012987012987012988,
          0.012987012987012988,
          0.012987012987012988,
          0.012987012987012988,
          0.012987012987012988,
          0.012987012987012988,
          0.012987012987012988,
          0.012987012987012988
        ],
        "input_dim": 77,
        "estimator": "gbm",
        "learning_rate": 0.1,
        "output_dim": 1,
        "max_depth": 3
      },
      {
        "input_dim": 77,
        "intercept": [
          0.0
        ],
        "coef": [
          [
            0.0,
            0.0,
            0.0,
            0.0,
            0.0,
            0.0,
            0.0,
            0.0,
            0.0,
            0.0,
            0.0,
            0.0,
            0.0,
            0.0,
            0.0,
            0.0,
            0.0,
            0.0,
            0.0,
            0.0,
            0.0,
            0.0,
            0.0,
            0.0,
            0.0,
            0.0,
            0.0,
            0.0,
            0.0,
            0.0,
            0.0,
            0.0,
            0.0,
            0.0,
            0.0,
            0.0,
            0.0,
            0.0,
            0.0,
            0.0,
            0.0,
            0.0,
            0.0,
            0.0,
            0.0,
            0.0,
            0.0,
            0.0,
            0.0,
            0.0,
            0.0,
            0.0,
            0.0,
            0.0,
            0.0,
            0.0,
            0.0,
            0.0,
            0.0,
            0.0,
            0.0,
            0.0,
            0.0,
            0.0,
            0.0,
            0.0,
            0.0,
            0.0,
            0.0,
            0.0,
            0.0,
            0.0,
            0.0,
            0.0,
            0.0,
            0.0,
            0.0
          ]
        ],
        "estimator": "lr",
        "output_dim": 1
      },
      {
        "n_estimators": 100,
        "feature_importances": [
          0.01298701298701299,
          0.01298701298701299,
          0.01298701298701299,
          0.01298701298701299,
          0.01298701298701299,
          0.01298701298701299,
          0.01298701298701299,
          0.01298701298701299,
          0.01298701298701299,
          0.01298701298701299,
          0.01298701298701299,
          0.01298701298701299,
          0.01298701298701299,
          0.01298701298701299,
          0.01298701298701299,
          0.01298701298701299,
          0.01298701298701299,
          0.01298701298701299,
          0.01298701298701299,
          0.01298701298701299,
          0.01298701298701299,
          0.01298701298701299,
          0.01298701298701299,
          0.01298701298701299,
          0.01298701298701299,
          0.01298701298701299,
          0.01298701298701299,
          0.01298701298701299,
          0.01298701298701299,
          0.01298701298701299,
          0.01298701298701299,
          0.01298701298701299,
          0.01298701298701299,
          0.01298701298701299,
          0.01298701298701299,
          0.01298701298701299,
          0.01298701298701299,
          0.01298701298701299,
          0.01298701298701299,
          0.01298701298701299,
          0.01298701298701299,
          0.01298701298701299,
          0.01298701298701299,
          0.01298701298701299,
          0.01298701298701299,
          0.01298701298701299,
          0.01298701298701299,
          0.01298701298701299,
          0.01298701298701299,
          0.01298701298701299,
          0.01298701298701299,
          0.01298701298701299,
          0.01298701298701299,
          0.01298701298701299,
          0.01298701298701299,
          0.01298701298701299,
          0.01298701298701299,
          0.01298701298701299,
          0.01298701298701299,
          0.01298701298701299,
          0.01298701298701299,
          0.01298701298701299,
          0.01298701298701299,
          0.01298701298701299,
          0.01298701298701299,
          0.01298701298701299,
          0.01298701298701299,
          0.01298701298701299,
          0.01298701298701299,
          0.01298701298701299,
          0.01298701298701299,
          0.01298701298701299,
          0.01298701298701299,
          0.01298701298701299,
          0.01298701298701299,
          0.01298701298701299,
          0.01298701298701299
        ],
        "input_dim": 77,
        "estimator": "gbm",
        "learning_rate": 0.05000000000000001,
        "output_dim": 1,
        "max_depth": 8
      },
      {
        "input_dim": 77,
        "intercept": [
          0.0
        ],
        "coef": [
          [
            -0.003638085293365967,
            0.002773602104011239,
            -0.0032316654447708576,
            0.0026445357126225044,
            -0.00537761956338916,
            0.009379701812269268,
            -0.006083583090644398,
            -0.0014121694344093692,
            0.00023570646869927256,
            -0.001672393339663401,
            -0.003429378376176486,
            0.007307256139804782,
            -0.0033835689578291797,
            0.0011096550383452898,
            -0.008817843832940939,
            -0.008170005014365244,
            0.0012201606043956356,
            0.003316484672650283,
            0.004257057671407761,
            -0.0007514385019741464,
            0.00626906033075606,
            0.003806427478248111,
            0.009823924577279708,
            0.007379956969061267,
            0.0030499571842393155,
            0.006662351963059864,
            0.0015705996643465333,
            0.0003504792918525568,
            0.005744982043030656,
            0.001340239523643665,
            -0.001646725682363244,
            0.0055879574663675186,
            -0.009453503963478384,
            -0.008058618656786858,
            -0.0013288654604951995,
            0.0013414892309437359,
            0.0018418137413926932,
            0.002984370508791842,
            0.005106589297468936,
            -0.009236601085462304,
            -0.0058783751998950405,
            -0.006297025728311514,
            -0.0035247010355331644,
            0.00746372234963393,
            -0.009812407129342487,
            0.006804803918106386,
            -0.0017932299439045174,
            0.006257372352098214,
            -0.0011270587024577589,
            0.003693712606413631,
            -0.0006871215386192158,
            -0.005453151520807859,
            -0.008622035624223711,
            0.0007754143247250631,
            0.004960284319309708,
            0.0024689003681496445,
            -0.006280189545465755,
            0.0019390135201021869,
            -0.00999717281975259,
            0.009508330574883582,
            0.007162216088072914,
            -0.003520978837493551,
            -0.0043676640410047615,
            -0.008477632988456284,
            0.008498665283374377,
            0.009867411390034608,
            0.005593439784849909,
            -0.0049107242456928255,
            8.821044090669488e-06,
            -0.008346305028225608,
            0.0028852694724998025,
            0.005919286762233704,
            -0.00144396190663983,
            0.006760258728687173,
            -0.0038305305615846694,
            0.0006286500420221389,
            -0.005564881856791438
          ]
        ],
        "estimator": "lr",
        "output_dim": 1
      },
      {
        "linear.weight": [
          [
            -0.49079081416130066,
            1.2143455743789673,
            2.5872881412506104,
            -1.2673035860061646,
            -1.2673035860061646,
            0.0,
            0.0
          ]
        ],
        "model_type": "pytorch",
        "linear.bias": [
          -3.823882818222046
        ]
      },
      {
        "n_estimators": 100,
        "feature_importances": [
          0.012987012987012988,
          0.012987012987012988,
          0.012987012987012988,
          0.012987012987012988,
          0.012987012987012988,
          0.012987012987012988,
          0.012987012987012988,
          0.012987012987012988,
          0.012987012987012988,
          0.012987012987012988,
          0.012987012987012988,
          0.012987012987012988,
          0.012987012987012988,
          0.012987012987012988,
          0.012987012987012988,
          0.012987012987012988,
          0.012987012987012988,
          0.012987012987012988,
          0.012987012987012988,
          0.012987012987012988,
          0.012987012987012988,
          0.012987012987012988,
          0.012987012987012988,
          0.012987012987012988,
          0.012987012987012988,
          0.012987012987012988,
          0.012987012987012988,
          0.012987012987012988,
          0.012987012987012988,
          0.012987012987012988,
          0.012987012987012988,
          0.012987012987012988,
          0.012987012987012988,
          0.012987012987012988,
          0.012987012987012988,
          0.012987012987012988,
          0.012987012987012988,
          0.012987012987012988,
          0.012987012987012988,
          0.012987012987012988,
          0.012987012987012988,
          0.012987012987012988,
          0.012987012987012988,
          0.012987012987012988,
          0.012987012987012988,
          0.012987012987012988,
          0.012987012987012988,
          0.012987012987012988,
          0.012987012987012988,
          0.012987012987012988,
          0.012987012987012988,
          0.012987012987012988,
          0.012987012987012988,
          0.012987012987012988,
          0.012987012987012988,
          0.012987012987012988,
          0.012987012987012988,
          0.012987012987012988,
          0.012987012987012988,
          0.012987012987012988,
          0.012987012987012988,
          0.012987012987012988,
          0.012987012987012988,
          0.012987012987012988,
          0.012987012987012988,
          0.012987012987012988,
          0.012987012987012988,
          0.012987012987012988,
          0.012987012987012988,
          0.012987012987012988,
          0.012987012987012988,
          0.012987012987012988,
          0.012987012987012988,
          0.012987012987012988,
          0.012987012987012988,
          0.012987012987012988,
          0.012987012987012988
        ],
        "input_dim": 77,
        "estimator": "rf",
        "output_dim": 1
      },
      {
        "support_vectors": [
          [
            0.09469845932144055,
            -0.07023707429489007,
            0.06199844928031903,
            0.008326708197883864,
            -0.035694761042140685,
            -0.06358527524195301,
            -0.00018365524572054595,
            0.007935051825649284,
            0.02523655543930059,
            0.09411273914673021,
            0.043151779016572966,
            0.061259731479634934,
            0.08667922360195035,
            0.04853852671651529,
            0.06811513194509769,
            0.05216654374905805,
            0.07734394169415007,
            0.07007153618570539,
            -0.01282841309574019,
            -0.08107323738874624,
            -0.016009846109821507,
            -0.019469614782306438,
            -0.028173811535035512,
            0.07174170809956332,
            -0.07881006538762643,
            0.034311815546267166,
            -0.07972319024278506,
            0.08035601450693564,
            0.009606892448621979,
            -0.08837519065805002,
            0.06241505065036657,
            -0.042382803071881504,
            0.04601300421966234,
            -0.02807380268149791,
            0.031068341375526946,
            0.07493807334084676,
            -0.07393356631159148,
            0.09316492803744233,
            0.07295736280185952,
            0.09608334744223382,
            0.09785082074931126,
            0.021896565551312742,
            -0.004604255526522258,
            0.0258071239035208,
            -0.011231114429830645,
            0.07342950062289519,
            0.07796514291994219,
            0.09303962518908465,
            -0.001434192841166901,
            -0.08942270129649296,
            0.06749196817105471,
            0.01107607045945995,
            0.0811510857321465,
            -0.03625613056036672,
            0.08992163334858866,
            -0.05247246253836223,
            0.07444564625284208,
            -0.0862312364630107,
            0.05994264185092077,
            -0.029263544597026278,
            0.06457532321450746,
            -0.04207647258178742,
            0.03956436675769584,
            0.0943592995416727,
            0.06623028235315173,
            -0.0921496027324645,
            0.027347704182715232,
            0.06466098255939226,
            0.040168378012535866,
            0.09028659927221937,
            -0.07817525449446762,
            0.09423467921081592,
            0.019402051185919172,
            -0.08551785649976545,
            -0.023124906475091203,
            -0.05460064378679322,
            -0.09858165504480033
          ],
          [
            -0.003273362502130756,
            -0.07747743259220592,
            -0.0108543844122162,
            -0.04951723388716529,
            -0.05881770558899846,
            -0.05738616077378643,
            -0.061403598107691804,
            -0.07553673843552107,
            -0.09104916676146245,
            0.0034173365834612446,
            -0.04284215135531044,
            0.02207339831522251,
            -0.060948511824884755,
            -0.08741908199667126,
            -0.022509317142463004,
            0.07838461940026564,
            -0.004533744645985854,
            -0.09349364715330875,
            0.04166789845869445,
            0.03178695617800753,
            0.008777123982880414,
            -0.08157113905695948,
            -0.05288316724704019,
            0.07467794490182653,
            -0.04405514681760734,
            -0.027027928173757907,
            0.03271500985532183,
            -0.09591904051214861,
            -0.00934283971461633,
            0.002568433130668707,
            0.08933243741281613,
            0.052111375385618414,
            0.008644036736045718,
            0.014203936735052575,
            -0.0971402718498254,
            -0.09566062351996847,
            0.031376773591696244,
            0.07363127873116579,
            -0.06614747681622998,
            0.02363005596610883,
            -0.05846222788099801,
            -0.08252491008380594,
            -0.0035530657831979867,
            -0.0033712546685589623,
            -0.052092883238460654,
            0.09188305656784149,
            0.00523464840580716,
            0.030412746177699124,
            0.030417724121184073,
            0.07532303191426556,
            -0.014623214094378098,
            -0.09590190894029386,
            -0.09933747528604298,
            0.08810093960663587,
            -0.08762925497796321,
            0.03842676887107016,
            0.06607819419164615,
            -0.058969975690997455,
            -0.020184253756585863,
            0.04788966545064868,
            0.037892975466963685,
            -0.00539616838663684,
            -0.05034964045245641,
            -0.06664668672997551,
            0.09714065881455745,
            -0.04009432995612289,
            -0.006612129307400599,
            -0.0013148779833053459,
            0.06573687446465462,
            -0.08345849987957506,
            0.04937846167892704,
            0.07460016604564448,
            -0.054641199963620164,
            0.08435111206165608,
            -0.02705178133360076,
            0.04964601454412949,
            0.07034398344335463
          ]
        ],
        "input_dim": 77,
        "intercept": [
          -0.10000000000000002
        ],
        "dual_coef": [
          [
            0.10000000000000002,
            -0.10000000000000002
          ]
        ],
        "estimator": "svc",
        "output_dim": 1
      },
      {
        "n_estimators": 100,
        "feature_importances": [
          0.012987012987012988,
          0.012987012987012988,
          0.012987012987012988,
          0.012987012987012988,
          0.012987012987012988,
          0.012987012987012988,
          0.012987012987012988,
          0.012987012987012988,
          0.012987012987012988,
          0.012987012987012988,
          0.012987012987012988,
          0.012987012987012988,
          0.012987012987012988,
          0.012987012987012988,
          0.012987012987012988,
          0.012987012987012988,
          0.012987012987012988,
          0.012987012987012988,
          0.012987012987012988,
          0.012987012987012988,
          0.012987012987012988,
          0.012987012987012988,
          0.012987012987012988,
          0.012987012987012988,
          0.012987012987012988,
          0.012987012987012988,
          0.012987012987012988,
          0.012987012987012988,
          0.012987012987012988,
          0.012987012987012988,
          0.012987012987012988,
          0.012987012987012988,
          0.012987012987012988,
          0.012987012987012988,
          0.012987012987012988,
          0.012987012987012988,
          0.012987012987012988,
          0.012987012987012988,
          0.012987012987012988,
          0.012987012987012988,
          0.012987012987012988,
          0.012987012987012988,
          0.012987012987012988,
          0.012987012987012988,
          0.012987012987012988,
          0.012987012987012988,
          0.012987012987012988,
          0.012987012987012988,
          0.012987012987012988,
          0.012987012987012988,
          0.012987012987012988,
          0.012987012987012988,
          0.012987012987012988,
          0.012987012987012988,
          0.012987012987012988,
          0.012987012987012988,
          0.012987012987012988,
          0.012987012987012988,
          0.012987012987012988,
          0.012987012987012988,
          0.012987012987012988,
          0.012987012987012988,
          0.012987012987012988,
          0.012987012987012988,
          0.012987012987012988,
          0.012987012987012988,
          0.012987012987012988,
          0.012987012987012988,
          0.012987012987012988,
          0.012987012987012988,
          0.012987012987012988,
          0.012987012987012988,
          0.012987012987012988,
          0.012987012987012988,
          0.012987012987012988,
          0.012987012987012988,
          0.012987012987012988
        ],
        "input_dim": 77,
        "estimator": "gbm",
        "learning_rate": 0.1,
        "output_dim": 1,
        "max_depth": 6
      }
    ]
  },
  "info": {
    "round": 3,
    "timestamp": "2025-05-14T03:11:19.142385+00:00",
    "version": "1.0.0514-2147.3",
    "version_data": {
      "version": "1.0.0514-2147.3",
      "base_version": "1.0",
      "session_id": 1747192147,
      "session_tag": "0514-2147",
      "round": 3,
      "timestamp": "2025-05-14T03:11:19.142374+00:00"
    },
    "is_ensemble": true,
    "task_type": "fraud_detection",
    "num_models": 8,
    "model_names": [
      "catboost",
      "knn",
      "lgbm",
      "lr",
      "meta_lr",
      "rf",
      "svc",
      "xgb"
    ]
  }
}