{
  "ensemble_state": {
    "weights": [
      0.11245552745481635,
      0.03908603834586331,
      0.07516086264753713,
      0.12332448106291594,
      0.2311994910746749,
      0.0976475181630863,
      0.06445944504186803,
      0.2566666362092382
    ],
    "model_names": [
      "catboost",
      "knn",
      "lgbm",
      "lr",
      "meta_lr",
      "rf",
      "svc",
      "xgb"
    ],
    "model_state_dicts": [
      {
        "n_estimators": 10,
        "feature_importances": [
          0.012987012987012988,
          0.012987012987012988,
          0.012987012987012988,
          0.012987012987012988,
          0.012987012987012988,
          0.012987012987012988,
          0.012987012987012988,
          0.012987012987012988,
          0.012987012987012988,
          0.012987012987012988,
          0.012987012987012988,
          0.012987012987012988,
          0.012987012987012988,
          0.012987012987012988,
          0.012987012987012988,
          0.012987012987012988,
          0.012987012987012988,
          0.012987012987012988,
          0.012987012987012988,
          0.012987012987012988,
          0.012987012987012988,
          0.012987012987012988,
          0.012987012987012988,
          0.012987012987012988,
          0.012987012987012988,
          0.012987012987012988,
          0.012987012987012988,
          0.012987012987012988,
          0.012987012987012988,
          0.012987012987012988,
          0.012987012987012988,
          0.012987012987012988,
          0.012987012987012988,
          0.012987012987012988,
          0.012987012987012988,
          0.012987012987012988,
          0.012987012987012988,
          0.012987012987012988,
          0.012987012987012988,
          0.012987012987012988,
          0.012987012987012988,
          0.012987012987012988,
          0.012987012987012988,
          0.012987012987012988,
          0.012987012987012988,
          0.012987012987012988,
          0.012987012987012988,
          0.012987012987012988,
          0.012987012987012988,
          0.012987012987012988,
          0.012987012987012988,
          0.012987012987012988,
          0.012987012987012988,
          0.012987012987012988,
          0.012987012987012988,
          0.012987012987012988,
          0.012987012987012988,
          0.012987012987012988,
          0.012987012987012988,
          0.012987012987012988,
          0.012987012987012988,
          0.012987012987012988,
          0.012987012987012988,
          0.012987012987012988,
          0.012987012987012988,
          0.012987012987012988,
          0.012987012987012988,
          0.012987012987012988,
          0.012987012987012988,
          0.012987012987012988,
          0.012987012987012988,
          0.012987012987012988,
          0.012987012987012988,
          0.012987012987012988,
          0.012987012987012988,
          0.012987012987012988,
          0.012987012987012988
        ],
        "input_dim": 77,
        "estimator": "gbm",
        "learning_rate": 0.1,
        "output_dim": 1,
        "max_depth": 3
      },
      {
        "input_dim": 77,
        "intercept": [
          0.0
        ],
        "coef": [
          [
            0.0,
            0.0,
            0.0,
            0.0,
            0.0,
            0.0,
            0.0,
            0.0,
            0.0,
            0.0,
            0.0,
            0.0,
            0.0,
            0.0,
            0.0,
            0.0,
            0.0,
            0.0,
            0.0,
            0.0,
            0.0,
            0.0,
            0.0,
            0.0,
            0.0,
            0.0,
            0.0,
            0.0,
            0.0,
            0.0,
            0.0,
            0.0,
            0.0,
            0.0,
            0.0,
            0.0,
            0.0,
            0.0,
            0.0,
            0.0,
            0.0,
            0.0,
            0.0,
            0.0,
            0.0,
            0.0,
            0.0,
            0.0,
            0.0,
            0.0,
            0.0,
            0.0,
            0.0,
            0.0,
            0.0,
            0.0,
            0.0,
            0.0,
            0.0,
            0.0,
            0.0,
            0.0,
            0.0,
            0.0,
            0.0,
            0.0,
            0.0,
            0.0,
            0.0,
            0.0,
            0.0,
            0.0,
            0.0,
            0.0,
            0.0,
            0.0,
            0.0
          ]
        ],
        "estimator": "lr",
        "output_dim": 1
      },
      {
        "n_estimators": 100,
        "feature_importances": [
          0.012987012987012988,
          0.012987012987012988,
          0.012987012987012988,
          0.012987012987012988,
          0.012987012987012988,
          0.012987012987012988,
          0.012987012987012988,
          0.012987012987012988,
          0.012987012987012988,
          0.012987012987012988,
          0.012987012987012988,
          0.012987012987012988,
          0.012987012987012988,
          0.012987012987012988,
          0.012987012987012988,
          0.012987012987012988,
          0.012987012987012988,
          0.012987012987012988,
          0.012987012987012988,
          0.012987012987012988,
          0.012987012987012988,
          0.012987012987012988,
          0.012987012987012988,
          0.012987012987012988,
          0.012987012987012988,
          0.012987012987012988,
          0.012987012987012988,
          0.012987012987012988,
          0.012987012987012988,
          0.012987012987012988,
          0.012987012987012988,
          0.012987012987012988,
          0.012987012987012988,
          0.012987012987012988,
          0.012987012987012988,
          0.012987012987012988,
          0.012987012987012988,
          0.012987012987012988,
          0.012987012987012988,
          0.012987012987012988,
          0.012987012987012988,
          0.012987012987012988,
          0.012987012987012988,
          0.012987012987012988,
          0.012987012987012988,
          0.012987012987012988,
          0.012987012987012988,
          0.012987012987012988,
          0.012987012987012988,
          0.012987012987012988,
          0.012987012987012988,
          0.012987012987012988,
          0.012987012987012988,
          0.012987012987012988,
          0.012987012987012988,
          0.012987012987012988,
          0.012987012987012988,
          0.012987012987012988,
          0.012987012987012988,
          0.012987012987012988,
          0.012987012987012988,
          0.012987012987012988,
          0.012987012987012988,
          0.012987012987012988,
          0.012987012987012988,
          0.012987012987012988,
          0.012987012987012988,
          0.012987012987012988,
          0.012987012987012988,
          0.012987012987012988,
          0.012987012987012988,
          0.012987012987012988,
          0.012987012987012988,
          0.012987012987012988,
          0.012987012987012988,
          0.012987012987012988,
          0.012987012987012988
        ],
        "input_dim": 77,
        "estimator": "gbm",
        "learning_rate": 0.05,
        "output_dim": 1,
        "max_depth": 8
      },
      {
        "input_dim": 77,
        "intercept": [
          0.0
        ],
        "coef": [
          [
            -0.0036380852933659666,
            0.002773602104011239,
            -0.0032316654447708567,
            0.0026445357126225044,
            -0.00537761956338916,
            0.009379701812269268,
            -0.006083583090644398,
            -0.0014121694344093692,
            0.00023570646869927253,
            -0.001672393339663401,
            -0.003429378376176486,
            0.007307256139804781,
            -0.0033835689578291797,
            0.0011096550383452898,
            -0.008817843832940939,
            -0.008170005014365244,
            0.0012201606043956356,
            0.0033164846726502824,
            0.004257057671407761,
            -0.0007514385019741464,
            0.00626906033075606,
            0.0038064274782481106,
            0.009823924577279704,
            0.007379956969061267,
            0.0030499571842393155,
            0.006662351963059863,
            0.001570599664346533,
            0.0003504792918525568,
            0.0057449820430306555,
            0.0013402395236436647,
            -0.001646725682363244,
            0.0055879574663675186,
            -0.009453503963478384,
            -0.008058618656786858,
            -0.0013288654604951995,
            0.0013414892309437359,
            0.001841813741392693,
            0.0029843705087918416,
            0.005106589297468935,
            -0.009236601085462304,
            -0.0058783751998950405,
            -0.006297025728311514,
            -0.003524701035533164,
            0.007463722349633929,
            -0.009812407129342485,
            0.006804803918106385,
            -0.0017932299439045172,
            0.006257372352098214,
            -0.0011270587024577589,
            0.003693712606413631,
            -0.0006871215386192157,
            -0.005453151520807859,
            -0.008622035624223711,
            0.0007754143247250631,
            0.004960284319309708,
            0.002468900368149644,
            -0.006280189545465755,
            0.0019390135201021866,
            -0.00999717281975259,
            0.00950833057488358,
            0.0071622160880729134,
            -0.003520978837493551,
            -0.0043676640410047615,
            -0.008477632988456284,
            0.008498665283374377,
            0.009867411390034605,
            0.0055934397848499086,
            -0.0049107242456928255,
            8.821044090669486e-06,
            -0.008346305028225608,
            0.0028852694724998025,
            0.005919286762233704,
            -0.0014439619066398297,
            0.006760258728687173,
            -0.003830530561584669,
            0.0006286500420221389,
            -0.005564881856791437
          ]
        ],
        "estimator": "lr",
        "output_dim": 1
      },
      {
        "linear.weight": [
          [
            -0.49079081416130066,
            1.2143455743789673,
            2.5872881412506104,
            -1.2673035860061646,
            -1.2673035860061646,
            0.0,
            0.0
          ]
        ],
        "model_type": "pytorch",
        "linear.bias": [
          -3.823882818222046
        ]
      },
      {
        "n_estimators": 100,
        "feature_importances": [
          0.012987012987012988,
          0.012987012987012988,
          0.012987012987012988,
          0.012987012987012988,
          0.012987012987012988,
          0.012987012987012988,
          0.012987012987012988,
          0.012987012987012988,
          0.012987012987012988,
          0.012987012987012988,
          0.012987012987012988,
          0.012987012987012988,
          0.012987012987012988,
          0.012987012987012988,
          0.012987012987012988,
          0.012987012987012988,
          0.012987012987012988,
          0.012987012987012988,
          0.012987012987012988,
          0.012987012987012988,
          0.012987012987012988,
          0.012987012987012988,
          0.012987012987012988,
          0.012987012987012988,
          0.012987012987012988,
          0.012987012987012988,
          0.012987012987012988,
          0.012987012987012988,
          0.012987012987012988,
          0.012987012987012988,
          0.012987012987012988,
          0.012987012987012988,
          0.012987012987012988,
          0.012987012987012988,
          0.012987012987012988,
          0.012987012987012988,
          0.012987012987012988,
          0.012987012987012988,
          0.012987012987012988,
          0.012987012987012988,
          0.012987012987012988,
          0.012987012987012988,
          0.012987012987012988,
          0.012987012987012988,
          0.012987012987012988,
          0.012987012987012988,
          0.012987012987012988,
          0.012987012987012988,
          0.012987012987012988,
          0.012987012987012988,
          0.012987012987012988,
          0.012987012987012988,
          0.012987012987012988,
          0.012987012987012988,
          0.012987012987012988,
          0.012987012987012988,
          0.012987012987012988,
          0.012987012987012988,
          0.012987012987012988,
          0.012987012987012988,
          0.012987012987012988,
          0.012987012987012988,
          0.012987012987012988,
          0.012987012987012988,
          0.012987012987012988,
          0.012987012987012988,
          0.012987012987012988,
          0.012987012987012988,
          0.012987012987012988,
          0.012987012987012988,
          0.012987012987012988,
          0.012987012987012988,
          0.012987012987012988,
          0.012987012987012988,
          0.012987012987012988,
          0.012987012987012988,
          0.012987012987012988
        ],
        "input_dim": 77,
        "estimator": "rf",
        "output_dim": 1
      },
      {
        "support_vectors": [
          [
            0.09469845932144055,
            -0.07023707429489007,
            0.06199844928031903,
            0.008326708197883864,
            -0.035694761042140685,
            -0.06358527524195301,
            -0.00018365524572054592,
            0.007935051825649284,
            0.02523655543930059,
            0.09411273914673021,
            0.043151779016572966,
            0.06125973147963493,
            0.08667922360195035,
            0.04853852671651529,
            0.06811513194509769,
            0.05216654374905805,
            0.07734394169415007,
            0.07007153618570539,
            -0.01282841309574019,
            -0.08107323738874622,
            -0.016009846109821507,
            -0.019469614782306438,
            -0.02817381153503551,
            0.07174170809956332,
            -0.07881006538762643,
            0.034311815546267166,
            -0.07972319024278506,
            0.08035601450693564,
            0.009606892448621979,
            -0.08837519065805002,
            0.062415050650366566,
            -0.0423828030718815,
            0.04601300421966234,
            -0.02807380268149791,
            0.031068341375526942,
            0.07493807334084676,
            -0.07393356631159148,
            0.09316492803744233,
            0.07295736280185952,
            0.09608334744223382,
            0.09785082074931126,
            0.02189656555131274,
            -0.004604255526522258,
            0.0258071239035208,
            -0.011231114429830644,
            0.07342950062289519,
            0.07796514291994219,
            0.09303962518908465,
            -0.0014341928411669008,
            -0.08942270129649295,
            0.06749196817105471,
            0.01107607045945995,
            0.0811510857321465,
            -0.03625613056036672,
            0.08992163334858866,
            -0.05247246253836222,
            0.07444564625284208,
            -0.0862312364630107,
            0.05994264185092077,
            -0.029263544597026278,
            0.06457532321450746,
            -0.04207647258178742,
            0.03956436675769584,
            0.09435929954167269,
            0.06623028235315173,
            -0.09214960273246449,
            0.027347704182715232,
            0.06466098255939226,
            0.040168378012535866,
            0.09028659927221935,
            -0.0781752544944676,
            0.09423467921081591,
            0.019402051185919172,
            -0.08551785649976545,
            -0.023124906475091203,
            -0.05460064378679322,
            -0.09858165504480032
          ],
          [
            -0.0032733625021307555,
            -0.07747743259220591,
            -0.0108543844122162,
            -0.04951723388716529,
            -0.05881770558899846,
            -0.05738616077378642,
            -0.061403598107691804,
            -0.07553673843552107,
            -0.09104916676146245,
            0.0034173365834612446,
            -0.04284215135531044,
            0.02207339831522251,
            -0.06094851182488475,
            -0.08741908199667126,
            -0.022509317142463,
            0.07838461940026564,
            -0.004533744645985854,
            -0.09349364715330875,
            0.04166789845869445,
            0.03178695617800753,
            0.008777123982880414,
            -0.08157113905695948,
            -0.05288316724704019,
            0.07467794490182653,
            -0.04405514681760733,
            -0.027027928173757904,
            0.03271500985532183,
            -0.09591904051214861,
            -0.00934283971461633,
            0.002568433130668707,
            0.08933243741281613,
            0.052111375385618414,
            0.008644036736045718,
            0.014203936735052575,
            -0.09714027184982539,
            -0.09566062351996849,
            0.031376773591696244,
            0.07363127873116579,
            -0.06614747681622998,
            0.02363005596610883,
            -0.058462227880998,
            -0.08252491008380594,
            -0.0035530657831979867,
            -0.0033712546685589623,
            -0.05209288323846065,
            0.09188305656784149,
            0.00523464840580716,
            0.030412746177699124,
            0.03041772412118407,
            0.07532303191426556,
            -0.014623214094378098,
            -0.09590190894029385,
            -0.09933747528604298,
            0.08810093960663587,
            -0.0876292549779632,
            0.03842676887107016,
            0.06607819419164615,
            -0.05896997569099745,
            -0.020184253756585863,
            0.04788966545064868,
            0.037892975466963685,
            -0.00539616838663684,
            -0.05034964045245641,
            -0.06664668672997551,
            0.09714065881455744,
            -0.04009432995612288,
            -0.006612129307400599,
            -0.0013148779833053459,
            0.06573687446465462,
            -0.08345849987957506,
            0.04937846167892704,
            0.07460016604564448,
            -0.05464119996362016,
            0.08435111206165608,
            -0.027051781333600755,
            0.04964601454412948,
            0.07034398344335463
          ]
        ],
        "input_dim": 77,
        "intercept": [
          -0.1
        ],
        "dual_coef": [
          [
            0.1,
            -0.1
          ]
        ],
        "estimator": "svc",
        "output_dim": 1
      },
      {
        "n_estimators": 100,
        "feature_importances": [
          0.01298701298701299,
          0.01298701298701299,
          0.01298701298701299,
          0.01298701298701299,
          0.01298701298701299,
          0.01298701298701299,
          0.01298701298701299,
          0.01298701298701299,
          0.01298701298701299,
          0.01298701298701299,
          0.01298701298701299,
          0.01298701298701299,
          0.01298701298701299,
          0.01298701298701299,
          0.01298701298701299,
          0.01298701298701299,
          0.01298701298701299,
          0.01298701298701299,
          0.01298701298701299,
          0.01298701298701299,
          0.01298701298701299,
          0.01298701298701299,
          0.01298701298701299,
          0.01298701298701299,
          0.01298701298701299,
          0.01298701298701299,
          0.01298701298701299,
          0.01298701298701299,
          0.01298701298701299,
          0.01298701298701299,
          0.01298701298701299,
          0.01298701298701299,
          0.01298701298701299,
          0.01298701298701299,
          0.01298701298701299,
          0.01298701298701299,
          0.01298701298701299,
          0.01298701298701299,
          0.01298701298701299,
          0.01298701298701299,
          0.01298701298701299,
          0.01298701298701299,
          0.01298701298701299,
          0.01298701298701299,
          0.01298701298701299,
          0.01298701298701299,
          0.01298701298701299,
          0.01298701298701299,
          0.01298701298701299,
          0.01298701298701299,
          0.01298701298701299,
          0.01298701298701299,
          0.01298701298701299,
          0.01298701298701299,
          0.01298701298701299,
          0.01298701298701299,
          0.01298701298701299,
          0.01298701298701299,
          0.01298701298701299,
          0.01298701298701299,
          0.01298701298701299,
          0.01298701298701299,
          0.01298701298701299,
          0.01298701298701299,
          0.01298701298701299,
          0.01298701298701299,
          0.01298701298701299,
          0.01298701298701299,
          0.01298701298701299,
          0.01298701298701299,
          0.01298701298701299,
          0.01298701298701299,
          0.01298701298701299,
          0.01298701298701299,
          0.01298701298701299,
          0.01298701298701299,
          0.01298701298701299
        ],
        "input_dim": 77,
        "estimator": "gbm",
        "learning_rate": 0.10000000000000002,
        "output_dim": 1,
        "max_depth": 6
      }
    ]
  },
  "info": {
    "round": 2,
    "timestamp": "2025-05-14T03:10:21.204572+00:00",
    "version": "1.0.0514-2147.2",
    "version_data": {
      "version": "1.0.0514-2147.2",
      "base_version": "1.0",
      "session_id": 1747192147,
      "session_tag": "0514-2147",
      "round": 2,
      "timestamp": "2025-05-14T03:10:21.204547+00:00"
    },
    "is_ensemble": true,
    "task_type": "fraud_detection",
    "num_models": 8,
    "model_names": [
      "catboost",
      "knn",
      "lgbm",
      "lr",
      "meta_lr",
      "rf",
      "svc",
      "xgb"
    ]
  }
}