{
  "ensemble_state": {
    "weights": [
      0.13068944482233139,
      0.018789110585977348,
      0.0053389969501711895,
      0.022120881840409057,
      0.5932835528403146,
      0.19648370815951696,
      0.007795451040615747,
      0.02549885376066363
    ],
    "model_names": [
      "catboost",
      "knn",
      "lgbm",
      "lr",
      "meta_lr",
      "rf",
      "svc",
      "xgb"
    ],
    "model_state_dicts": [
      {
        "output_dim": 1,
        "n_estimators": 10,
        "max_depth": 3,
        "estimator": "gbm",
        "learning_rate": 0.1,
        "feature_importances": [
          0.012987012987012988,
          0.012987012987012988,
          0.012987012987012988,
          0.012987012987012988,
          0.012987012987012988,
          0.012987012987012988,
          0.012987012987012988,
          0.012987012987012988,
          0.012987012987012988,
          0.012987012987012988,
          0.012987012987012988,
          0.012987012987012988,
          0.012987012987012988,
          0.012987012987012988,
          0.012987012987012988,
          0.012987012987012988,
          0.012987012987012988,
          0.012987012987012988,
          0.012987012987012988,
          0.012987012987012988,
          0.012987012987012988,
          0.012987012987012988,
          0.012987012987012988,
          0.012987012987012988,
          0.012987012987012988,
          0.012987012987012988,
          0.012987012987012988,
          0.012987012987012988,
          0.012987012987012988,
          0.012987012987012988,
          0.012987012987012988,
          0.012987012987012988,
          0.012987012987012988,
          0.012987012987012988,
          0.012987012987012988,
          0.012987012987012988,
          0.012987012987012988,
          0.012987012987012988,
          0.012987012987012988,
          0.012987012987012988,
          0.012987012987012988,
          0.012987012987012988,
          0.012987012987012988,
          0.012987012987012988,
          0.012987012987012988,
          0.012987012987012988,
          0.012987012987012988,
          0.012987012987012988,
          0.012987012987012988,
          0.012987012987012988,
          0.012987012987012988,
          0.012987012987012988,
          0.012987012987012988,
          0.012987012987012988,
          0.012987012987012988,
          0.012987012987012988,
          0.012987012987012988,
          0.012987012987012988,
          0.012987012987012988,
          0.012987012987012988,
          0.012987012987012988,
          0.012987012987012988,
          0.012987012987012988,
          0.012987012987012988,
          0.012987012987012988,
          0.012987012987012988,
          0.012987012987012988,
          0.012987012987012988,
          0.012987012987012988,
          0.012987012987012988,
          0.012987012987012988,
          0.012987012987012988,
          0.012987012987012988,
          0.012987012987012988,
          0.012987012987012988,
          0.012987012987012988,
          0.012987012987012988
        ],
        "input_dim": 77
      },
      {
        "output_dim": 1,
        "estimator": "lr",
        "input_dim": 77,
        "intercept": [
          0.0
        ],
        "coef": [
          [
            0.0,
            0.0,
            0.0,
            0.0,
            0.0,
            0.0,
            0.0,
            0.0,
            0.0,
            0.0,
            0.0,
            0.0,
            0.0,
            0.0,
            0.0,
            0.0,
            0.0,
            0.0,
            0.0,
            0.0,
            0.0,
            0.0,
            0.0,
            0.0,
            0.0,
            0.0,
            0.0,
            0.0,
            0.0,
            0.0,
            0.0,
            0.0,
            0.0,
            0.0,
            0.0,
            0.0,
            0.0,
            0.0,
            0.0,
            0.0,
            0.0,
            0.0,
            0.0,
            0.0,
            0.0,
            0.0,
            0.0,
            0.0,
            0.0,
            0.0,
            0.0,
            0.0,
            0.0,
            0.0,
            0.0,
            0.0,
            0.0,
            0.0,
            0.0,
            0.0,
            0.0,
            0.0,
            0.0,
            0.0,
            0.0,
            0.0,
            0.0,
            0.0,
            0.0,
            0.0,
            0.0,
            0.0,
            0.0,
            0.0,
            0.0,
            0.0,
            0.0
          ]
        ]
      },
      {
        "output_dim": 1,
        "n_estimators": 100,
        "max_depth": 8,
        "estimator": "gbm",
        "learning_rate": 0.05,
        "feature_importances": [
          0.012987012987012988,
          0.012987012987012988,
          0.012987012987012988,
          0.012987012987012988,
          0.012987012987012988,
          0.012987012987012988,
          0.012987012987012988,
          0.012987012987012988,
          0.012987012987012988,
          0.012987012987012988,
          0.012987012987012988,
          0.012987012987012988,
          0.012987012987012988,
          0.012987012987012988,
          0.012987012987012988,
          0.012987012987012988,
          0.012987012987012988,
          0.012987012987012988,
          0.012987012987012988,
          0.012987012987012988,
          0.012987012987012988,
          0.012987012987012988,
          0.012987012987012988,
          0.012987012987012988,
          0.012987012987012988,
          0.012987012987012988,
          0.012987012987012988,
          0.012987012987012988,
          0.012987012987012988,
          0.012987012987012988,
          0.012987012987012988,
          0.012987012987012988,
          0.012987012987012988,
          0.012987012987012988,
          0.012987012987012988,
          0.012987012987012988,
          0.012987012987012988,
          0.012987012987012988,
          0.012987012987012988,
          0.012987012987012988,
          0.012987012987012988,
          0.012987012987012988,
          0.012987012987012988,
          0.012987012987012988,
          0.012987012987012988,
          0.012987012987012988,
          0.012987012987012988,
          0.012987012987012988,
          0.012987012987012988,
          0.012987012987012988,
          0.012987012987012988,
          0.012987012987012988,
          0.012987012987012988,
          0.012987012987012988,
          0.012987012987012988,
          0.012987012987012988,
          0.012987012987012988,
          0.012987012987012988,
          0.012987012987012988,
          0.012987012987012988,
          0.012987012987012988,
          0.012987012987012988,
          0.012987012987012988,
          0.012987012987012988,
          0.012987012987012988,
          0.012987012987012988,
          0.012987012987012988,
          0.012987012987012988,
          0.012987012987012988,
          0.012987012987012988,
          0.012987012987012988,
          0.012987012987012988,
          0.012987012987012988,
          0.012987012987012988,
          0.012987012987012988,
          0.012987012987012988,
          0.012987012987012988
        ],
        "input_dim": 77
      },
      {
        "output_dim": 1,
        "estimator": "lr",
        "input_dim": 77,
        "intercept": [
          0.0
        ],
        "coef": [
          [
            -0.00607908208024512,
            -0.0072138405977306835,
            0.00970243798878771,
            0.008972662208643593,
            0.009216804823278845,
            0.0041711811169926356,
            0.0009791913664640318,
            -0.005056017037076604,
            -0.0037697336146059975,
            -0.002418758236149779,
            -0.00017633775817709613,
            0.009407506685860162,
            -0.005887118302705331,
            -0.008019665944283796,
            0.0011059106806424366,
            0.008900026607651055,
            -0.00984304230036063,
            -0.005221753077043305,
            -0.008528793998325781,
            0.007756683595145605,
            -0.008437544454321202,
            -0.003192313703634613,
            -0.0014953714224699242,
            -0.004483514895535378,
            0.0014264525741893505,
            -0.0006320259560799492,
            -0.00805197813920334,
            0.004081986931281714,
            0.008646040156814843,
            -0.007219550951708814,
            0.007999493143005435,
            -0.00499610773960228,
            0.008815969584063168,
            0.009910216594408506,
            0.009967515042655445,
            0.002094364779835633,
            -0.005439073126201682,
            0.007717950542187718,
            0.001864975688569243,
            0.004984585822159628,
            -0.008907047689187663,
            -0.0024325520974440478,
            -0.005561033252376325,
            -0.008251051152318493,
            -0.0010811956092750786,
            0.00014978070950669858,
            0.006283161541287443,
            -0.008565072004255464,
            0.00024340685699231378,
            0.007206080027178751,
            -0.00037150483670519296,
            -0.003067694369202274,
            0.004753172598868458,
            -0.004625839903952212,
            0.00580924914985436,
            -0.002360056957723407,
            0.007630081959849414,
            -0.0028423479176744354,
            -0.006390650090849695,
            0.008261579800035284,
            0.008978474419019859,
            0.004882848407017986,
            0.005321503099804141,
            0.00944099417824168,
            0.004689943911103295,
            -0.0008254114882523828,
            -0.009660478084072594,
            0.007115068693389746,
            -0.009956729207225744,
            0.007773482258157507,
            0.007658770171042022,
            0.005699281575379153,
            -0.00985119935952957,
            -0.000982539991908742,
            -0.0030973470545546983,
            0.009666411025287865,
            0.0036806068733150955
          ]
        ]
      },
      {
        "linear.weight": [
          [
            -1.7151330709457397,
            0.9468580484390259,
            3.2740824222564697,
            -1.1472995281219482,
            -1.1472995281219482,
            0.0,
            0.0
          ]
        ],
        "linear.bias": [
          -3.92549204826355
        ],
        "model_type": "pytorch"
      },
      {
        "output_dim": 1,
        "n_estimators": 100,
        "estimator": "rf",
        "feature_importances": [
          0.012987012987012988,
          0.012987012987012988,
          0.012987012987012988,
          0.012987012987012988,
          0.012987012987012988,
          0.012987012987012988,
          0.012987012987012988,
          0.012987012987012988,
          0.012987012987012988,
          0.012987012987012988,
          0.012987012987012988,
          0.012987012987012988,
          0.012987012987012988,
          0.012987012987012988,
          0.012987012987012988,
          0.012987012987012988,
          0.012987012987012988,
          0.012987012987012988,
          0.012987012987012988,
          0.012987012987012988,
          0.012987012987012988,
          0.012987012987012988,
          0.012987012987012988,
          0.012987012987012988,
          0.012987012987012988,
          0.012987012987012988,
          0.012987012987012988,
          0.012987012987012988,
          0.012987012987012988,
          0.012987012987012988,
          0.012987012987012988,
          0.012987012987012988,
          0.012987012987012988,
          0.012987012987012988,
          0.012987012987012988,
          0.012987012987012988,
          0.012987012987012988,
          0.012987012987012988,
          0.012987012987012988,
          0.012987012987012988,
          0.012987012987012988,
          0.012987012987012988,
          0.012987012987012988,
          0.012987012987012988,
          0.012987012987012988,
          0.012987012987012988,
          0.012987012987012988,
          0.012987012987012988,
          0.012987012987012988,
          0.012987012987012988,
          0.012987012987012988,
          0.012987012987012988,
          0.012987012987012988,
          0.012987012987012988,
          0.012987012987012988,
          0.012987012987012988,
          0.012987012987012988,
          0.012987012987012988,
          0.012987012987012988,
          0.012987012987012988,
          0.012987012987012988,
          0.012987012987012988,
          0.012987012987012988,
          0.012987012987012988,
          0.012987012987012988,
          0.012987012987012988,
          0.012987012987012988,
          0.012987012987012988,
          0.012987012987012988,
          0.012987012987012988,
          0.012987012987012988,
          0.012987012987012988,
          0.012987012987012988,
          0.012987012987012988,
          0.012987012987012988,
          0.012987012987012988,
          0.012987012987012988
        ],
        "input_dim": 77
      },
      {
        "output_dim": 1,
        "dual_coef": [
          [
            0.1,
            -0.1
          ]
        ],
        "estimator": "svc",
        "input_dim": 77,
        "support_vectors": [
          [
            -0.08811625372310156,
            -0.08068631310048091,
            -0.009569561261172949,
            -0.011816895859841178,
            0.03658213072497557,
            0.04950355601446396,
            0.0721862517519031,
            -0.006035100812677399,
            0.006472141509999502,
            -0.08797956114365686,
            -0.06556880606237366,
            0.0026061293733266044,
            0.06864360785227042,
            0.016012973424554516,
            0.08512012800281091,
            -0.0638893305652406,
            0.03748802226060416,
            0.08134287295956341,
            -0.045659425692031456,
            -0.07409542515359724,
            0.004397139774613118,
            -0.06288601881441387,
            0.07138801228893357,
            0.0534378046266851,
            -0.08976448988765039,
            0.07460214381953983,
            -0.09650560549999299,
            0.05739964823242549,
            0.051739781256177675,
            0.008536017790654493,
            0.06913640288118164,
            -0.08754004921674544,
            -0.005133565230021148,
            0.06924629863105747,
            0.04255383660218823,
            0.043421610633172764,
            0.0913067188231437,
            -0.011640517875695006,
            -0.02691647792450018,
            0.08911474270913766,
            -0.0657903074424504,
            0.09094511841786826,
            0.006743263701001603,
            -0.04343104092831201,
            0.08871522303571075,
            0.008692165930932139,
            0.04148083914029571,
            -0.02067801392175772,
            0.09719196832026733,
            0.054959402830946746,
            -0.034884676093891565,
            0.09817191277708254,
            -0.03357828211182799,
            -0.09285642951310709,
            0.08896275548303575,
            0.005057705728967882,
            -0.04809665753885233,
            -0.009662332195576398,
            -0.026798937707189982,
            0.04739144458149583,
            -0.09714995691344928,
            -0.05291498971372193,
            -0.09655259992558791,
            0.04444776099218578,
            0.09416021829826002,
            -0.07842605823184512,
            0.09169382403938206,
            -0.026133245706335115,
            -0.053741369892709216,
            0.07155611420977148,
            -0.019120252208000843,
            0.007785591646089857,
            -0.06164965620251528,
            -0.07932127921274168,
            0.06855400995814095,
            -0.005500128786644784,
            0.08746779684318556
          ],
          [
            0.06379295295099408,
            -0.04431551498082405,
            0.0333330963065302,
            -0.052075871849618864,
            -0.010279431542290912,
            0.06035484633144067,
            -0.04431105350152973,
            -0.07674850000627471,
            -0.05272498949501168,
            0.03759983293378327,
            -0.042905190684047634,
            0.02253163870781731,
            -0.0031813278672761652,
            0.06176724937485853,
            0.06607235568138575,
            0.06736823016005744,
            -0.005112237552508156,
            -0.06119933549262422,
            0.04545713279800859,
            0.009129107075294046,
            0.03794034130177537,
            0.04086163688304428,
            0.06814682691055826,
            -0.035232950522185516,
            0.06655937845833895,
            0.07931650607592408,
            -0.009644267306178803,
            -0.0828377172617219,
            0.08398565855031809,
            -0.05907260313829732,
            -0.06391552811389356,
            -0.0006837427166102722,
            0.09943461049984162,
            0.04975953842990993,
            -0.05931146639852234,
            -0.09557301486578801,
            0.038487995999044594,
            -0.036833940880041424,
            -0.08776283058910161,
            -0.03558445748833326,
            -0.05321991172256468,
            -0.0856014794318984,
            -0.00661859236386908,
            -0.01446454404607242,
            -0.05434559819087681,
            0.0942299528809078,
            0.08734059380358253,
            0.038802293160000695,
            0.03469475063472863,
            -0.044173619930299605,
            -0.01021072489077482,
            0.07374344945050615,
            -0.08753183718259253,
            0.07206046424955742,
            -0.016892841863121566,
            -0.012733734122012702,
            -0.019988978084211073,
            0.03294192943784799,
            0.03922025535167231,
            -0.00026994191142921953,
            -0.049669727143045364,
            0.05389000378322581,
            0.07510036351277632,
            -0.09457825259069369,
            0.05208476070652332,
            0.00335644352016147,
            0.030127879682940062,
            -0.010908364332765472,
            0.06244840047554487,
            0.09537105919139657,
            0.043832458457530726,
            -0.07625090185332058,
            -0.036801593783370404,
            -0.03207386895892177,
            0.08918706746007829,
            -0.05714987071058453,
            -0.04982514282558248
          ]
        ],
        "intercept": [
          -0.1
        ]
      },
      {
        "output_dim": 1,
        "n_estimators": 100,
        "max_depth": 6,
        "estimator": "gbm",
        "learning_rate": 0.1,
        "feature_importances": [
          0.012987012987012988,
          0.012987012987012988,
          0.012987012987012988,
          0.012987012987012988,
          0.012987012987012988,
          0.012987012987012988,
          0.012987012987012988,
          0.012987012987012988,
          0.012987012987012988,
          0.012987012987012988,
          0.012987012987012988,
          0.012987012987012988,
          0.012987012987012988,
          0.012987012987012988,
          0.012987012987012988,
          0.012987012987012988,
          0.012987012987012988,
          0.012987012987012988,
          0.012987012987012988,
          0.012987012987012988,
          0.012987012987012988,
          0.012987012987012988,
          0.012987012987012988,
          0.012987012987012988,
          0.012987012987012988,
          0.012987012987012988,
          0.012987012987012988,
          0.012987012987012988,
          0.012987012987012988,
          0.012987012987012988,
          0.012987012987012988,
          0.012987012987012988,
          0.012987012987012988,
          0.012987012987012988,
          0.012987012987012988,
          0.012987012987012988,
          0.012987012987012988,
          0.012987012987012988,
          0.012987012987012988,
          0.012987012987012988,
          0.012987012987012988,
          0.012987012987012988,
          0.012987012987012988,
          0.012987012987012988,
          0.012987012987012988,
          0.012987012987012988,
          0.012987012987012988,
          0.012987012987012988,
          0.012987012987012988,
          0.012987012987012988,
          0.012987012987012988,
          0.012987012987012988,
          0.012987012987012988,
          0.012987012987012988,
          0.012987012987012988,
          0.012987012987012988,
          0.012987012987012988,
          0.012987012987012988,
          0.012987012987012988,
          0.012987012987012988,
          0.012987012987012988,
          0.012987012987012988,
          0.012987012987012988,
          0.012987012987012988,
          0.012987012987012988,
          0.012987012987012988,
          0.012987012987012988,
          0.012987012987012988,
          0.012987012987012988,
          0.012987012987012988,
          0.012987012987012988,
          0.012987012987012988,
          0.012987012987012988,
          0.012987012987012988,
          0.012987012987012988,
          0.012987012987012988,
          0.012987012987012988
        ],
        "input_dim": 77
      }
    ]
  },
  "info": {
    "round": 2,
    "timestamp": "2025-05-14T04:53:53.749970+00:00",
    "version": "1.0.0514-8375.2",
    "version_data": {
      "version": "1.0.0514-8375.2",
      "base_version": "1.0",
      "session_id": 1747198375,
      "session_tag": "0514-8375",
      "round": 2,
      "timestamp": "2025-05-14T04:53:53.749960+00:00"
    },
    "is_ensemble": true,
    "task_type": "fraud_detection",
    "num_models": 8,
    "model_names": [
      "catboost",
      "knn",
      "lgbm",
      "lr",
      "meta_lr",
      "rf",
      "svc",
      "xgb"
    ]
  }
}