{
  "ensemble_state": {
    "weights": [
      0.29016576177487113,
      0.1159274197100173,
      0.09686475671992784,
      0.011645717434300354,
      0.18379453552395547,
      0.2508612326018733,
      0.047971388964714694,
      0.002769187270339929
    ],
    "model_names": [
      "catboost",
      "knn",
      "lgbm",
      "lr",
      "meta_lr",
      "rf",
      "svc",
      "xgb"
    ],
    "model_state_dicts": [
      {
        "output_dim": 1,
        "n_estimators": 10,
        "max_depth": 3,
        "estimator": "gbm",
        "learning_rate": 0.1,
        "feature_importances": [
          0.012987012987012988,
          0.012987012987012988,
          0.012987012987012988,
          0.012987012987012988,
          0.012987012987012988,
          0.012987012987012988,
          0.012987012987012988,
          0.012987012987012988,
          0.012987012987012988,
          0.012987012987012988,
          0.012987012987012988,
          0.012987012987012988,
          0.012987012987012988,
          0.012987012987012988,
          0.012987012987012988,
          0.012987012987012988,
          0.012987012987012988,
          0.012987012987012988,
          0.012987012987012988,
          0.012987012987012988,
          0.012987012987012988,
          0.012987012987012988,
          0.012987012987012988,
          0.012987012987012988,
          0.012987012987012988,
          0.012987012987012988,
          0.012987012987012988,
          0.012987012987012988,
          0.012987012987012988,
          0.012987012987012988,
          0.012987012987012988,
          0.012987012987012988,
          0.012987012987012988,
          0.012987012987012988,
          0.012987012987012988,
          0.012987012987012988,
          0.012987012987012988,
          0.012987012987012988,
          0.012987012987012988,
          0.012987012987012988,
          0.012987012987012988,
          0.012987012987012988,
          0.012987012987012988,
          0.012987012987012988,
          0.012987012987012988,
          0.012987012987012988,
          0.012987012987012988,
          0.012987012987012988,
          0.012987012987012988,
          0.012987012987012988,
          0.012987012987012988,
          0.012987012987012988,
          0.012987012987012988,
          0.012987012987012988,
          0.012987012987012988,
          0.012987012987012988,
          0.012987012987012988,
          0.012987012987012988,
          0.012987012987012988,
          0.012987012987012988,
          0.012987012987012988,
          0.012987012987012988,
          0.012987012987012988,
          0.012987012987012988,
          0.012987012987012988,
          0.012987012987012988,
          0.012987012987012988,
          0.012987012987012988,
          0.012987012987012988,
          0.012987012987012988,
          0.012987012987012988,
          0.012987012987012988,
          0.012987012987012988,
          0.012987012987012988,
          0.012987012987012988,
          0.012987012987012988,
          0.012987012987012988
        ],
        "input_dim": 77
      },
      {
        "output_dim": 1,
        "estimator": "lr",
        "input_dim": 77,
        "intercept": [
          0.0
        ],
        "coef": [
          [
            0.0,
            0.0,
            0.0,
            0.0,
            0.0,
            0.0,
            0.0,
            0.0,
            0.0,
            0.0,
            0.0,
            0.0,
            0.0,
            0.0,
            0.0,
            0.0,
            0.0,
            0.0,
            0.0,
            0.0,
            0.0,
            0.0,
            0.0,
            0.0,
            0.0,
            0.0,
            0.0,
            0.0,
            0.0,
            0.0,
            0.0,
            0.0,
            0.0,
            0.0,
            0.0,
            0.0,
            0.0,
            0.0,
            0.0,
            0.0,
            0.0,
            0.0,
            0.0,
            0.0,
            0.0,
            0.0,
            0.0,
            0.0,
            0.0,
            0.0,
            0.0,
            0.0,
            0.0,
            0.0,
            0.0,
            0.0,
            0.0,
            0.0,
            0.0,
            0.0,
            0.0,
            0.0,
            0.0,
            0.0,
            0.0,
            0.0,
            0.0,
            0.0,
            0.0,
            0.0,
            0.0,
            0.0,
            0.0,
            0.0,
            0.0,
            0.0,
            0.0
          ]
        ]
      },
      {
        "output_dim": 1,
        "n_estimators": 100,
        "max_depth": 8,
        "estimator": "gbm",
        "learning_rate": 0.05000000000000001,
        "feature_importances": [
          0.01298701298701299,
          0.01298701298701299,
          0.01298701298701299,
          0.01298701298701299,
          0.01298701298701299,
          0.01298701298701299,
          0.01298701298701299,
          0.01298701298701299,
          0.01298701298701299,
          0.01298701298701299,
          0.01298701298701299,
          0.01298701298701299,
          0.01298701298701299,
          0.01298701298701299,
          0.01298701298701299,
          0.01298701298701299,
          0.01298701298701299,
          0.01298701298701299,
          0.01298701298701299,
          0.01298701298701299,
          0.01298701298701299,
          0.01298701298701299,
          0.01298701298701299,
          0.01298701298701299,
          0.01298701298701299,
          0.01298701298701299,
          0.01298701298701299,
          0.01298701298701299,
          0.01298701298701299,
          0.01298701298701299,
          0.01298701298701299,
          0.01298701298701299,
          0.01298701298701299,
          0.01298701298701299,
          0.01298701298701299,
          0.01298701298701299,
          0.01298701298701299,
          0.01298701298701299,
          0.01298701298701299,
          0.01298701298701299,
          0.01298701298701299,
          0.01298701298701299,
          0.01298701298701299,
          0.01298701298701299,
          0.01298701298701299,
          0.01298701298701299,
          0.01298701298701299,
          0.01298701298701299,
          0.01298701298701299,
          0.01298701298701299,
          0.01298701298701299,
          0.01298701298701299,
          0.01298701298701299,
          0.01298701298701299,
          0.01298701298701299,
          0.01298701298701299,
          0.01298701298701299,
          0.01298701298701299,
          0.01298701298701299,
          0.01298701298701299,
          0.01298701298701299,
          0.01298701298701299,
          0.01298701298701299,
          0.01298701298701299,
          0.01298701298701299,
          0.01298701298701299,
          0.01298701298701299,
          0.01298701298701299,
          0.01298701298701299,
          0.01298701298701299,
          0.01298701298701299,
          0.01298701298701299,
          0.01298701298701299,
          0.01298701298701299,
          0.01298701298701299,
          0.01298701298701299,
          0.01298701298701299
        ],
        "input_dim": 77
      },
      {
        "output_dim": 1,
        "estimator": "lr",
        "input_dim": 77,
        "intercept": [
          0.0
        ],
        "coef": [
          [
            -0.006079082080245121,
            -0.0072138405977306835,
            0.00970243798878771,
            0.008972662208643595,
            0.009216804823278846,
            0.004171181116992636,
            0.0009791913664640318,
            -0.005056017037076604,
            -0.003769733614605997,
            -0.0024187582361497786,
            -0.00017633775817709613,
            0.009407506685860162,
            -0.00588711830270533,
            -0.008019665944283797,
            0.0011059106806424364,
            0.008900026607651055,
            -0.009843042300360632,
            -0.005221753077043305,
            -0.00852879399832578,
            0.007756683595145606,
            -0.008437544454321202,
            -0.003192313703634613,
            -0.0014953714224699242,
            -0.004483514895535377,
            0.0014264525741893507,
            -0.0006320259560799492,
            -0.00805197813920334,
            0.004081986931281714,
            0.008646040156814841,
            -0.007219550951708813,
            0.007999493143005435,
            -0.00499610773960228,
            0.00881596958406317,
            0.009910216594408506,
            0.009967515042655443,
            0.002094364779835633,
            -0.005439073126201681,
            0.007717950542187718,
            0.001864975688569243,
            0.004984585822159628,
            -0.008907047689187661,
            -0.0024325520974440478,
            -0.005561033252376324,
            -0.008251051152318493,
            -0.0010811956092750786,
            0.00014978070950669858,
            0.0062831615412874435,
            -0.008565072004255464,
            0.00024340685699231375,
            0.007206080027178751,
            -0.0003715048367051929,
            -0.003067694369202274,
            0.004753172598868459,
            -0.004625839903952211,
            0.00580924914985436,
            -0.002360056957723407,
            0.007630081959849415,
            -0.002842347917674435,
            -0.006390650090849694,
            0.008261579800035284,
            0.00897847441901986,
            0.0048828484070179866,
            0.0053215030998041415,
            0.009440994178241678,
            0.004689943911103294,
            -0.0008254114882523828,
            -0.009660478084072594,
            0.007115068693389745,
            -0.009956729207225744,
            0.007773482258157506,
            0.007658770171042021,
            0.005699281575379154,
            -0.00985119935952957,
            -0.000982539991908742,
            -0.0030973470545546983,
            0.009666411025287864,
            0.0036806068733150955
          ]
        ]
      },
      {
        "linear.weight": [
          [
            -1.7151330709457397,
            0.9468580484390259,
            3.2740824222564697,
            -1.1472995281219485,
            -1.1472995281219485,
            0.0,
            0.0
          ]
        ],
        "linear.bias": [
          -3.92549204826355
        ],
        "model_type": "pytorch"
      },
      {
        "output_dim": 1,
        "n_estimators": 100,
        "estimator": "rf",
        "feature_importances": [
          0.012987012987012988,
          0.012987012987012988,
          0.012987012987012988,
          0.012987012987012988,
          0.012987012987012988,
          0.012987012987012988,
          0.012987012987012988,
          0.012987012987012988,
          0.012987012987012988,
          0.012987012987012988,
          0.012987012987012988,
          0.012987012987012988,
          0.012987012987012988,
          0.012987012987012988,
          0.012987012987012988,
          0.012987012987012988,
          0.012987012987012988,
          0.012987012987012988,
          0.012987012987012988,
          0.012987012987012988,
          0.012987012987012988,
          0.012987012987012988,
          0.012987012987012988,
          0.012987012987012988,
          0.012987012987012988,
          0.012987012987012988,
          0.012987012987012988,
          0.012987012987012988,
          0.012987012987012988,
          0.012987012987012988,
          0.012987012987012988,
          0.012987012987012988,
          0.012987012987012988,
          0.012987012987012988,
          0.012987012987012988,
          0.012987012987012988,
          0.012987012987012988,
          0.012987012987012988,
          0.012987012987012988,
          0.012987012987012988,
          0.012987012987012988,
          0.012987012987012988,
          0.012987012987012988,
          0.012987012987012988,
          0.012987012987012988,
          0.012987012987012988,
          0.012987012987012988,
          0.012987012987012988,
          0.012987012987012988,
          0.012987012987012988,
          0.012987012987012988,
          0.012987012987012988,
          0.012987012987012988,
          0.012987012987012988,
          0.012987012987012988,
          0.012987012987012988,
          0.012987012987012988,
          0.012987012987012988,
          0.012987012987012988,
          0.012987012987012988,
          0.012987012987012988,
          0.012987012987012988,
          0.012987012987012988,
          0.012987012987012988,
          0.012987012987012988,
          0.012987012987012988,
          0.012987012987012988,
          0.012987012987012988,
          0.012987012987012988,
          0.012987012987012988,
          0.012987012987012988,
          0.012987012987012988,
          0.012987012987012988,
          0.012987012987012988,
          0.012987012987012988,
          0.012987012987012988,
          0.012987012987012988
        ],
        "input_dim": 77
      },
      {
        "output_dim": 1,
        "dual_coef": [
          [
            0.10000000000000002,
            -0.10000000000000002
          ]
        ],
        "estimator": "svc",
        "input_dim": 77,
        "support_vectors": [
          [
            -0.08811625372310157,
            -0.08068631310048091,
            -0.009569561261172949,
            -0.01181689585984118,
            0.03658213072497557,
            0.04950355601446396,
            0.0721862517519031,
            -0.0060351008126774,
            0.006472141509999502,
            -0.08797956114365688,
            -0.06556880606237366,
            0.002606129373326605,
            0.06864360785227042,
            0.016012973424554516,
            0.08512012800281091,
            -0.0638893305652406,
            0.03748802226060416,
            0.08134287295956341,
            -0.045659425692031456,
            -0.07409542515359724,
            0.004397139774613118,
            -0.06288601881441387,
            0.07138801228893357,
            0.053437804626685105,
            -0.08976448988765039,
            0.07460214381953983,
            -0.09650560549999299,
            0.05739964823242549,
            0.05173978125617768,
            0.008536017790654493,
            0.06913640288118164,
            -0.08754004921674544,
            -0.0051335652300211485,
            0.06924629863105747,
            0.04255383660218823,
            0.043421610633172764,
            0.09130671882314371,
            -0.011640517875695007,
            -0.026916477924500182,
            0.08911474270913768,
            -0.0657903074424504,
            0.09094511841786826,
            0.006743263701001603,
            -0.043431040928312015,
            0.08871522303571075,
            0.008692165930932139,
            0.04148083914029571,
            -0.02067801392175772,
            0.09719196832026734,
            0.054959402830946746,
            -0.034884676093891565,
            0.09817191277708255,
            -0.03357828211182799,
            -0.09285642951310709,
            0.08896275548303575,
            0.005057705728967883,
            -0.04809665753885233,
            -0.009662332195576398,
            -0.026798937707189982,
            0.04739144458149583,
            -0.09714995691344928,
            -0.05291498971372193,
            -0.09655259992558791,
            0.04444776099218579,
            0.09416021829826002,
            -0.07842605823184512,
            0.09169382403938206,
            -0.026133245706335118,
            -0.053741369892709216,
            0.07155611420977148,
            -0.019120252208000846,
            0.0077855916460898575,
            -0.06164965620251528,
            -0.07932127921274168,
            0.06855400995814095,
            -0.005500128786644785,
            0.08746779684318558
          ],
          [
            0.06379295295099408,
            -0.04431551498082405,
            0.0333330963065302,
            -0.05207587184961887,
            -0.010279431542290912,
            0.06035484633144068,
            -0.04431105350152974,
            -0.07674850000627473,
            -0.052724989495011684,
            0.03759983293378327,
            -0.042905190684047634,
            0.02253163870781731,
            -0.0031813278672761652,
            0.06176724937485853,
            0.06607235568138575,
            0.06736823016005744,
            -0.005112237552508156,
            -0.06119933549262422,
            0.045457132798008594,
            0.009129107075294048,
            0.03794034130177537,
            0.04086163688304428,
            0.06814682691055826,
            -0.035232950522185516,
            0.06655937845833895,
            0.07931650607592408,
            -0.009644267306178803,
            -0.08283771726172191,
            0.08398565855031809,
            -0.05907260313829732,
            -0.06391552811389356,
            -0.0006837427166102722,
            0.09943461049984162,
            0.04975953842990994,
            -0.05931146639852234,
            -0.09557301486578801,
            0.0384879959990446,
            -0.036833940880041424,
            -0.08776283058910161,
            -0.03558445748833326,
            -0.05321991172256469,
            -0.08560147943189841,
            -0.006618592363869081,
            -0.01446454404607242,
            -0.05434559819087681,
            0.09422995288090781,
            0.08734059380358254,
            0.038802293160000695,
            0.03469475063472863,
            -0.04417361993029961,
            -0.01021072489077482,
            0.07374344945050615,
            -0.08753183718259253,
            0.07206046424955742,
            -0.016892841863121566,
            -0.012733734122012702,
            -0.019988978084211073,
            0.03294192943784799,
            0.03922025535167231,
            -0.00026994191142921953,
            -0.049669727143045364,
            0.053890003783225816,
            0.07510036351277632,
            -0.0945782525906937,
            0.05208476070652332,
            0.00335644352016147,
            0.030127879682940065,
            -0.010908364332765473,
            0.06244840047554487,
            0.09537105919139657,
            0.043832458457530726,
            -0.07625090185332058,
            -0.036801593783370404,
            -0.03207386895892177,
            0.08918706746007829,
            -0.057149870710584534,
            -0.04982514282558248
          ]
        ],
        "intercept": [
          -0.10000000000000002
        ]
      },
      {
        "output_dim": 1,
        "n_estimators": 100,
        "max_depth": 6,
        "estimator": "gbm",
        "learning_rate": 0.1,
        "feature_importances": [
          0.012987012987012988,
          0.012987012987012988,
          0.012987012987012988,
          0.012987012987012988,
          0.012987012987012988,
          0.012987012987012988,
          0.012987012987012988,
          0.012987012987012988,
          0.012987012987012988,
          0.012987012987012988,
          0.012987012987012988,
          0.012987012987012988,
          0.012987012987012988,
          0.012987012987012988,
          0.012987012987012988,
          0.012987012987012988,
          0.012987012987012988,
          0.012987012987012988,
          0.012987012987012988,
          0.012987012987012988,
          0.012987012987012988,
          0.012987012987012988,
          0.012987012987012988,
          0.012987012987012988,
          0.012987012987012988,
          0.012987012987012988,
          0.012987012987012988,
          0.012987012987012988,
          0.012987012987012988,
          0.012987012987012988,
          0.012987012987012988,
          0.012987012987012988,
          0.012987012987012988,
          0.012987012987012988,
          0.012987012987012988,
          0.012987012987012988,
          0.012987012987012988,
          0.012987012987012988,
          0.012987012987012988,
          0.012987012987012988,
          0.012987012987012988,
          0.012987012987012988,
          0.012987012987012988,
          0.012987012987012988,
          0.012987012987012988,
          0.012987012987012988,
          0.012987012987012988,
          0.012987012987012988,
          0.012987012987012988,
          0.012987012987012988,
          0.012987012987012988,
          0.012987012987012988,
          0.012987012987012988,
          0.012987012987012988,
          0.012987012987012988,
          0.012987012987012988,
          0.012987012987012988,
          0.012987012987012988,
          0.012987012987012988,
          0.012987012987012988,
          0.012987012987012988,
          0.012987012987012988,
          0.012987012987012988,
          0.012987012987012988,
          0.012987012987012988,
          0.012987012987012988,
          0.012987012987012988,
          0.012987012987012988,
          0.012987012987012988,
          0.012987012987012988,
          0.012987012987012988,
          0.012987012987012988,
          0.012987012987012988,
          0.012987012987012988,
          0.012987012987012988,
          0.012987012987012988,
          0.012987012987012988
        ],
        "input_dim": 77
      }
    ]
  },
  "info": {
    "round": 3,
    "timestamp": "2025-05-14T04:54:44.554252+00:00",
    "version": "1.0.0514-8375.3",
    "version_data": {
      "version": "1.0.0514-8375.3",
      "base_version": "1.0",
      "session_id": 1747198375,
      "session_tag": "0514-8375",
      "round": 3,
      "timestamp": "2025-05-14T04:54:44.554244+00:00"
    },
    "is_ensemble": true,
    "task_type": "fraud_detection",
    "num_models": 8,
    "model_names": [
      "catboost",
      "knn",
      "lgbm",
      "lr",
      "meta_lr",
      "rf",
      "svc",
      "xgb"
    ]
  }
}