{
  "ensemble_state": {
    "weights": [
      0.23551784308247958,
      0.29238227746636447,
      0.0,
      0.05455939229260404,
      0.012873341375324563,
      0.36174378484707115,
      0.0,
      0.04292336093615623
    ],
    "model_names": [
      "catboost",
      "knn",
      "lgbm",
      "lr",
      "meta_lr",
      "rf",
      "svc",
      "xgb"
    ],
    "model_state_dicts": [
      {
        "input_dim": 77,
        "max_depth": 3,
        "estimator": "gbm",
        "n_estimators": 10,
        "output_dim": 1,
        "learning_rate": 0.10000000000000002,
        "feature_importances": [
          0.01298701298701299,
          0.01298701298701299,
          0.01298701298701299,
          0.01298701298701299,
          0.01298701298701299,
          0.01298701298701299,
          0.01298701298701299,
          0.01298701298701299,
          0.01298701298701299,
          0.01298701298701299,
          0.01298701298701299,
          0.01298701298701299,
          0.01298701298701299,
          0.01298701298701299,
          0.01298701298701299,
          0.01298701298701299,
          0.01298701298701299,
          0.01298701298701299,
          0.01298701298701299,
          0.01298701298701299,
          0.01298701298701299,
          0.01298701298701299,
          0.01298701298701299,
          0.01298701298701299,
          0.01298701298701299,
          0.01298701298701299,
          0.01298701298701299,
          0.01298701298701299,
          0.01298701298701299,
          0.01298701298701299,
          0.01298701298701299,
          0.01298701298701299,
          0.01298701298701299,
          0.01298701298701299,
          0.01298701298701299,
          0.01298701298701299,
          0.01298701298701299,
          0.01298701298701299,
          0.01298701298701299,
          0.01298701298701299,
          0.01298701298701299,
          0.01298701298701299,
          0.01298701298701299,
          0.01298701298701299,
          0.01298701298701299,
          0.01298701298701299,
          0.01298701298701299,
          0.01298701298701299,
          0.01298701298701299,
          0.01298701298701299,
          0.01298701298701299,
          0.01298701298701299,
          0.01298701298701299,
          0.01298701298701299,
          0.01298701298701299,
          0.01298701298701299,
          0.01298701298701299,
          0.01298701298701299,
          0.01298701298701299,
          0.01298701298701299,
          0.01298701298701299,
          0.01298701298701299,
          0.01298701298701299,
          0.01298701298701299,
          0.01298701298701299,
          0.01298701298701299,
          0.01298701298701299,
          0.01298701298701299,
          0.01298701298701299,
          0.01298701298701299,
          0.01298701298701299,
          0.01298701298701299,
          0.01298701298701299,
          0.01298701298701299,
          0.01298701298701299,
          0.01298701298701299,
          0.01298701298701299
        ]
      },
      {
        "input_dim": 77,
        "coef": [
          [
            0.0,
            0.0,
            0.0,
            0.0,
            0.0,
            0.0,
            0.0,
            0.0,
            0.0,
            0.0,
            0.0,
            0.0,
            0.0,
            0.0,
            0.0,
            0.0,
            0.0,
            0.0,
            0.0,
            0.0,
            0.0,
            0.0,
            0.0,
            0.0,
            0.0,
            0.0,
            0.0,
            0.0,
            0.0,
            0.0,
            0.0,
            0.0,
            0.0,
            0.0,
            0.0,
            0.0,
            0.0,
            0.0,
            0.0,
            0.0,
            0.0,
            0.0,
            0.0,
            0.0,
            0.0,
            0.0,
            0.0,
            0.0,
            0.0,
            0.0,
            0.0,
            0.0,
            0.0,
            0.0,
            0.0,
            0.0,
            0.0,
            0.0,
            0.0,
            0.0,
            0.0,
            0.0,
            0.0,
            0.0,
            0.0,
            0.0,
            0.0,
            0.0,
            0.0,
            0.0,
            0.0,
            0.0,
            0.0,
            0.0,
            0.0,
            0.0,
            0.0
          ]
        ],
        "intercept": [
          0.0
        ],
        "estimator": "lr",
        "output_dim": 1
      },
      {
        "input_dim": 77,
        "max_depth": 8,
        "estimator": "gbm",
        "n_estimators": 100,
        "output_dim": 1,
        "learning_rate": 0.05,
        "feature_importances": [
          0.012987012987012988,
          0.012987012987012988,
          0.012987012987012988,
          0.012987012987012988,
          0.012987012987012988,
          0.012987012987012988,
          0.012987012987012988,
          0.012987012987012988,
          0.012987012987012988,
          0.012987012987012988,
          0.012987012987012988,
          0.012987012987012988,
          0.012987012987012988,
          0.012987012987012988,
          0.012987012987012988,
          0.012987012987012988,
          0.012987012987012988,
          0.012987012987012988,
          0.012987012987012988,
          0.012987012987012988,
          0.012987012987012988,
          0.012987012987012988,
          0.012987012987012988,
          0.012987012987012988,
          0.012987012987012988,
          0.012987012987012988,
          0.012987012987012988,
          0.012987012987012988,
          0.012987012987012988,
          0.012987012987012988,
          0.012987012987012988,
          0.012987012987012988,
          0.012987012987012988,
          0.012987012987012988,
          0.012987012987012988,
          0.012987012987012988,
          0.012987012987012988,
          0.012987012987012988,
          0.012987012987012988,
          0.012987012987012988,
          0.012987012987012988,
          0.012987012987012988,
          0.012987012987012988,
          0.012987012987012988,
          0.012987012987012988,
          0.012987012987012988,
          0.012987012987012988,
          0.012987012987012988,
          0.012987012987012988,
          0.012987012987012988,
          0.012987012987012988,
          0.012987012987012988,
          0.012987012987012988,
          0.012987012987012988,
          0.012987012987012988,
          0.012987012987012988,
          0.012987012987012988,
          0.012987012987012988,
          0.012987012987012988,
          0.012987012987012988,
          0.012987012987012988,
          0.012987012987012988,
          0.012987012987012988,
          0.012987012987012988,
          0.012987012987012988,
          0.012987012987012988,
          0.012987012987012988,
          0.012987012987012988,
          0.012987012987012988,
          0.012987012987012988,
          0.012987012987012988,
          0.012987012987012988,
          0.012987012987012988,
          0.012987012987012988,
          0.012987012987012988,
          0.012987012987012988,
          0.012987012987012988
        ]
      },
      {
        "input_dim": 77,
        "coef": [
          [
            0.006274267217576677,
            -0.00805153951990754,
            0.007209181075514029,
            0.004029806873749726,
            0.009267649051581365,
            -0.003297388646596613,
            -0.003913586993837317,
            0.008112499456641135,
            -0.009417078589188301,
            0.003231801169424604,
            -0.0038031589883836146,
            -0.00542526411512621,
            0.004810106058914269,
            0.009990824835763355,
            -0.005011187478577321,
            -0.005901391787707582,
            0.0019105054341702274,
            -0.004527262548294777,
            0.00843722763856715,
            -0.00655896034944713,
            -0.0008631243188555668,
            -0.007746763326750703,
            -0.0032278628868223063,
            -0.0002560451339595829,
            0.009588652782561517,
            -0.004569217122600932,
            -0.0027433425356497,
            0.0062428677374261245,
            -0.002028962133516452,
            -0.007911174321671814,
            -0.006027699091550798,
            -0.007582624200230719,
            0.006421135044049528,
            -0.008492572066736289,
            -0.008801717184159216,
            -0.009082957322804215,
            0.00039430789192466086,
            0.005972426061288312,
            0.00897317335596516,
            -0.006597731371987247,
            -0.0011887029352584746,
            -0.003017121906288665,
            0.0025408784770180066,
            0.0028257110742627486,
            0.005047451396818807,
            -0.009989413925402852,
            0.003541429728305767,
            0.00530833454319855,
            0.006627824124730191,
            -0.00023398317698147125,
            0.006215231536418056,
            0.004546923406137918,
            0.004286226153367368,
            -0.007590297384315667,
            0.008421991569469945,
            -0.0053364605221150095,
            0.004886693126412978,
            0.004566498985375447,
            0.003138759456736282,
            -0.0036308338399474935,
            0.005264442895611461,
            -0.0076596336736206964,
            0.007219878969770005,
            -0.008633366481602548,
            -0.007830131523333544,
            -0.0037352801859280894,
            0.008263048749193405,
            0.008940174239988273,
            -0.00636831402126169,
            0.005749886726629265,
            0.0031561588797591918,
            0.006970535602422475,
            0.009292726818127062,
            0.004738087632204955,
            0.009151226887013532,
            -0.004437761146466688,
            -0.0005951810962041091
          ]
        ],
        "intercept": [
          0.0
        ],
        "estimator": "lr",
        "output_dim": 1
      },
      {
        "linear.bias": [
          -4.423933956904204
        ],
        "linear.weight": [
          [
            0.4536355653459436,
            -0.2765286589940844,
            6.127692264440999,
            -0.6756673448697463,
            -0.6756673448697463,
            0.0,
            0.0
          ]
        ],
        "model_type": "pytorch"
      },
      {
        "input_dim": 77,
        "estimator": "rf",
        "n_estimators": 100,
        "output_dim": 1,
        "feature_importances": [
          0.012987012987012988,
          0.012987012987012988,
          0.012987012987012988,
          0.012987012987012988,
          0.012987012987012988,
          0.012987012987012988,
          0.012987012987012988,
          0.012987012987012988,
          0.012987012987012988,
          0.012987012987012988,
          0.012987012987012988,
          0.012987012987012988,
          0.012987012987012988,
          0.012987012987012988,
          0.012987012987012988,
          0.012987012987012988,
          0.012987012987012988,
          0.012987012987012988,
          0.012987012987012988,
          0.012987012987012988,
          0.012987012987012988,
          0.012987012987012988,
          0.012987012987012988,
          0.012987012987012988,
          0.012987012987012988,
          0.012987012987012988,
          0.012987012987012988,
          0.012987012987012988,
          0.012987012987012988,
          0.012987012987012988,
          0.012987012987012988,
          0.012987012987012988,
          0.012987012987012988,
          0.012987012987012988,
          0.012987012987012988,
          0.012987012987012988,
          0.012987012987012988,
          0.012987012987012988,
          0.012987012987012988,
          0.012987012987012988,
          0.012987012987012988,
          0.012987012987012988,
          0.012987012987012988,
          0.012987012987012988,
          0.012987012987012988,
          0.012987012987012988,
          0.012987012987012988,
          0.012987012987012988,
          0.012987012987012988,
          0.012987012987012988,
          0.012987012987012988,
          0.012987012987012988,
          0.012987012987012988,
          0.012987012987012988,
          0.012987012987012988,
          0.012987012987012988,
          0.012987012987012988,
          0.012987012987012988,
          0.012987012987012988,
          0.012987012987012988,
          0.012987012987012988,
          0.012987012987012988,
          0.012987012987012988,
          0.012987012987012988,
          0.012987012987012988,
          0.012987012987012988,
          0.012987012987012988,
          0.012987012987012988,
          0.012987012987012988,
          0.012987012987012988,
          0.012987012987012988,
          0.012987012987012988,
          0.012987012987012988,
          0.012987012987012988,
          0.012987012987012988,
          0.012987012987012988,
          0.012987012987012988
        ]
      },
      {
        "input_dim": 77,
        "intercept": [
          -0.1
        ],
        "estimator": "svc",
        "dual_coef": [
          [
            0.1,
            -0.1
          ]
        ],
        "output_dim": 1,
        "support_vectors": [
          [
            -0.004071594729043032,
            -0.04144484569612004,
            -0.027945505059555092,
            -0.0757914429543551,
            -0.008734219979247101,
            -0.021252013837311234,
            -0.009957204954350526,
            -0.024558990293774688,
            0.026134217466248638,
            0.014195651055947625,
            -0.047308457699429624,
            -0.09933495604386591,
            0.004968325919691846,
            -0.08119917659193449,
            0.06285623377468022,
            -0.012287917664951298,
            -0.020342077583567056,
            0.04161504208253736,
            0.06576790623967743,
            0.057826414133480886,
            0.01777784863141489,
            0.02684644608850617,
            -0.04043441744438954,
            0.036226856012639336,
            -0.09277892240954254,
            -0.025866929337431427,
            -0.06029982913425694,
            0.051310877188494614,
            0.02547296116027481,
            0.0027215322520338647,
            -0.0022099871130366183,
            0.08569918616282465,
            -0.019022863564487055,
            -0.02444824759605002,
            -0.016106065482225596,
            -0.04905994420401108,
            -0.07600319238006902,
            -0.075092075301634,
            0.041137597622818656,
            0.09532771051901631,
            0.0032667643336994068,
            0.07946401956059745,
            -0.09043375813896348,
            0.007327953056933817,
            -0.023294671885903465,
            0.06596255965474809,
            0.031823114639285055,
            -0.01627305857279497,
            0.01338029905849561,
            -0.09886586926317781,
            0.051169534733077365,
            -0.04571863443433948,
            -0.034824304702551004,
            0.08998669947312227,
            -0.07725165339820894,
            -0.06806287586029211,
            -0.03023432952398311,
            -0.004148382484469831,
            -0.08935618369165027,
            0.03390358589827375,
            -0.06785820091365788,
            -0.05598489482861753,
            0.09366159649540365,
            -0.0607891678110029,
            -0.07980852870615668,
            -0.020831186453802372,
            -0.021430068919160924,
            -0.045615193290203984,
            -0.05877258628392506,
            -0.0979886110038135,
            -0.00862990266719929,
            -0.04029001807942694,
            0.09792828591435773,
            -0.06057818973826341,
            0.00394627739691962,
            -0.01797421295184716,
            0.04509754084923043
          ],
          [
            0.07946538997838212,
            0.031022726860720357,
            -0.061566613973591734,
            -0.05511621501369271,
            0.030448015613161655,
            -0.003186548668180661,
            -0.018277782952433902,
            -0.027945361012689504,
            -0.014904532714937885,
            -0.013870481931729906,
            0.015231201403075365,
            0.03690340296261854,
            0.0459277521906884,
            0.042140753321483176,
            -0.0396997805675349,
            0.03421033311489513,
            0.042678081672358065,
            0.036927691488114645,
            0.025753358520420377,
            0.016469387646256134,
            0.038590561827025666,
            0.05295805812851004,
            0.09080116128568369,
            -0.07101214139018175,
            -0.062280230120476635,
            0.09668693251736957,
            0.04090043974455421,
            -0.05374998428297378,
            0.0551836256757412,
            0.08246398744204037,
            -0.09538810281079797,
            0.018727968974497994,
            -0.01970098302677628,
            0.08544036451682188,
            -0.08501510270872353,
            0.07854861118308182,
            0.09054235159926069,
            -0.0046828019397591875,
            -0.07677822673541253,
            -0.09470809809231265,
            -0.0341621260870445,
            0.05057933821858701,
            -0.0884049738782507,
            -0.07103384189246063,
            0.011739135526495637,
            0.026638702672409587,
            0.05633214153526925,
            0.06847391668362557,
            -0.00916192243803178,
            0.05484147880661114,
            0.03737995737509328,
            -0.0435337694527651,
            -0.08727047195149523,
            0.01858627276271671,
            -0.08192821662747735,
            0.03277152612089626,
            0.07216294798509046,
            0.07962078942698309,
            0.02939341742224516,
            0.011712746137553728,
            0.06930244749756173,
            -0.07306763940481141,
            0.022546575023285803,
            0.06982063299879612,
            0.08951094926046019,
            0.0035083295995800706,
            0.05681669472185788,
            -0.0464747038373301,
            -0.023350862927691313,
            0.08603945395889953,
            0.08926950288118427,
            0.0779741367938844,
            0.0366702051597779,
            -0.09989483578254606,
            0.07341100103565931,
            0.07989933563351384,
            -0.0594648171473587
          ]
        ]
      },
      {
        "input_dim": 77,
        "max_depth": 6,
        "estimator": "gbm",
        "n_estimators": 100,
        "output_dim": 1,
        "learning_rate": 0.1,
        "feature_importances": [
          0.012987012987012988,
          0.012987012987012988,
          0.012987012987012988,
          0.012987012987012988,
          0.012987012987012988,
          0.012987012987012988,
          0.012987012987012988,
          0.012987012987012988,
          0.012987012987012988,
          0.012987012987012988,
          0.012987012987012988,
          0.012987012987012988,
          0.012987012987012988,
          0.012987012987012988,
          0.012987012987012988,
          0.012987012987012988,
          0.012987012987012988,
          0.012987012987012988,
          0.012987012987012988,
          0.012987012987012988,
          0.012987012987012988,
          0.012987012987012988,
          0.012987012987012988,
          0.012987012987012988,
          0.012987012987012988,
          0.012987012987012988,
          0.012987012987012988,
          0.012987012987012988,
          0.012987012987012988,
          0.012987012987012988,
          0.012987012987012988,
          0.012987012987012988,
          0.012987012987012988,
          0.012987012987012988,
          0.012987012987012988,
          0.012987012987012988,
          0.012987012987012988,
          0.012987012987012988,
          0.012987012987012988,
          0.012987012987012988,
          0.012987012987012988,
          0.012987012987012988,
          0.012987012987012988,
          0.012987012987012988,
          0.012987012987012988,
          0.012987012987012988,
          0.012987012987012988,
          0.012987012987012988,
          0.012987012987012988,
          0.012987012987012988,
          0.012987012987012988,
          0.012987012987012988,
          0.012987012987012988,
          0.012987012987012988,
          0.012987012987012988,
          0.012987012987012988,
          0.012987012987012988,
          0.012987012987012988,
          0.012987012987012988,
          0.012987012987012988,
          0.012987012987012988,
          0.012987012987012988,
          0.012987012987012988,
          0.012987012987012988,
          0.012987012987012988,
          0.012987012987012988,
          0.012987012987012988,
          0.012987012987012988,
          0.012987012987012988,
          0.012987012987012988,
          0.012987012987012988,
          0.012987012987012988,
          0.012987012987012988,
          0.012987012987012988,
          0.012987012987012988,
          0.012987012987012988,
          0.012987012987012988
        ]
      }
    ]
  },
  "info": {
    "round": 3,
    "timestamp": "2025-05-13T17:23:11.216435+00:00",
    "version": "1.0.0513-6848.3",
    "version_data": {
      "version": "1.0.0513-6848.3",
      "base_version": "1.0",
      "session_id": 1747156848,
      "session_tag": "0513-6848",
      "round": 3,
      "timestamp": "2025-05-13T17:23:11.216425+00:00"
    },
    "is_ensemble": true,
    "task_type": "fraud_detection",
    "num_models": 8,
    "model_names": [
      "catboost",
      "knn",
      "lgbm",
      "lr",
      "meta_lr",
      "rf",
      "svc",
      "xgb"
    ]
  }
}