{
  "ensemble_state": {
    "weights": [
      0.21641471337226834,
      0.11446394712565021,
      0.05606778123952917,
      0.006790971629553468,
      0.03588388359827547,
      0.23902297304390416,
      0.31951207813860993,
      0.011843651852209256
    ],
    "model_names": [
      "catboost",
      "knn",
      "lgbm",
      "lr",
      "meta_lr",
      "rf",
      "svc",
      "xgb"
    ],
    "model_state_dicts": [
      {
        "n_estimators": 10,
        "max_depth": 3,
        "estimator": "gbm",
        "input_dim": 77,
        "learning_rate": 0.10000000000000002,
        "output_dim": 1,
        "feature_importances": [
          0.012987012987012988,
          0.012987012987012988,
          0.012987012987012988,
          0.012987012987012988,
          0.012987012987012988,
          0.012987012987012988,
          0.012987012987012988,
          0.012987012987012988,
          0.012987012987012988,
          0.012987012987012988,
          0.012987012987012988,
          0.012987012987012988,
          0.012987012987012988,
          0.012987012987012988,
          0.012987012987012988,
          0.012987012987012988,
          0.012987012987012988,
          0.012987012987012988,
          0.012987012987012988,
          0.012987012987012988,
          0.012987012987012988,
          0.012987012987012988,
          0.012987012987012988,
          0.012987012987012988,
          0.012987012987012988,
          0.012987012987012988,
          0.012987012987012988,
          0.012987012987012988,
          0.012987012987012988,
          0.012987012987012988,
          0.012987012987012988,
          0.012987012987012988,
          0.012987012987012988,
          0.012987012987012988,
          0.012987012987012988,
          0.012987012987012988,
          0.012987012987012988,
          0.012987012987012988,
          0.012987012987012988,
          0.012987012987012988,
          0.012987012987012988,
          0.012987012987012988,
          0.012987012987012988,
          0.012987012987012988,
          0.012987012987012988,
          0.012987012987012988,
          0.012987012987012988,
          0.012987012987012988,
          0.012987012987012988,
          0.012987012987012988,
          0.012987012987012988,
          0.012987012987012988,
          0.012987012987012988,
          0.012987012987012988,
          0.012987012987012988,
          0.012987012987012988,
          0.012987012987012988,
          0.012987012987012988,
          0.012987012987012988,
          0.012987012987012988,
          0.012987012987012988,
          0.012987012987012988,
          0.012987012987012988,
          0.012987012987012988,
          0.012987012987012988,
          0.012987012987012988,
          0.012987012987012988,
          0.012987012987012988,
          0.012987012987012988,
          0.012987012987012988,
          0.012987012987012988,
          0.012987012987012988,
          0.012987012987012988,
          0.012987012987012988,
          0.012987012987012988,
          0.012987012987012988,
          0.012987012987012988
        ]
      },
      {
        "estimator": "lr",
        "input_dim": 77,
        "coef": [
          [
            0.0,
            0.0,
            0.0,
            0.0,
            0.0,
            0.0,
            0.0,
            0.0,
            0.0,
            0.0,
            0.0,
            0.0,
            0.0,
            0.0,
            0.0,
            0.0,
            0.0,
            0.0,
            0.0,
            0.0,
            0.0,
            0.0,
            0.0,
            0.0,
            0.0,
            0.0,
            0.0,
            0.0,
            0.0,
            0.0,
            0.0,
            0.0,
            0.0,
            0.0,
            0.0,
            0.0,
            0.0,
            0.0,
            0.0,
            0.0,
            0.0,
            0.0,
            0.0,
            0.0,
            0.0,
            0.0,
            0.0,
            0.0,
            0.0,
            0.0,
            0.0,
            0.0,
            0.0,
            0.0,
            0.0,
            0.0,
            0.0,
            0.0,
            0.0,
            0.0,
            0.0,
            0.0,
            0.0,
            0.0,
            0.0,
            0.0,
            0.0,
            0.0,
            0.0,
            0.0,
            0.0,
            0.0,
            0.0,
            0.0,
            0.0,
            0.0,
            0.0
          ]
        ],
        "intercept": [
          0.0
        ],
        "output_dim": 1
      },
      {
        "n_estimators": 100,
        "max_depth": 8,
        "estimator": "gbm",
        "input_dim": 77,
        "learning_rate": 0.05,
        "output_dim": 1,
        "feature_importances": [
          0.012987012987012988,
          0.012987012987012988,
          0.012987012987012988,
          0.012987012987012988,
          0.012987012987012988,
          0.012987012987012988,
          0.012987012987012988,
          0.012987012987012988,
          0.012987012987012988,
          0.012987012987012988,
          0.012987012987012988,
          0.012987012987012988,
          0.012987012987012988,
          0.012987012987012988,
          0.012987012987012988,
          0.012987012987012988,
          0.012987012987012988,
          0.012987012987012988,
          0.012987012987012988,
          0.012987012987012988,
          0.012987012987012988,
          0.012987012987012988,
          0.012987012987012988,
          0.012987012987012988,
          0.012987012987012988,
          0.012987012987012988,
          0.012987012987012988,
          0.012987012987012988,
          0.012987012987012988,
          0.012987012987012988,
          0.012987012987012988,
          0.012987012987012988,
          0.012987012987012988,
          0.012987012987012988,
          0.012987012987012988,
          0.012987012987012988,
          0.012987012987012988,
          0.012987012987012988,
          0.012987012987012988,
          0.012987012987012988,
          0.012987012987012988,
          0.012987012987012988,
          0.012987012987012988,
          0.012987012987012988,
          0.012987012987012988,
          0.012987012987012988,
          0.012987012987012988,
          0.012987012987012988,
          0.012987012987012988,
          0.012987012987012988,
          0.012987012987012988,
          0.012987012987012988,
          0.012987012987012988,
          0.012987012987012988,
          0.012987012987012988,
          0.012987012987012988,
          0.012987012987012988,
          0.012987012987012988,
          0.012987012987012988,
          0.012987012987012988,
          0.012987012987012988,
          0.012987012987012988,
          0.012987012987012988,
          0.012987012987012988,
          0.012987012987012988,
          0.012987012987012988,
          0.012987012987012988,
          0.012987012987012988,
          0.012987012987012988,
          0.012987012987012988,
          0.012987012987012988,
          0.012987012987012988,
          0.012987012987012988,
          0.012987012987012988,
          0.012987012987012988,
          0.012987012987012988,
          0.012987012987012988
        ]
      },
      {
        "estimator": "lr",
        "input_dim": 77,
        "coef": [
          [
            0.0023891359921711305,
            -0.008091604370186247,
            -0.0010261639347942733,
            -0.006148093147718019,
            -0.0066116802796238345,
            -0.005445141113426823,
            0.000985716030208767,
            -0.0044533464880723095,
            -0.0014538335293032521,
            -0.009295130390053506,
            0.007915159008242455,
            -0.008343092211618075,
            -0.0023658169069008684,
            -0.004027562250918306,
            0.007765302221787758,
            0.002664323941251814,
            -0.008546568867969872,
            -0.0036212611811671565,
            0.008536698166503839,
            -0.008544906708541718,
            -0.006893781117676627,
            0.008629084613917882,
            0.004077368723815708,
            0.0018767634500806655,
            0.008397085715034483,
            -0.003091444244170967,
            -5.343175156801751e-05,
            -0.0017879843673358434,
            0.0021724020049652126,
            0.00130305214116643,
            -0.004110583233005079,
            0.006305792351743228,
            0.009393451809697919,
            -0.004039073428656674,
            0.009189244739957534,
            -0.0024924234337583414,
            0.006560870144465504,
            -0.007155343491200594,
            -0.004649702843632673,
            0.004602678155682145,
            0.008121654465234588,
            0.008447935644380728,
            -0.0006904866778022229,
            -0.0015226731233269949,
            -0.003473088464698317,
            0.004194781278668331,
            -0.00706612299704742,
            0.0036401210017431244,
            0.006864882954623687,
            0.006640559684571995,
            0.0038153494659964957,
            -0.003223481630883775,
            0.006522374199092922,
            0.005189172333608216,
            0.003701502277327278,
            0.0012210460540405445,
            -0.008370347412111677,
            -0.008906985904581536,
            0.007096769557306754,
            0.00817397008716265,
            -0.006963308068782379,
            0.0014729516886356278,
            0.008473407961240553,
            0.008583127277354071,
            -0.009357172036813487,
            -0.0015654468610969956,
            0.00423411879818799,
            -0.00861507855226285,
            0.004351883312240139,
            -0.0034533405460496196,
            0.0071696725630656915,
            -0.004453190895473731,
            0.0032683880014275114,
            0.005513375806993133,
            -0.006935561575621778,
            -0.008856389612259522,
            0.008529281091860833
          ]
        ],
        "intercept": [
          0.0
        ],
        "output_dim": 1
      },
      {
        "linear.bias": [
          -4.4803158511726116
        ],
        "model_type": "pytorch",
        "linear.weight": [
          [
            0.04201839789871065,
            -0.1914898154028194,
            5.424404212166719,
            -0.8841316836169202,
            -0.8841316836169202,
            0.0,
            0.0
          ]
        ]
      },
      {
        "n_estimators": 100,
        "estimator": "rf",
        "input_dim": 77,
        "output_dim": 1,
        "feature_importances": [
          0.01298701298701299,
          0.01298701298701299,
          0.01298701298701299,
          0.01298701298701299,
          0.01298701298701299,
          0.01298701298701299,
          0.01298701298701299,
          0.01298701298701299,
          0.01298701298701299,
          0.01298701298701299,
          0.01298701298701299,
          0.01298701298701299,
          0.01298701298701299,
          0.01298701298701299,
          0.01298701298701299,
          0.01298701298701299,
          0.01298701298701299,
          0.01298701298701299,
          0.01298701298701299,
          0.01298701298701299,
          0.01298701298701299,
          0.01298701298701299,
          0.01298701298701299,
          0.01298701298701299,
          0.01298701298701299,
          0.01298701298701299,
          0.01298701298701299,
          0.01298701298701299,
          0.01298701298701299,
          0.01298701298701299,
          0.01298701298701299,
          0.01298701298701299,
          0.01298701298701299,
          0.01298701298701299,
          0.01298701298701299,
          0.01298701298701299,
          0.01298701298701299,
          0.01298701298701299,
          0.01298701298701299,
          0.01298701298701299,
          0.01298701298701299,
          0.01298701298701299,
          0.01298701298701299,
          0.01298701298701299,
          0.01298701298701299,
          0.01298701298701299,
          0.01298701298701299,
          0.01298701298701299,
          0.01298701298701299,
          0.01298701298701299,
          0.01298701298701299,
          0.01298701298701299,
          0.01298701298701299,
          0.01298701298701299,
          0.01298701298701299,
          0.01298701298701299,
          0.01298701298701299,
          0.01298701298701299,
          0.01298701298701299,
          0.01298701298701299,
          0.01298701298701299,
          0.01298701298701299,
          0.01298701298701299,
          0.01298701298701299,
          0.01298701298701299,
          0.01298701298701299,
          0.01298701298701299,
          0.01298701298701299,
          0.01298701298701299,
          0.01298701298701299,
          0.01298701298701299,
          0.01298701298701299,
          0.01298701298701299,
          0.01298701298701299,
          0.01298701298701299,
          0.01298701298701299,
          0.01298701298701299
        ]
      },
      {
        "estimator": "svc",
        "input_dim": 77,
        "intercept": [
          -0.1
        ],
        "output_dim": 1,
        "support_vectors": [
          [
            -0.03789131441536873,
            -0.07298940557193498,
            0.0957315103666472,
            0.06736075796620702,
            0.001135801295031838,
            -0.03992102689946708,
            0.07685890534326681,
            -0.06974394056074212,
            0.0008133025223662493,
            -0.02978570932892602,
            0.01157108390170411,
            -0.08287319361776323,
            0.04214866814079429,
            0.06662687879571186,
            0.051657010128446146,
            0.05184739132637892,
            -0.0029786123947049825,
            0.08611421292708321,
            -0.004372149430201366,
            0.01664506722926165,
            0.03527205960623969,
            -0.08508119294017236,
            -0.0010027430713123175,
            -0.001423597148706962,
            -0.0416450442617301,
            -0.04923252803364016,
            -0.02262099647336495,
            -0.009622211032999387,
            0.041470739498168485,
            0.04783103382204937,
            0.03989385138927856,
            0.05539062112260537,
            -0.07004646872625,
            -0.018878128196531604,
            -0.0051672171084072155,
            -0.02849876322771676,
            -0.02669222374415707,
            -0.0407356870495678,
            -0.011062519145437696,
            0.04847429036897136,
            -0.0210267288751039,
            -0.030072821272562722,
            -0.054340074048970496,
            0.08321501351801003,
            -0.005185505867202483,
            -0.025944158355273708,
            -0.038762834701895635,
            -0.033627941580267856,
            -0.09648982266383216,
            0.08569838062384041,
            0.005857995109034356,
            -0.034755766911330754,
            0.05580648580179429,
            -0.051267123407588905,
            0.035316963836812265,
            0.03904412863661555,
            0.07110329623719822,
            0.06442948002662227,
            0.0035681149719496846,
            -0.04928086782581309,
            -0.008059484599988107,
            -0.031114277811841493,
            -0.07824109590863637,
            0.038928634719883864,
            -0.03643520518305765,
            0.05754972588345916,
            0.08962839476234671,
            -0.09734365578877738,
            0.004324905354124511,
            -0.04736007983655263,
            0.0038820891821106786,
            0.09693309931592314,
            -0.07805829643382858,
            0.07362654903900909,
            -0.09854060900101179,
            0.02456357485959186,
            -0.06129122056666478
          ],
          [
            -0.04299570998645248,
            0.047675914171792316,
            0.07733636746799805,
            0.07102112150596565,
            0.022116646549821373,
            -0.010581895900532129,
            0.07501450328962475,
            -0.034258993821999845,
            0.07958689460965904,
            0.006724681423942475,
            -0.08616179819911306,
            -0.09372132519032894,
            0.07007167065926687,
            -0.06103186797863529,
            -0.07724529352039575,
            -0.044754873079218285,
            -0.03190103028858582,
            -0.030432219151611165,
            0.09211051600639325,
            -0.01968846083479711,
            0.003902451654668154,
            0.04625111514679889,
            0.09540254365062867,
            -0.0926446413934994,
            0.011238048644618304,
            0.09534833600370016,
            -0.09877860763983953,
            0.085003895749976,
            -0.08557932637773535,
            -0.06918960014446227,
            -0.024373417327142308,
            -0.04099334772535379,
            -0.0430918930987961,
            0.005873383081567193,
            -0.05961456879397142,
            -0.09686668343377872,
            0.09491903525573772,
            -0.040384726735101406,
            -0.008133537059523882,
            -0.013122310880621296,
            -0.0773959443679614,
            -0.05010108420835424,
            0.030650741099524422,
            -0.09222913545981795,
            -0.0006585219871720616,
            0.01618886453478849,
            -0.04701838691920379,
            0.03817673617173123,
            -0.08669769969790284,
            -0.08225773562777006,
            0.04514186222136188,
            -0.0865535642196176,
            -0.02309438401063972,
            0.009136707650069686,
            -0.0791872249154908,
            0.0030383728041063207,
            0.05957206992429834,
            0.03030454364447696,
            -0.08525948124898833,
            0.08646211366109766,
            -0.05692428351570922,
            -0.017690084151804245,
            -0.009086077776375115,
            -0.04654704936118075,
            -0.057884400872518144,
            0.024680334267898216,
            0.08275316801819199,
            0.008045784487623525,
            -0.018558681644779876,
            -0.0029351190587300346,
            -0.042350713999037476,
            -0.05169110130322867,
            -0.0024653670021202168,
            -0.08792969031630055,
            0.08416777655460575,
            -0.09345322246050794,
            -0.07004958321746108
          ]
        ],
        "dual_coef": [
          [
            0.1,
            -0.1
          ]
        ]
      },
      {
        "n_estimators": 100,
        "max_depth": 6,
        "estimator": "gbm",
        "input_dim": 77,
        "learning_rate": 0.1,
        "output_dim": 1,
        "feature_importances": [
          0.012987012987012988,
          0.012987012987012988,
          0.012987012987012988,
          0.012987012987012988,
          0.012987012987012988,
          0.012987012987012988,
          0.012987012987012988,
          0.012987012987012988,
          0.012987012987012988,
          0.012987012987012988,
          0.012987012987012988,
          0.012987012987012988,
          0.012987012987012988,
          0.012987012987012988,
          0.012987012987012988,
          0.012987012987012988,
          0.012987012987012988,
          0.012987012987012988,
          0.012987012987012988,
          0.012987012987012988,
          0.012987012987012988,
          0.012987012987012988,
          0.012987012987012988,
          0.012987012987012988,
          0.012987012987012988,
          0.012987012987012988,
          0.012987012987012988,
          0.012987012987012988,
          0.012987012987012988,
          0.012987012987012988,
          0.012987012987012988,
          0.012987012987012988,
          0.012987012987012988,
          0.012987012987012988,
          0.012987012987012988,
          0.012987012987012988,
          0.012987012987012988,
          0.012987012987012988,
          0.012987012987012988,
          0.012987012987012988,
          0.012987012987012988,
          0.012987012987012988,
          0.012987012987012988,
          0.012987012987012988,
          0.012987012987012988,
          0.012987012987012988,
          0.012987012987012988,
          0.012987012987012988,
          0.012987012987012988,
          0.012987012987012988,
          0.012987012987012988,
          0.012987012987012988,
          0.012987012987012988,
          0.012987012987012988,
          0.012987012987012988,
          0.012987012987012988,
          0.012987012987012988,
          0.012987012987012988,
          0.012987012987012988,
          0.012987012987012988,
          0.012987012987012988,
          0.012987012987012988,
          0.012987012987012988,
          0.012987012987012988,
          0.012987012987012988,
          0.012987012987012988,
          0.012987012987012988,
          0.012987012987012988,
          0.012987012987012988,
          0.012987012987012988,
          0.012987012987012988,
          0.012987012987012988,
          0.012987012987012988,
          0.012987012987012988,
          0.012987012987012988,
          0.012987012987012988,
          0.012987012987012988
        ]
      }
    ]
  },
  "info": {
    "round": 3,
    "timestamp": "2025-05-13T15:38:24.045249+00:00",
    "version": "1.0.0513-0570.3",
    "version_data": {
      "version": "1.0.0513-0570.3",
      "base_version": "1.0",
      "session_id": 1747150570,
      "session_tag": "0513-0570",
      "round": 3,
      "timestamp": "2025-05-13T15:38:24.045241+00:00"
    },
    "is_ensemble": true,
    "task_type": "fraud_detection",
    "num_models": 8,
    "model_names": [
      "catboost",
      "knn",
      "lgbm",
      "lr",
      "meta_lr",
      "rf",
      "svc",
      "xgb"
    ]
  }
}