{
  "ensemble_state": {
    "weights": [
      0.1149661622296698,
      0.1259338813548281,
      0.029303686506507054,
      0.2523355218308627,
      0.025600162110432426,
      0.18759490465940964,
      0.22623478119438903,
      0.038030900113901235
    ],
    "model_names": [
      "catboost",
      "knn",
      "lgbm",
      "lr",
      "meta_lr",
      "rf",
      "svc",
      "xgb"
    ],
    "model_state_dicts": [
      {
        "n_estimators": 10,
        "max_depth": 3,
        "estimator": "gbm",
        "input_dim": 77,
        "learning_rate": 0.1,
        "output_dim": 1,
        "feature_importances": [
          0.012987012987012988,
          0.012987012987012988,
          0.012987012987012988,
          0.012987012987012988,
          0.012987012987012988,
          0.012987012987012988,
          0.012987012987012988,
          0.012987012987012988,
          0.012987012987012988,
          0.012987012987012988,
          0.012987012987012988,
          0.012987012987012988,
          0.012987012987012988,
          0.012987012987012988,
          0.012987012987012988,
          0.012987012987012988,
          0.012987012987012988,
          0.012987012987012988,
          0.012987012987012988,
          0.012987012987012988,
          0.012987012987012988,
          0.012987012987012988,
          0.012987012987012988,
          0.012987012987012988,
          0.012987012987012988,
          0.012987012987012988,
          0.012987012987012988,
          0.012987012987012988,
          0.012987012987012988,
          0.012987012987012988,
          0.012987012987012988,
          0.012987012987012988,
          0.012987012987012988,
          0.012987012987012988,
          0.012987012987012988,
          0.012987012987012988,
          0.012987012987012988,
          0.012987012987012988,
          0.012987012987012988,
          0.012987012987012988,
          0.012987012987012988,
          0.012987012987012988,
          0.012987012987012988,
          0.012987012987012988,
          0.012987012987012988,
          0.012987012987012988,
          0.012987012987012988,
          0.012987012987012988,
          0.012987012987012988,
          0.012987012987012988,
          0.012987012987012988,
          0.012987012987012988,
          0.012987012987012988,
          0.012987012987012988,
          0.012987012987012988,
          0.012987012987012988,
          0.012987012987012988,
          0.012987012987012988,
          0.012987012987012988,
          0.012987012987012988,
          0.012987012987012988,
          0.012987012987012988,
          0.012987012987012988,
          0.012987012987012988,
          0.012987012987012988,
          0.012987012987012988,
          0.012987012987012988,
          0.012987012987012988,
          0.012987012987012988,
          0.012987012987012988,
          0.012987012987012988,
          0.012987012987012988,
          0.012987012987012988,
          0.012987012987012988,
          0.012987012987012988,
          0.012987012987012988,
          0.012987012987012988
        ]
      },
      {
        "estimator": "lr",
        "input_dim": 77,
        "coef": [
          [
            0.0,
            0.0,
            0.0,
            0.0,
            0.0,
            0.0,
            0.0,
            0.0,
            0.0,
            0.0,
            0.0,
            0.0,
            0.0,
            0.0,
            0.0,
            0.0,
            0.0,
            0.0,
            0.0,
            0.0,
            0.0,
            0.0,
            0.0,
            0.0,
            0.0,
            0.0,
            0.0,
            0.0,
            0.0,
            0.0,
            0.0,
            0.0,
            0.0,
            0.0,
            0.0,
            0.0,
            0.0,
            0.0,
            0.0,
            0.0,
            0.0,
            0.0,
            0.0,
            0.0,
            0.0,
            0.0,
            0.0,
            0.0,
            0.0,
            0.0,
            0.0,
            0.0,
            0.0,
            0.0,
            0.0,
            0.0,
            0.0,
            0.0,
            0.0,
            0.0,
            0.0,
            0.0,
            0.0,
            0.0,
            0.0,
            0.0,
            0.0,
            0.0,
            0.0,
            0.0,
            0.0,
            0.0,
            0.0,
            0.0,
            0.0,
            0.0,
            0.0
          ]
        ],
        "intercept": [
          0.0
        ],
        "output_dim": 1
      },
      {
        "n_estimators": 100,
        "max_depth": 8,
        "estimator": "gbm",
        "input_dim": 77,
        "learning_rate": 0.05,
        "output_dim": 1,
        "feature_importances": [
          0.012987012987012988,
          0.012987012987012988,
          0.012987012987012988,
          0.012987012987012988,
          0.012987012987012988,
          0.012987012987012988,
          0.012987012987012988,
          0.012987012987012988,
          0.012987012987012988,
          0.012987012987012988,
          0.012987012987012988,
          0.012987012987012988,
          0.012987012987012988,
          0.012987012987012988,
          0.012987012987012988,
          0.012987012987012988,
          0.012987012987012988,
          0.012987012987012988,
          0.012987012987012988,
          0.012987012987012988,
          0.012987012987012988,
          0.012987012987012988,
          0.012987012987012988,
          0.012987012987012988,
          0.012987012987012988,
          0.012987012987012988,
          0.012987012987012988,
          0.012987012987012988,
          0.012987012987012988,
          0.012987012987012988,
          0.012987012987012988,
          0.012987012987012988,
          0.012987012987012988,
          0.012987012987012988,
          0.012987012987012988,
          0.012987012987012988,
          0.012987012987012988,
          0.012987012987012988,
          0.012987012987012988,
          0.012987012987012988,
          0.012987012987012988,
          0.012987012987012988,
          0.012987012987012988,
          0.012987012987012988,
          0.012987012987012988,
          0.012987012987012988,
          0.012987012987012988,
          0.012987012987012988,
          0.012987012987012988,
          0.012987012987012988,
          0.012987012987012988,
          0.012987012987012988,
          0.012987012987012988,
          0.012987012987012988,
          0.012987012987012988,
          0.012987012987012988,
          0.012987012987012988,
          0.012987012987012988,
          0.012987012987012988,
          0.012987012987012988,
          0.012987012987012988,
          0.012987012987012988,
          0.012987012987012988,
          0.012987012987012988,
          0.012987012987012988,
          0.012987012987012988,
          0.012987012987012988,
          0.012987012987012988,
          0.012987012987012988,
          0.012987012987012988,
          0.012987012987012988,
          0.012987012987012988,
          0.012987012987012988,
          0.012987012987012988,
          0.012987012987012988,
          0.012987012987012988,
          0.012987012987012988
        ]
      },
      {
        "estimator": "lr",
        "input_dim": 77,
        "coef": [
          [
            0.0023891359921711305,
            -0.008091604370186247,
            -0.0010261639347942733,
            -0.006148093147718019,
            -0.0066116802796238345,
            -0.005445141113426823,
            0.000985716030208767,
            -0.0044533464880723095,
            -0.0014538335293032521,
            -0.009295130390053506,
            0.007915159008242455,
            -0.008343092211618075,
            -0.0023658169069008684,
            -0.004027562250918306,
            0.007765302221787758,
            0.002664323941251814,
            -0.008546568867969872,
            -0.0036212611811671565,
            0.008536698166503839,
            -0.008544906708541718,
            -0.006893781117676627,
            0.008629084613917882,
            0.004077368723815708,
            0.0018767634500806655,
            0.008397085715034483,
            -0.003091444244170967,
            -5.343175156801751e-05,
            -0.0017879843673358434,
            0.0021724020049652126,
            0.00130305214116643,
            -0.004110583233005079,
            0.006305792351743228,
            0.009393451809697919,
            -0.004039073428656674,
            0.009189244739957534,
            -0.0024924234337583414,
            0.006560870144465504,
            -0.007155343491200594,
            -0.004649702843632673,
            0.004602678155682145,
            0.008121654465234588,
            0.008447935644380728,
            -0.0006904866778022229,
            -0.0015226731233269949,
            -0.003473088464698317,
            0.004194781278668331,
            -0.00706612299704742,
            0.0036401210017431244,
            0.006864882954623687,
            0.006640559684571995,
            0.0038153494659964957,
            -0.003223481630883775,
            0.006522374199092922,
            0.005189172333608216,
            0.003701502277327278,
            0.0012210460540405445,
            -0.008370347412111677,
            -0.008906985904581536,
            0.007096769557306754,
            0.00817397008716265,
            -0.006963308068782379,
            0.0014729516886356278,
            0.008473407961240553,
            0.008583127277354071,
            -0.009357172036813487,
            -0.0015654468610969956,
            0.00423411879818799,
            -0.00861507855226285,
            0.004351883312240139,
            -0.0034533405460496196,
            0.0071696725630656915,
            -0.004453190895473731,
            0.0032683880014275114,
            0.005513375806993133,
            -0.006935561575621778,
            -0.008856389612259522,
            0.008529281091860833
          ]
        ],
        "intercept": [
          0.0
        ],
        "output_dim": 1
      },
      {
        "linear.bias": [
          -5.860333260854829
        ],
        "model_type": "pytorch",
        "linear.weight": [
          [
            3.7106613963492703,
            -2.3581819935856103,
            12.587168460352881,
            0.22629412515426123,
            0.22629412515426123,
            0.0,
            0.0
          ]
        ]
      },
      {
        "n_estimators": 100,
        "estimator": "rf",
        "input_dim": 77,
        "output_dim": 1,
        "feature_importances": [
          0.012987012987012988,
          0.012987012987012988,
          0.012987012987012988,
          0.012987012987012988,
          0.012987012987012988,
          0.012987012987012988,
          0.012987012987012988,
          0.012987012987012988,
          0.012987012987012988,
          0.012987012987012988,
          0.012987012987012988,
          0.012987012987012988,
          0.012987012987012988,
          0.012987012987012988,
          0.012987012987012988,
          0.012987012987012988,
          0.012987012987012988,
          0.012987012987012988,
          0.012987012987012988,
          0.012987012987012988,
          0.012987012987012988,
          0.012987012987012988,
          0.012987012987012988,
          0.012987012987012988,
          0.012987012987012988,
          0.012987012987012988,
          0.012987012987012988,
          0.012987012987012988,
          0.012987012987012988,
          0.012987012987012988,
          0.012987012987012988,
          0.012987012987012988,
          0.012987012987012988,
          0.012987012987012988,
          0.012987012987012988,
          0.012987012987012988,
          0.012987012987012988,
          0.012987012987012988,
          0.012987012987012988,
          0.012987012987012988,
          0.012987012987012988,
          0.012987012987012988,
          0.012987012987012988,
          0.012987012987012988,
          0.012987012987012988,
          0.012987012987012988,
          0.012987012987012988,
          0.012987012987012988,
          0.012987012987012988,
          0.012987012987012988,
          0.012987012987012988,
          0.012987012987012988,
          0.012987012987012988,
          0.012987012987012988,
          0.012987012987012988,
          0.012987012987012988,
          0.012987012987012988,
          0.012987012987012988,
          0.012987012987012988,
          0.012987012987012988,
          0.012987012987012988,
          0.012987012987012988,
          0.012987012987012988,
          0.012987012987012988,
          0.012987012987012988,
          0.012987012987012988,
          0.012987012987012988,
          0.012987012987012988,
          0.012987012987012988,
          0.012987012987012988,
          0.012987012987012988,
          0.012987012987012988,
          0.012987012987012988,
          0.012987012987012988,
          0.012987012987012988,
          0.012987012987012988,
          0.012987012987012988
        ]
      },
      {
        "estimator": "svc",
        "input_dim": 77,
        "intercept": [
          -0.10000000000000002
        ],
        "output_dim": 1,
        "support_vectors": [
          [
            -0.03789131441536873,
            -0.072989405571935,
            0.0957315103666472,
            0.06736075796620702,
            0.001135801295031838,
            -0.03992102689946708,
            0.07685890534326681,
            -0.06974394056074212,
            0.0008133025223662494,
            -0.029785709328926022,
            0.01157108390170411,
            -0.08287319361776323,
            0.04214866814079429,
            0.06662687879571186,
            0.051657010128446146,
            0.051847391326378924,
            -0.002978612394704983,
            0.08611421292708323,
            -0.004372149430201366,
            0.01664506722926165,
            0.03527205960623969,
            -0.08508119294017236,
            -0.0010027430713123175,
            -0.0014235971487069623,
            -0.04164504426173011,
            -0.049232528033640165,
            -0.022620996473364952,
            -0.009622211032999387,
            0.041470739498168485,
            0.047831033822049375,
            0.03989385138927856,
            0.05539062112260537,
            -0.07004646872625,
            -0.018878128196531608,
            -0.005167217108407216,
            -0.02849876322771676,
            -0.026692223744157074,
            -0.04073568704956781,
            -0.011062519145437696,
            0.04847429036897136,
            -0.021026728875103904,
            -0.030072821272562722,
            -0.05434007404897051,
            0.08321501351801003,
            -0.005185505867202483,
            -0.025944158355273708,
            -0.03876283470189564,
            -0.033627941580267856,
            -0.09648982266383217,
            0.08569838062384043,
            0.005857995109034357,
            -0.034755766911330754,
            0.05580648580179429,
            -0.05126712340758891,
            0.03531696383681227,
            0.039044128636615556,
            0.07110329623719822,
            0.06442948002662227,
            0.003568114971949685,
            -0.04928086782581309,
            -0.008059484599988107,
            -0.031114277811841496,
            -0.07824109590863637,
            0.038928634719883864,
            -0.03643520518305765,
            0.05754972588345916,
            0.08962839476234673,
            -0.09734365578877738,
            0.004324905354124511,
            -0.04736007983655264,
            0.0038820891821106794,
            0.09693309931592314,
            -0.07805829643382858,
            0.07362654903900909,
            -0.09854060900101179,
            0.024563574859591864,
            -0.06129122056666479
          ],
          [
            -0.04299570998645248,
            0.04767591417179232,
            0.07733636746799806,
            0.07102112150596565,
            0.022116646549821376,
            -0.010581895900532129,
            0.07501450328962475,
            -0.03425899382199985,
            0.07958689460965904,
            0.006724681423942475,
            -0.08616179819911307,
            -0.09372132519032894,
            0.07007167065926687,
            -0.0610318679786353,
            -0.07724529352039577,
            -0.044754873079218285,
            -0.031901030288585826,
            -0.030432219151611165,
            0.09211051600639325,
            -0.01968846083479711,
            0.0039024516546681547,
            0.046251115146798895,
            0.09540254365062868,
            -0.0926446413934994,
            0.011238048644618305,
            0.09534833600370016,
            -0.09877860763983955,
            0.085003895749976,
            -0.08557932637773535,
            -0.0691896001444623,
            -0.02437341732714231,
            -0.04099334772535379,
            -0.04309189309879611,
            0.005873383081567193,
            -0.05961456879397143,
            -0.09686668343377873,
            0.09491903525573772,
            -0.04038472673510141,
            -0.008133537059523884,
            -0.013122310880621298,
            -0.07739594436796142,
            -0.05010108420835425,
            0.030650741099524426,
            -0.09222913545981795,
            -0.0006585219871720616,
            0.016188864534788492,
            -0.0470183869192038,
            0.03817673617173123,
            -0.08669769969790285,
            -0.08225773562777007,
            0.045141862221361885,
            -0.08655356421961762,
            -0.02309438401063972,
            0.009136707650069688,
            -0.0791872249154908,
            0.003038372804106321,
            0.059572069924298345,
            0.03030454364447696,
            -0.08525948124898833,
            0.08646211366109766,
            -0.05692428351570922,
            -0.017690084151804245,
            -0.009086077776375115,
            -0.04654704936118076,
            -0.05788440087251815,
            0.02468033426789822,
            0.08275316801819199,
            0.008045784487623525,
            -0.018558681644779876,
            -0.002935119058730035,
            -0.042350713999037476,
            -0.051691101303228675,
            -0.0024653670021202168,
            -0.08792969031630055,
            0.08416777655460576,
            -0.09345322246050795,
            -0.07004958321746108
          ]
        ],
        "dual_coef": [
          [
            0.10000000000000002,
            -0.10000000000000002
          ]
        ]
      },
      {
        "n_estimators": 100,
        "max_depth": 6,
        "estimator": "gbm",
        "input_dim": 77,
        "learning_rate": 0.10000000000000002,
        "output_dim": 1,
        "feature_importances": [
          0.01298701298701299,
          0.01298701298701299,
          0.01298701298701299,
          0.01298701298701299,
          0.01298701298701299,
          0.01298701298701299,
          0.01298701298701299,
          0.01298701298701299,
          0.01298701298701299,
          0.01298701298701299,
          0.01298701298701299,
          0.01298701298701299,
          0.01298701298701299,
          0.01298701298701299,
          0.01298701298701299,
          0.01298701298701299,
          0.01298701298701299,
          0.01298701298701299,
          0.01298701298701299,
          0.01298701298701299,
          0.01298701298701299,
          0.01298701298701299,
          0.01298701298701299,
          0.01298701298701299,
          0.01298701298701299,
          0.01298701298701299,
          0.01298701298701299,
          0.01298701298701299,
          0.01298701298701299,
          0.01298701298701299,
          0.01298701298701299,
          0.01298701298701299,
          0.01298701298701299,
          0.01298701298701299,
          0.01298701298701299,
          0.01298701298701299,
          0.01298701298701299,
          0.01298701298701299,
          0.01298701298701299,
          0.01298701298701299,
          0.01298701298701299,
          0.01298701298701299,
          0.01298701298701299,
          0.01298701298701299,
          0.01298701298701299,
          0.01298701298701299,
          0.01298701298701299,
          0.01298701298701299,
          0.01298701298701299,
          0.01298701298701299,
          0.01298701298701299,
          0.01298701298701299,
          0.01298701298701299,
          0.01298701298701299,
          0.01298701298701299,
          0.01298701298701299,
          0.01298701298701299,
          0.01298701298701299,
          0.01298701298701299,
          0.01298701298701299,
          0.01298701298701299,
          0.01298701298701299,
          0.01298701298701299,
          0.01298701298701299,
          0.01298701298701299,
          0.01298701298701299,
          0.01298701298701299,
          0.01298701298701299,
          0.01298701298701299,
          0.01298701298701299,
          0.01298701298701299,
          0.01298701298701299,
          0.01298701298701299,
          0.01298701298701299,
          0.01298701298701299,
          0.01298701298701299,
          0.01298701298701299
        ]
      }
    ]
  },
  "info": {
    "round": 2,
    "timestamp": "2025-05-13T15:37:25.083932+00:00",
    "version": "1.0.0513-0570.2",
    "version_data": {
      "version": "1.0.0513-0570.2",
      "base_version": "1.0",
      "session_id": 1747150570,
      "session_tag": "0513-0570",
      "round": 2,
      "timestamp": "2025-05-13T15:37:25.083921+00:00"
    },
    "is_ensemble": true,
    "task_type": "fraud_detection",
    "num_models": 8,
    "model_names": [
      "catboost",
      "knn",
      "lgbm",
      "lr",
      "meta_lr",
      "rf",
      "svc",
      "xgb"
    ]
  }
}