{
  "ensemble_state": {
    "weights": [
      0.22606334702834768,
      0.013555502538363975,
      0.3193882609931676,
      0.15221264892623768,
      0.026482226663553758,
      0.017307895645362503,
      0.11390377590082605,
      0.1310863423041405
    ],
    "model_names": [
      "catboost",
      "knn",
      "lgbm",
      "lr",
      "meta_lr",
      "rf",
      "svc",
      "xgb"
    ],
    "model_state_dicts": [
      {
        "learning_rate": 0.1,
        "output_dim": 1,
        "feature_importances": [
          0.01298701298701299,
          0.01298701298701299,
          0.01298701298701299,
          0.01298701298701299,
          0.01298701298701299,
          0.01298701298701299,
          0.01298701298701299,
          0.01298701298701299,
          0.01298701298701299,
          0.01298701298701299,
          0.01298701298701299,
          0.01298701298701299,
          0.01298701298701299,
          0.01298701298701299,
          0.01298701298701299,
          0.01298701298701299,
          0.01298701298701299,
          0.01298701298701299,
          0.01298701298701299,
          0.01298701298701299,
          0.01298701298701299,
          0.01298701298701299,
          0.01298701298701299,
          0.01298701298701299,
          0.01298701298701299,
          0.01298701298701299,
          0.01298701298701299,
          0.01298701298701299,
          0.01298701298701299,
          0.01298701298701299,
          0.01298701298701299,
          0.01298701298701299,
          0.01298701298701299,
          0.01298701298701299,
          0.01298701298701299,
          0.01298701298701299,
          0.01298701298701299,
          0.01298701298701299,
          0.01298701298701299,
          0.01298701298701299,
          0.01298701298701299,
          0.01298701298701299,
          0.01298701298701299,
          0.01298701298701299,
          0.01298701298701299,
          0.01298701298701299,
          0.01298701298701299,
          0.01298701298701299,
          0.01298701298701299,
          0.01298701298701299,
          0.01298701298701299,
          0.01298701298701299,
          0.01298701298701299,
          0.01298701298701299,
          0.01298701298701299,
          0.01298701298701299,
          0.01298701298701299,
          0.01298701298701299,
          0.01298701298701299,
          0.01298701298701299,
          0.01298701298701299,
          0.01298701298701299,
          0.01298701298701299,
          0.01298701298701299,
          0.01298701298701299,
          0.01298701298701299,
          0.01298701298701299,
          0.01298701298701299,
          0.01298701298701299,
          0.01298701298701299,
          0.01298701298701299,
          0.01298701298701299,
          0.01298701298701299,
          0.01298701298701299,
          0.01298701298701299,
          0.01298701298701299,
          0.01298701298701299
        ],
        "max_depth": 3,
        "n_estimators": 10,
        "estimator": "gbm",
        "input_dim": 77
      },
      {
        "intercept": [
          0.0
        ],
        "coef": [
          [
            0.0,
            0.0,
            0.0,
            0.0,
            0.0,
            0.0,
            0.0,
            0.0,
            0.0,
            0.0,
            0.0,
            0.0,
            0.0,
            0.0,
            0.0,
            0.0,
            0.0,
            0.0,
            0.0,
            0.0,
            0.0,
            0.0,
            0.0,
            0.0,
            0.0,
            0.0,
            0.0,
            0.0,
            0.0,
            0.0,
            0.0,
            0.0,
            0.0,
            0.0,
            0.0,
            0.0,
            0.0,
            0.0,
            0.0,
            0.0,
            0.0,
            0.0,
            0.0,
            0.0,
            0.0,
            0.0,
            0.0,
            0.0,
            0.0,
            0.0,
            0.0,
            0.0,
            0.0,
            0.0,
            0.0,
            0.0,
            0.0,
            0.0,
            0.0,
            0.0,
            0.0,
            0.0,
            0.0,
            0.0,
            0.0,
            0.0,
            0.0,
            0.0,
            0.0,
            0.0,
            0.0,
            0.0,
            0.0,
            0.0,
            0.0,
            0.0,
            0.0
          ]
        ],
        "output_dim": 1,
        "estimator": "lr",
        "input_dim": 77
      },
      {
        "learning_rate": 0.05,
        "output_dim": 1,
        "feature_importances": [
          0.012987012987012988,
          0.012987012987012988,
          0.012987012987012988,
          0.012987012987012988,
          0.012987012987012988,
          0.012987012987012988,
          0.012987012987012988,
          0.012987012987012988,
          0.012987012987012988,
          0.012987012987012988,
          0.012987012987012988,
          0.012987012987012988,
          0.012987012987012988,
          0.012987012987012988,
          0.012987012987012988,
          0.012987012987012988,
          0.012987012987012988,
          0.012987012987012988,
          0.012987012987012988,
          0.012987012987012988,
          0.012987012987012988,
          0.012987012987012988,
          0.012987012987012988,
          0.012987012987012988,
          0.012987012987012988,
          0.012987012987012988,
          0.012987012987012988,
          0.012987012987012988,
          0.012987012987012988,
          0.012987012987012988,
          0.012987012987012988,
          0.012987012987012988,
          0.012987012987012988,
          0.012987012987012988,
          0.012987012987012988,
          0.012987012987012988,
          0.012987012987012988,
          0.012987012987012988,
          0.012987012987012988,
          0.012987012987012988,
          0.012987012987012988,
          0.012987012987012988,
          0.012987012987012988,
          0.012987012987012988,
          0.012987012987012988,
          0.012987012987012988,
          0.012987012987012988,
          0.012987012987012988,
          0.012987012987012988,
          0.012987012987012988,
          0.012987012987012988,
          0.012987012987012988,
          0.012987012987012988,
          0.012987012987012988,
          0.012987012987012988,
          0.012987012987012988,
          0.012987012987012988,
          0.012987012987012988,
          0.012987012987012988,
          0.012987012987012988,
          0.012987012987012988,
          0.012987012987012988,
          0.012987012987012988,
          0.012987012987012988,
          0.012987012987012988,
          0.012987012987012988,
          0.012987012987012988,
          0.012987012987012988,
          0.012987012987012988,
          0.012987012987012988,
          0.012987012987012988,
          0.012987012987012988,
          0.012987012987012988,
          0.012987012987012988,
          0.012987012987012988,
          0.012987012987012988,
          0.012987012987012988
        ],
        "max_depth": 8,
        "n_estimators": 100,
        "estimator": "gbm",
        "input_dim": 77
      },
      {
        "intercept": [
          0.0
        ],
        "coef": [
          [
            -0.006074361454851825,
            -0.0050168543295964745,
            0.00862553554266497,
            -0.002115466384769069,
            0.005268158139765304,
            0.003034335665625781,
            0.009741018162985211,
            0.0010890066076552976,
            -0.005962727541029362,
            0.0021530669685387756,
            -0.008180138418561675,
            -0.0022502870680307365,
            -0.004226597642042542,
            -0.0009898080999068207,
            -0.00895522000096675,
            0.007506154642073609,
            -0.009164692001608963,
            -0.007003858902786988,
            0.00640046500869877,
            0.0002870430183896794,
            -0.003995731202923887,
            -0.005892950565643514,
            0.003985584680476686,
            -0.0053570211148988925,
            0.001825459080465209,
            -0.0004019669686848044,
            -0.006715885817590806,
            0.001955980025014287,
            -0.006362601383964018,
            -0.00794860389442197,
            0.00025630646852888885,
            0.0007527814381266124,
            -0.009174595096704688,
            0.00210486421725275,
            -0.00457148108580608,
            0.003728100006154242,
            -0.005942102978262978,
            -0.001113651420710897,
            0.001696952594978967,
            -0.009058468137056741,
            0.009815289022860206,
            -0.006733420941306104,
            -0.00798829115245158,
            0.0050191668273657526,
            -0.003643040325215017,
            -0.008871622474585266,
            0.005672091583812008,
            0.0056540667088799314,
            0.00566497439163533,
            -0.007825841853157186,
            -0.0018690093987116692,
            -0.004396477741454987,
            0.009942264853620491,
            -0.009953902488238813,
            0.008707209723782817,
            0.004315768911551984,
            0.0010707851318943317,
            -1.9738363572116904e-05,
            0.0052445544872414505,
            -0.009913846597764335,
            -0.007202377778529841,
            0.004338214471891644,
            0.0009105664834627245,
            -0.0057784428897488535,
            -0.0031248163157269063,
            0.004015406432771779,
            -0.007789260649390431,
            -0.001715780420086915,
            -0.006745901426313769,
            -0.00418813489407127,
            0.0017570985309795263,
            0.003920623241652273,
            0.002743027507920017,
            -0.008760489797300128,
            0.005150196862919865,
            0.006382125689912347,
            0.0021296457132067344
          ]
        ],
        "output_dim": 1,
        "estimator": "lr",
        "input_dim": 77
      },
      {
        "linear.weight": [
          [
            0.8198192408220203,
            0.009263078655764919,
            12.945028218603502,
            1.2601078987082912,
            1.2601078987082912,
            0.0,
            0.0
          ]
        ],
        "linear.bias": [
          -4.000449539909791
        ],
        "model_type": "pytorch"
      },
      {
        "output_dim": 1,
        "feature_importances": [
          0.012987012987012988,
          0.012987012987012988,
          0.012987012987012988,
          0.012987012987012988,
          0.012987012987012988,
          0.012987012987012988,
          0.012987012987012988,
          0.012987012987012988,
          0.012987012987012988,
          0.012987012987012988,
          0.012987012987012988,
          0.012987012987012988,
          0.012987012987012988,
          0.012987012987012988,
          0.012987012987012988,
          0.012987012987012988,
          0.012987012987012988,
          0.012987012987012988,
          0.012987012987012988,
          0.012987012987012988,
          0.012987012987012988,
          0.012987012987012988,
          0.012987012987012988,
          0.012987012987012988,
          0.012987012987012988,
          0.012987012987012988,
          0.012987012987012988,
          0.012987012987012988,
          0.012987012987012988,
          0.012987012987012988,
          0.012987012987012988,
          0.012987012987012988,
          0.012987012987012988,
          0.012987012987012988,
          0.012987012987012988,
          0.012987012987012988,
          0.012987012987012988,
          0.012987012987012988,
          0.012987012987012988,
          0.012987012987012988,
          0.012987012987012988,
          0.012987012987012988,
          0.012987012987012988,
          0.012987012987012988,
          0.012987012987012988,
          0.012987012987012988,
          0.012987012987012988,
          0.012987012987012988,
          0.012987012987012988,
          0.012987012987012988,
          0.012987012987012988,
          0.012987012987012988,
          0.012987012987012988,
          0.012987012987012988,
          0.012987012987012988,
          0.012987012987012988,
          0.012987012987012988,
          0.012987012987012988,
          0.012987012987012988,
          0.012987012987012988,
          0.012987012987012988,
          0.012987012987012988,
          0.012987012987012988,
          0.012987012987012988,
          0.012987012987012988,
          0.012987012987012988,
          0.012987012987012988,
          0.012987012987012988,
          0.012987012987012988,
          0.012987012987012988,
          0.012987012987012988,
          0.012987012987012988,
          0.012987012987012988,
          0.012987012987012988,
          0.012987012987012988,
          0.012987012987012988,
          0.012987012987012988
        ],
        "n_estimators": 100,
        "estimator": "rf",
        "input_dim": 77
      },
      {
        "intercept": [
          -0.1
        ],
        "output_dim": 1,
        "dual_coef": [
          [
            0.1,
            -0.1
          ]
        ],
        "support_vectors": [
          [
            -0.07573718847466304,
            0.08147922956482079,
            -0.08679119697938678,
            0.012552923514694364,
            -0.013953700408443598,
            0.016354031094076918,
            -0.04603898471009933,
            0.04026037411454905,
            -0.07480646951395081,
            -0.01680856192206774,
            -0.024081137786929704,
            -0.018486213542680943,
            -0.013979808571677105,
            0.0040426038442819,
            -0.06627820282403847,
            -0.028638192385915057,
            -0.09576591712045637,
            -0.03518054650042268,
            -0.02965623992176035,
            0.0051168730892732495,
            -0.048704402929083984,
            -0.05842228740925515,
            0.008816480327313789,
            0.07168993218019623,
            0.04655288413903497,
            0.04474221047932253,
            -0.04399917197609722,
            -0.006387202364825928,
            0.06284357130635912,
            0.09983479848899032,
            0.021522802110698194,
            0.032167311136900995,
            0.07877623779051329,
            0.07357979648927973,
            -0.06924292714185734,
            0.08865128652322316,
            0.04550375133084894,
            0.035280543776430945,
            0.05220508582643679,
            0.047576235768367225,
            -0.04560172312725302,
            0.025036888905769966,
            -0.018996001137353266,
            0.021447440900702677,
            -0.03620331422607377,
            -0.02906187157165452,
            0.006996794695539529,
            -0.027217735264773446,
            -0.002576701362952377,
            0.028741371467097043,
            -0.05435797078283327,
            0.07414152279366323,
            -0.031469936472043325,
            -0.021210595092760395,
            0.04554592879704403,
            -0.0010722458437742305,
            0.06757507039300131,
            -0.054334890218625746,
            0.09585579132788535,
            -0.032261507557539607,
            0.0741064594407446,
            -0.07996106811419142,
            -0.06814782429870886,
            -0.06066291200682568,
            0.08117358521335258,
            -0.05762246575839174,
            -0.03889646379285157,
            0.018772335967740486,
            0.03948839580254171,
            -0.01699908032321125,
            0.029295604061089386,
            0.005979405469134419,
            -0.07020853798926173,
            0.06520108887854958,
            -0.05878441071500891,
            -0.08106239974622226,
            -0.0018594909397337267
          ],
          [
            0.02505517996904691,
            -0.07827370581864582,
            -0.055956622588230025,
            -0.09214398692629427,
            0.06826142304738261,
            -0.06460248652362557,
            -0.04296921465538575,
            -0.05186339805368361,
            -0.03368980203870035,
            -0.06474171336686621,
            -0.033609175415995535,
            -0.052855567206789925,
            0.09782493564632008,
            -0.05034924590272465,
            -0.01914572079188548,
            0.008777059437153567,
            -0.07189741014881974,
            0.014384895725748012,
            -0.06459488823748577,
            0.0215105362424447,
            -0.07713326814540702,
            0.0015564848655689606,
            -0.09482369532481745,
            -0.010778151257306329,
            0.006756438316397426,
            -0.024181830586542358,
            0.018424806355945927,
            0.05253398747808119,
            -0.09550606285888247,
            -0.01931606857472834,
            0.0011139328566687895,
            -0.05746540289071855,
            0.07459053901109958,
            -0.017554827437701204,
            -0.018908724036616142,
            -0.09418211970444956,
            -0.0741442824641152,
            0.08985856373030307,
            0.07002616083551569,
            -0.059433332230945005,
            0.059841524244334476,
            -0.01822349697135825,
            -0.0031675066810055164,
            -0.06863035046233254,
            -0.04360929986703957,
            0.028417363905673232,
            -0.002784925882029582,
            0.03466310747888865,
            0.05961611096340466,
            0.057527276710810954,
            -0.02138073695362848,
            -0.03085144915313616,
            -0.0305223014965256,
            0.029971042876685478,
            0.029743897406547815,
            -0.012724620300004805,
            -0.008510047006786856,
            -0.018367207780428302,
            -0.0318112952734652,
            -0.08935621544463167,
            -0.060824096651434005,
            0.027723216143578616,
            0.03188309845391932,
            0.048841472577567574,
            -0.05595896819380955,
            0.02029181299196639,
            -0.04094489888376578,
            0.06415677025634725,
            0.013148978833951691,
            -0.0761075204448662,
            0.025255478672168707,
            -0.0054187976460572385,
            0.06150890212001428,
            -0.0027125884432988856,
            -0.0958837174061461,
            -0.09772036328874208,
            0.012361053120202789
          ]
        ],
        "estimator": "svc",
        "input_dim": 77
      },
      {
        "learning_rate": 0.1,
        "output_dim": 1,
        "feature_importances": [
          0.012987012987012988,
          0.012987012987012988,
          0.012987012987012988,
          0.012987012987012988,
          0.012987012987012988,
          0.012987012987012988,
          0.012987012987012988,
          0.012987012987012988,
          0.012987012987012988,
          0.012987012987012988,
          0.012987012987012988,
          0.012987012987012988,
          0.012987012987012988,
          0.012987012987012988,
          0.012987012987012988,
          0.012987012987012988,
          0.012987012987012988,
          0.012987012987012988,
          0.012987012987012988,
          0.012987012987012988,
          0.012987012987012988,
          0.012987012987012988,
          0.012987012987012988,
          0.012987012987012988,
          0.012987012987012988,
          0.012987012987012988,
          0.012987012987012988,
          0.012987012987012988,
          0.012987012987012988,
          0.012987012987012988,
          0.012987012987012988,
          0.012987012987012988,
          0.012987012987012988,
          0.012987012987012988,
          0.012987012987012988,
          0.012987012987012988,
          0.012987012987012988,
          0.012987012987012988,
          0.012987012987012988,
          0.012987012987012988,
          0.012987012987012988,
          0.012987012987012988,
          0.012987012987012988,
          0.012987012987012988,
          0.012987012987012988,
          0.012987012987012988,
          0.012987012987012988,
          0.012987012987012988,
          0.012987012987012988,
          0.012987012987012988,
          0.012987012987012988,
          0.012987012987012988,
          0.012987012987012988,
          0.012987012987012988,
          0.012987012987012988,
          0.012987012987012988,
          0.012987012987012988,
          0.012987012987012988,
          0.012987012987012988,
          0.012987012987012988,
          0.012987012987012988,
          0.012987012987012988,
          0.012987012987012988,
          0.012987012987012988,
          0.012987012987012988,
          0.012987012987012988,
          0.012987012987012988,
          0.012987012987012988,
          0.012987012987012988,
          0.012987012987012988,
          0.012987012987012988,
          0.012987012987012988,
          0.012987012987012988,
          0.012987012987012988,
          0.012987012987012988,
          0.012987012987012988,
          0.012987012987012988
        ],
        "max_depth": 6,
        "n_estimators": 100,
        "estimator": "gbm",
        "input_dim": 77
      }
    ]
  },
  "info": {
    "round": 3,
    "timestamp": "2025-05-13T18:07:25.735486+00:00",
    "version": "1.0.0513-9475.3",
    "version_data": {
      "version": "1.0.0513-9475.3",
      "base_version": "1.0",
      "session_id": 1747159475,
      "session_tag": "0513-9475",
      "round": 3,
      "timestamp": "2025-05-13T18:07:25.735478+00:00"
    },
    "is_ensemble": true,
    "task_type": "fraud_detection",
    "num_models": 8,
    "model_names": [
      "catboost",
      "knn",
      "lgbm",
      "lr",
      "meta_lr",
      "rf",
      "svc",
      "xgb"
    ]
  }
}